FANN_FLO_2.1
num_layers=3
learning_rate=0.700000
connection_rate=1.000000
network_type=0
learning_momentum=0.400000
training_algorithm=0
train_error_function=1
train_stop_function=0
cascade_output_change_fraction=0.010000
quickprop_decay=-0.000100
quickprop_mu=1.750000
rprop_increase_factor=1.200000
rprop_decrease_factor=0.500000
rprop_delta_min=0.000000
rprop_delta_max=50.000000
rprop_delta_zero=0.100000
cascade_output_stagnation_epochs=12
cascade_candidate_change_fraction=0.010000
cascade_candidate_stagnation_epochs=12
cascade_max_out_epochs=150
cascade_min_out_epochs=50
cascade_max_cand_epochs=150
cascade_min_cand_epochs=50
cascade_num_candidate_groups=2
bit_fail_limit=3.49999994039535522461e-01
cascade_candidate_limit=1.00000000000000000000e+03
cascade_weight_multiplier=4.00000005960464477539e-01
cascade_activation_functions_count=10
cascade_activation_functions=3 5 7 8 10 11 14 15 16 17 
cascade_activation_steepnesses_count=4
cascade_activation_steepnesses=2.50000000000000000000e-01 5.00000000000000000000e-01 7.50000000000000000000e-01 1.00000000000000000000e+00 
layer_sizes=49 31 4 
scale_included=0
neurons (num_inputs, activation_function, activation_steepness)=(0, 0, 0.00000000000000000000e+00) (0, 0, 0.00000000000000000000e+00) (0, 0, 0.00000000000000000000e+00) (0, 0, 0.00000000000000000000e+00) (0, 0, 0.00000000000000000000e+00) (0, 0, 0.00000000000000000000e+00) (0, 0, 0.00000000000000000000e+00) (0, 0, 0.00000000000000000000e+00) (0, 0, 0.00000000000000000000e+00) (0, 0, 0.00000000000000000000e+00) (0, 0, 0.00000000000000000000e+00) (0, 0, 0.00000000000000000000e+00) (0, 0, 0.00000000000000000000e+00) (0, 0, 0.00000000000000000000e+00) (0, 0, 0.00000000000000000000e+00) (0, 0, 0.00000000000000000000e+00) (0, 0, 0.00000000000000000000e+00) (0, 0, 0.00000000000000000000e+00) (0, 0, 0.00000000000000000000e+00) (0, 0, 0.00000000000000000000e+00) (0, 0, 0.00000000000000000000e+00) (0, 0, 0.00000000000000000000e+00) (0, 0, 0.00000000000000000000e+00) (0, 0, 0.00000000000000000000e+00) (0, 0, 0.00000000000000000000e+00) (0, 0, 0.00000000000000000000e+00) (0, 0, 0.00000000000000000000e+00) (0, 0, 0.00000000000000000000e+00) (0, 0, 0.00000000000000000000e+00) (0, 0, 0.00000000000000000000e+00) (0, 0, 0.00000000000000000000e+00) (0, 0, 0.00000000000000000000e+00) (0, 0, 0.00000000000000000000e+00) (0, 0, 0.00000000000000000000e+00) (0, 0, 0.00000000000000000000e+00) (0, 0, 0.00000000000000000000e+00) (0, 0, 0.00000000000000000000e+00) (0, 0, 0.00000000000000000000e+00) (0, 0, 0.00000000000000000000e+00) (0, 0, 0.00000000000000000000e+00) (0, 0, 0.00000000000000000000e+00) (0, 0, 0.00000000000000000000e+00) (0, 0, 0.00000000000000000000e+00) (0, 0, 0.00000000000000000000e+00) (0, 0, 0.00000000000000000000e+00) (0, 0, 0.00000000000000000000e+00) (0, 0, 0.00000000000000000000e+00) (0, 0, 0.00000000000000000000e+00) (0, 0, 0.00000000000000000000e+00) (49, 4, 5.00000000000000000000e-01) (49, 4, 5.00000000000000000000e-01) (49, 4, 5.00000000000000000000e-01) (49, 4, 5.00000000000000000000e-01) (49, 4, 5.00000000000000000000e-01) (49, 4, 5.00000000000000000000e-01) (49, 4, 5.00000000000000000000e-01) (49, 4, 5.00000000000000000000e-01) (49, 4, 5.00000000000000000000e-01) (49, 4, 5.00000000000000000000e-01) (49, 4, 5.00000000000000000000e-01) (49, 4, 5.00000000000000000000e-01) (49, 4, 5.00000000000000000000e-01) (49, 4, 5.00000000000000000000e-01) (49, 4, 5.00000000000000000000e-01) (49, 4, 5.00000000000000000000e-01) (49, 4, 5.00000000000000000000e-01) (49, 4, 5.00000000000000000000e-01) (49, 4, 5.00000000000000000000e-01) (49, 4, 5.00000000000000000000e-01) (49, 4, 5.00000000000000000000e-01) (49, 4, 5.00000000000000000000e-01) (49, 4, 5.00000000000000000000e-01) (49, 4, 5.00000000000000000000e-01) (49, 4, 5.00000000000000000000e-01) (49, 4, 5.00000000000000000000e-01) (49, 4, 5.00000000000000000000e-01) (49, 4, 5.00000000000000000000e-01) (49, 4, 5.00000000000000000000e-01) (49, 4, 5.00000000000000000000e-01) (0, 0, 0.00000000000000000000e+00) (31, 4, 5.00000000000000000000e-01) (31, 4, 5.00000000000000000000e-01) (31, 4, 5.00000000000000000000e-01) (0, 0, 0.00000000000000000000e+00) 
connections (connected_to_neuron, weight)=(0, -1.46218668669462203979e-02) (1, -7.29425903409719467163e-03) (2, -1.29345849156379699707e-01) (3, -1.61816671490669250488e-01) (4, -3.67611236870288848877e-02) (5, -3.31724584102630615234e-02) (6, -5.66422604024410247803e-02) (7, -3.15879285335540771484e-02) (8, -4.68547977507114410400e-02) (9, 2.12596222758293151855e-01) (10, 1.20345748960971832275e-01) (11, -2.87496764212846755981e-03) (12, -4.09128993749618530273e-01) (13, -2.28034436702728271484e-01) (14, -6.87349513173103332520e-02) (15, -2.01205044984817504883e-01) (16, 3.59702587127685546875e-01) (17, 2.29454278945922851562e-01) (18, -6.80978782474994659424e-03) (19, 5.95485307276248931885e-02) (20, -1.90284132957458496094e-01) (21, -1.11962601542472839355e-01) (22, -5.71520142257213592529e-02) (23, 2.19023555517196655273e-01) (24, 3.84822189807891845703e-01) (25, 3.96450251340866088867e-01) (26, 3.30501139163970947266e-01) (27, 1.72788605093955993652e-01) (28, 6.18347600102424621582e-02) (29, -1.06169236823916435242e-02) (30, 8.99156108498573303223e-02) (31, 2.34821423888206481934e-01) (32, -2.32743676751852035522e-02) (33, 3.29250633716583251953e-01) (34, 3.81486684083938598633e-01) (35, 2.08962321281433105469e-01) (36, 1.09555818140506744385e-01) (37, 2.24551528692245483398e-01) (38, 4.67608720064163208008e-02) (39, 2.96501675620675086975e-03) (40, -1.90943002700805664062e-01) (41, 3.38831730186939239502e-02) (42, 9.72975566983222961426e-02) (43, 3.57952296733856201172e-01) (44, 2.05051541328430175781e-01) (45, 1.48207575082778930664e-01) (46, 6.63856393657624721527e-04) (47, -1.94061771035194396973e-02) (48, -1.74750399589538574219e+00) (0, -2.53699988126754760742e-01) (1, -3.99635225534439086914e-01) (2, -1.88189432024955749512e-01) (3, -5.20643703639507293701e-02) (4, 2.46936418116092681885e-02) (5, 5.45596666634082794189e-02) (6, 6.21008463203907012939e-02) (7, 8.78297686576843261719e-02) (8, -6.71737253665924072266e-01) (9, -2.99383312463760375977e-01) (10, -6.12622909247875213623e-02) (11, -6.95307031273841857910e-02) (12, 1.09387114644050598145e-01) (13, 4.19459879398345947266e-01) (14, -5.81424646079540252686e-02) (15, -3.35073471069335937500e-01) (16, -2.35868811607360839844e-01) (17, -1.04716226458549499512e-01) (18, 4.86631512641906738281e-01) (19, 4.32289540767669677734e-01) (20, 3.16679418087005615234e-01) (21, 3.95414471626281738281e-01) (22, 2.08369076251983642578e-01) (23, 2.56762981414794921875e-01) (24, -2.17233866453170776367e-01) (25, -9.46291983127593994141e-02) (26, 4.07785117626190185547e-01) (27, 2.00327366590499877930e-01) (28, 1.83139935135841369629e-01) (29, 6.36716723442077636719e-01) (30, 6.59980654716491699219e-01) (31, 3.18346232175827026367e-01) (32, 3.19032490253448486328e-01) (33, 3.41724634170532226562e-01) (34, 6.67540132999420166016e-01) (35, 8.03657054901123046875e-01) (36, 2.10179477930068969727e-01) (37, 4.96785819530487060547e-01) (38, 2.07169339060783386230e-01) (39, -1.68004021048545837402e-01) (40, 4.11402359604835510254e-02) (41, 3.21889370679855346680e-01) (42, 2.80497670173645019531e-01) (43, 7.59436309337615966797e-01) (44, 6.17407336831092834473e-02) (45, 1.08164466917514801025e-01) (46, -3.91391634941101074219e-01) (47, 1.75250079482793807983e-02) (48, -2.14658880233764648438e+00) (0, -3.37625324726104736328e-01) (1, -1.19394049048423767090e-01) (2, -1.12340219318866729736e-01) (3, -3.31019610166549682617e-02) (4, -4.87892657518386840820e-01) (5, -2.82315701246261596680e-01) (6, 1.28416176885366439819e-02) (7, 2.47262954711914062500e-01) (8, -2.58197844028472900391e-01) (9, -2.68998205661773681641e-01) (10, 4.36487644910812377930e-02) (11, -9.81282442808151245117e-02) (12, -6.77572131156921386719e-01) (13, -7.95276742428541183472e-03) (14, -2.13623255491256713867e-01) (15, 3.65469634532928466797e-01) (16, -3.44215989112854003906e-01) (17, 7.63285458087921142578e-02) (18, -8.77980589866638183594e-02) (19, -1.91403418779373168945e-01) (20, -2.71979302167892456055e-01) (21, -2.24154144525527954102e-01) (22, -8.19910392165184020996e-02) (23, -6.24218523502349853516e-01) (24, -1.19353033602237701416e-01) (25, -6.48447796702384948730e-02) (26, -4.58875238895416259766e-01) (27, -3.41547310352325439453e-01) (28, -6.25019371509552001953e-01) (29, -1.62108242511749267578e-01) (30, -5.83109498023986816406e-01) (31, -5.46408355236053466797e-01) (32, 2.99518167972564697266e-01) (33, -3.79719763994216918945e-01) (34, -6.17826282978057861328e-01) (35, -5.26131987571716308594e-01) (36, -4.37193214893341064453e-01) (37, -3.75398963689804077148e-01) (38, -2.38648459315299987793e-01) (39, -1.25638097524642944336e-01) (40, 4.18845325708389282227e-01) (41, -6.62635862827301025391e-02) (42, 5.53252957761287689209e-02) (43, -8.48245322704315185547e-01) (44, -6.82611405849456787109e-01) (45, -4.38552290201187133789e-01) (46, -1.86810180544853210449e-01) (47, -3.82624745368957519531e-01) (48, -9.00898516178131103516e-01) (0, 1.16597153246402740479e-01) (1, 1.82513788342475891113e-01) (2, 2.84629702568054199219e-01) (3, 9.65728983283042907715e-02) (4, -1.63119643926620483398e-01) (5, -7.42736691609025001526e-03) (6, -1.18695944547653198242e-01) (7, -7.57775083184242248535e-03) (8, 1.65615513920783996582e-01) (9, 2.23485246300697326660e-01) (10, 3.10688614845275878906e-01) (11, -2.96860858798027038574e-02) (12, -3.72841536998748779297e-01) (13, -1.18621334433555603027e-01) (14, 2.68484130501747131348e-02) (15, -5.60572564601898193359e-01) (16, 4.09877657890319824219e-01) (17, 2.80701637268066406250e-01) (18, 5.16632869839668273926e-02) (19, 2.85791963338851928711e-01) (20, -2.88725495338439941406e-01) (21, 1.06160551309585571289e-01) (22, -2.39921621978282928467e-02) (23, 5.55892527103424072266e-01) (24, 4.08433467149734497070e-01) (25, 4.22118902206420898438e-01) (26, 3.49256277084350585938e-01) (27, 4.61760133504867553711e-01) (28, 2.12901651859283447266e-01) (29, 1.41358345746994018555e-01) (30, 4.10897880792617797852e-01) (31, 3.82139205932617187500e-01) (32, -1.74523696303367614746e-01) (33, 3.56457918882369995117e-01) (34, 3.42378318309783935547e-01) (35, 1.58279865980148315430e-01) (36, 1.10737897455692291260e-01) (37, 3.09648662805557250977e-01) (38, 3.72619509696960449219e-01) (39, 1.16078481078147888184e-01) (40, -5.23344159126281738281e-01) (41, -4.09654937684535980225e-02) (42, 7.16856792569160461426e-02) (43, 2.05296605825424194336e-01) (44, 3.96587491035461425781e-01) (45, 2.25966289639472961426e-01) (46, 2.54699051380157470703e-01) (47, 1.19245551526546478271e-01) (48, -2.02017402648925781250e+00) (0, 7.69065618515014648438e-02) (1, 5.75467832386493682861e-02) (2, 1.88131988048553466797e-01) (3, -3.42792630195617675781e-01) (4, 6.11784577369689941406e-01) (5, 2.49900028109550476074e-01) (6, -1.71519726514816284180e-01) (7, -1.01363234221935272217e-01) (8, -3.93430948257446289062e-01) (9, 2.76079207658767700195e-01) (10, 3.19916516542434692383e-01) (11, 3.16152870655059814453e-01) (12, -2.61449422687292098999e-02) (13, -3.93158853054046630859e-01) (14, -1.54675051569938659668e-01) (15, -2.23082661628723144531e-01) (16, 5.41662931442260742188e-01) (17, 5.55333971977233886719e-01) (18, 3.55198979377746582031e-01) (19, 4.21247512102127075195e-01) (20, 1.94558009505271911621e-01) (21, 2.51966357231140136719e-01) (22, 5.51756858825683593750e-01) (23, 1.37720668315887451172e+00) (24, 3.49544852972030639648e-01) (25, 4.87810164690017700195e-01) (26, 9.26775932312011718750e-01) (27, 5.28999567031860351562e-01) (28, 1.43735155463218688965e-01) (29, 6.66492104530334472656e-01) (30, 1.23212182521820068359e+00) (31, 1.27412438392639160156e+00) (32, 2.05322414636611938477e-01) (33, 9.58856463432312011719e-01) (34, 1.16837501525878906250e+00) (35, 1.24879503250122070312e+00) (36, 3.48017573356628417969e-01) (37, 7.85593569278717041016e-01) (38, 7.20712065696716308594e-01) (39, 1.52258276939392089844e-01) (40, -1.51517540216445922852e-01) (41, 6.66850328445434570312e-01) (42, 7.62802362442016601562e-02) (43, 1.76413106918334960938e+00) (44, 7.37177431583404541016e-01) (45, 7.27083802223205566406e-01) (46, 4.78395856916904449463e-02) (47, -1.19461320340633392334e-01) (48, -1.09538936614990234375e+00) (0, 1.76092050969600677490e-02) (1, -7.55953714251518249512e-02) (2, -8.78125131130218505859e-02) (3, 7.77666494250297546387e-02) (4, -2.10845395922660827637e-01) (5, -2.16544300317764282227e-01) (6, -2.03819110989570617676e-01) (7, -4.07593846321105957031e-02) (8, 6.07182160019874572754e-02) (9, -3.88598799705505371094e-01) (10, -1.44373893737792968750e-01) (11, -2.53554046154022216797e-01) (12, -6.20267353951930999756e-02) (13, 4.27563674747943878174e-02) (14, 1.74988940358161926270e-01) (15, -1.89523205161094665527e-01) (16, -2.92877554893493652344e-01) (17, -5.43423473834991455078e-01) (18, -1.99389562010765075684e-01) (19, -2.72347807884216308594e-01) (20, -4.24438506364822387695e-01) (21, -2.53499001264572143555e-01) (22, -1.68251797556877136230e-01) (23, -7.11538568139076232910e-02) (24, -2.09394589066505432129e-01) (25, -3.55427145957946777344e-01) (26, -3.17545354366302490234e-01) (27, -3.13789308071136474609e-01) (28, -2.61272639036178588867e-01) (29, -4.32627320289611816406e-01) (30, -2.86380827426910400391e-01) (31, -3.44262778759002685547e-01) (32, -1.61447882652282714844e-01) (33, -4.47275936603546142578e-01) (34, -2.84511208534240722656e-01) (35, -6.29718840122222900391e-01) (36, -3.56317818164825439453e-01) (37, -3.42280000448226928711e-01) (38, -4.37068879604339599609e-01) (39, -6.51989579200744628906e-02) (40, -1.03307686746120452881e-01) (41, -2.30171307921409606934e-01) (42, -1.52777209877967834473e-01) (43, -5.80182790756225585938e-01) (44, -4.17486220598220825195e-01) (45, -2.06533312797546386719e-01) (46, -5.43199740350246429443e-02) (47, 2.66203973442316055298e-02) (48, -1.02581095695495605469e+00) (0, -2.01406818814575672150e-03) (1, -1.00572422146797180176e-01) (2, -1.38340026140213012695e-01) (3, -1.53227825649082660675e-03) (4, -8.28326880931854248047e-01) (5, -4.13958877325057983398e-01) (6, -9.57131460309028625488e-02) (7, 2.78163272887468338013e-02) (8, 3.84042441844940185547e-01) (9, -5.01347959041595458984e-01) (10, -4.24565345048904418945e-01) (11, -4.20207679271697998047e-01) (12, -4.18837875127792358398e-01) (13, -7.79030248522758483887e-02) (14, -2.75852978229522705078e-02) (15, 1.38438865542411804199e-01) (16, -6.83248996734619140625e-01) (17, -6.78136110305786132812e-01) (18, -3.92956286668777465820e-01) (19, -5.99811613559722900391e-01) (20, -6.29834413528442382812e-01) (21, -6.47499620914459228516e-01) (22, -5.93681097030639648438e-01) (23, -1.12181794643402099609e+00) (24, -4.52486693859100341797e-01) (25, -7.06698834896087646484e-01) (26, -1.01248204708099365234e+00) (27, -7.15845644474029541016e-01) (28, -5.05681097507476806641e-01) (29, -7.53379046916961669922e-01) (30, -1.34621179103851318359e+00) (31, -1.08029973506927490234e+00) (32, -2.77442485094070434570e-01) (33, -1.08033013343811035156e+00) (34, -1.25457179546356201172e+00) (35, -1.68898928165435791016e+00) (36, -6.63525223731994628906e-01) (37, -7.89715766906738281250e-01) (38, -7.07656621932983398438e-01) (39, -1.46828562021255493164e-01) (40, 1.32252573966979980469e-01) (41, -8.00239205360412597656e-01) (42, -1.26972869038581848145e-01) (43, -2.18976044654846191406e+00) (44, -8.17815780639648437500e-01) (45, -7.53685474395751953125e-01) (46, 4.39697355031967163086e-02) (47, -4.10289242863655090332e-02) (48, 4.40593212842941284180e-01) (0, 7.05597028136253356934e-02) (1, -2.14811578392982482910e-01) (2, -1.54785543680191040039e-01) (3, -2.49829232692718505859e-01) (4, -1.08615028858184814453e+00) (5, -1.26889014244079589844e+00) (6, -9.99124646186828613281e-01) (7, -2.10375055670738220215e-01) (8, 5.42702376842498779297e-01) (9, -1.15513098239898681641e+00) (10, 2.01666355133056640625e-01) (11, -2.97955423593521118164e-03) (12, -1.68249797821044921875e+00) (13, -7.71874487400054931641e-01) (14, 3.06747883558273315430e-01) (15, 1.33537858724594116211e-01) (16, -7.94246912002563476562e-01) (17, -1.28888332843780517578e+00) (18, 1.02111801505088806152e-01) (19, -9.42099750041961669922e-01) (20, -9.94418799877166748047e-01) (21, 1.07490532100200653076e-01) (22, 8.09623181819915771484e-01) (23, 3.51876586675643920898e-01) (24, -6.78571105003356933594e-01) (25, -9.96859252452850341797e-01) (26, -1.46914732456207275391e+00) (27, -7.75864124298095703125e-01) (28, -3.65613818168640136719e-01) (29, -2.79044717550277709961e-01) (30, 3.58118206262588500977e-01) (31, 8.23647677898406982422e-01) (32, -6.96580767631530761719e-01) (33, -1.31402337551116943359e+00) (34, -4.99087780714035034180e-01) (35, 6.46324634552001953125e-01) (36, 1.78461968898773193359e-01) (37, 1.63705170154571533203e-01) (38, 1.29368054866790771484e+00) (39, 1.69174432754516601562e-01) (40, -3.71466010808944702148e-01) (41, -8.86944949626922607422e-01) (42, 4.44321900606155395508e-01) (43, -4.20940250158309936523e-01) (44, 2.83757060766220092773e-01) (45, 5.51335096359252929688e-01) (46, 7.59515881538391113281e-01) (47, 5.93302130699157714844e-01) (48, -1.13266396522521972656e+00) (0, -8.91514569520950317383e-02) (1, 1.00651429966092109680e-02) (2, -6.46219775080680847168e-02) (3, -4.59865555167198181152e-02) (4, -2.76624768972396850586e-01) (5, -7.24424421787261962891e-02) (6, -1.19366161525249481201e-01) (7, -9.88484844565391540527e-02) (8, -4.58370745182037353516e-02) (9, -1.50280997157096862793e-01) (10, -1.67039558291435241699e-01) (11, -1.25504732131958007812e-01) (12, -2.37489297986030578613e-01) (13, -2.91089843958616256714e-02) (14, -8.06369557976722717285e-02) (15, -1.44198343157768249512e-01) (16, -7.32603073120117187500e-02) (17, -1.87910646200180053711e-01) (18, -1.45988434553146362305e-01) (19, -2.95265227556228637695e-01) (20, -3.43892693519592285156e-01) (21, -3.49032729864120483398e-01) (22, -1.69683471322059631348e-01) (23, -3.03806275129318237305e-01) (24, -1.40802845358848571777e-01) (25, -1.68717607855796813965e-01) (26, -3.12605351209640502930e-01) (27, -2.09042429924011230469e-01) (28, -1.96444958448410034180e-01) (29, -2.26850777864456176758e-01) (30, -3.32613199949264526367e-01) (31, -3.27936351299285888672e-01) (32, -4.52918522059917449951e-02) (33, -3.61762613058090209961e-01) (34, -2.88878053426742553711e-01) (35, -5.03962218761444091797e-01) (36, -2.94689774513244628906e-01) (37, -3.23221117258071899414e-01) (38, -2.25042462348937988281e-01) (39, -2.36954726278781890869e-02) (40, -2.85711213946342468262e-02) (41, -2.27682501077651977539e-01) (42, -4.14538830518722534180e-02) (43, -4.30147886276245117188e-01) (44, -4.24893260002136230469e-01) (45, -1.65347501635551452637e-01) (46, -4.30880561470985412598e-02) (47, 3.53494696319103240967e-02) (48, -1.13408720493316650391e+00) (0, 8.60350430011749267578e-02) (1, 1.27289310097694396973e-01) (2, 2.00698316097259521484e-01) (3, 2.09500014781951904297e-01) (4, -1.08394712209701538086e-01) (5, -1.04508437216281890869e-01) (6, 7.41114839911460876465e-03) (7, -1.32725507020950317383e-01) (8, -8.47423449158668518066e-03) (9, -1.54488146305084228516e-01) (10, 8.52115973830223083496e-02) (11, -2.67907053232192993164e-01) (12, -9.41002443432807922363e-02) (13, 2.11558893322944641113e-01) (14, 3.62734913825988769531e-01) (15, -4.22612905502319335938e-01) (16, 2.32937499880790710449e-01) (17, -3.46749991178512573242e-01) (18, 5.62917180359363555908e-02) (19, -3.60262952744960784912e-02) (20, -3.92554104328155517578e-01) (21, -1.42276078462600708008e-01) (22, -6.25018924474716186523e-02) (23, 3.90230238437652587891e-01) (24, 9.29447412490844726562e-02) (25, 2.48235445469617843628e-02) (26, -1.78091377019882202148e-02) (27, 4.81966957449913024902e-02) (28, -1.81312203407287597656e-01) (29, -1.36246114969253540039e-01) (30, 6.29427582025527954102e-02) (31, 3.01818847656250000000e-01) (32, 3.53715419769287109375e-02) (33, -2.51246452331542968750e-01) (34, 5.80798834562301635742e-02) (35, -1.41844138503074645996e-01) (36, -3.71388524770736694336e-01) (37, 1.03310301899909973145e-01) (38, -6.64509832859039306641e-02) (39, 2.69429851323366165161e-02) (40, -2.51913040876388549805e-01) (41, -2.12457060813903808594e-01) (42, -1.44987376406788825989e-02) (43, 1.57593619078397750854e-02) (44, 4.47523482143878936768e-02) (45, -1.62529557943344116211e-01) (46, -6.50173723697662353516e-02) (47, 1.07847683131694793701e-01) (48, -1.75188350677490234375e+00) (0, -1.51811419054865837097e-02) (1, -3.05724412202835083008e-01) (2, -4.99409466981887817383e-01) (3, -3.08533310890197753906e-01) (4, -4.01231467723846435547e-01) (5, -1.39179050922393798828e-01) (6, 6.71664066612720489502e-03) (7, 6.46463185548782348633e-02) (8, -3.14824819564819335938e-01) (9, -8.00977766513824462891e-01) (10, -5.53311467170715332031e-01) (11, -5.84242284297943115234e-01) (12, -1.51550084352493286133e-01) (13, -3.16762216389179229736e-02) (14, 3.82829695940017700195e-01) (15, 3.30555438995361328125e-01) (16, -6.30155801773071289062e-01) (17, -9.02378559112548828125e-01) (18, -5.38471877574920654297e-01) (19, -7.61000037193298339844e-01) (20, -6.08078062534332275391e-01) (21, -5.32817482948303222656e-01) (22, -4.50659245252609252930e-01) (23, -2.98692137002944946289e-01) (24, -5.62259137630462646484e-01) (25, -5.54899036884307861328e-01) (26, -8.61613214015960693359e-01) (27, -8.07654380798339843750e-01) (28, -7.49664008617401123047e-01) (29, -7.86892950534820556641e-01) (30, -7.17552959918975830078e-01) (31, -7.84977555274963378906e-01) (32, 6.96282386779785156250e-02) (33, -9.72278714179992675781e-01) (34, -9.05802667140960693359e-01) (35, -1.25714886188507080078e+00) (36, -8.92857313156127929688e-01) (37, -6.73048675060272216797e-01) (38, -9.86483991146087646484e-01) (39, -1.47029966115951538086e-01) (40, 2.35477924346923828125e-01) (41, -2.08784639835357666016e-01) (42, 2.09612041711807250977e-01) (43, -1.42720091342926025391e+00) (44, -1.01047396659851074219e+00) (45, -5.81373929977416992188e-01) (46, -2.76599526405334472656e-01) (47, -2.27417930960655212402e-01) (48, 1.19970008730888366699e-01) (0, -1.45951762795448303223e-01) (1, -1.07199877500534057617e-01) (2, -1.58937722444534301758e-02) (3, -3.35918590426445007324e-02) (4, -4.38803732395172119141e-01) (5, -1.88712477684020996094e-01) (6, -1.05726897716522216797e-01) (7, 8.74597579240798950195e-02) (8, 1.19065769016742706299e-01) (9, -1.18926823139190673828e-01) (10, -3.64477150142192840576e-02) (11, -2.59267866611480712891e-01) (12, -4.40515011548995971680e-01) (13, -1.74699738621711730957e-01) (14, -4.31648734956979751587e-03) (15, 2.52343595027923583984e-01) (16, -1.94229736924171447754e-01) (17, -2.34212487936019897461e-01) (18, -1.69504001736640930176e-01) (19, -3.81761908531188964844e-01) (20, -4.48112845420837402344e-01) (21, -3.01317423582077026367e-01) (22, -3.34750324487686157227e-01) (23, -5.19415616989135742188e-01) (24, -9.38101485371589660645e-02) (25, -2.26947128772735595703e-01) (26, -4.83655005693435668945e-01) (27, -3.67868483066558837891e-01) (28, -4.49471890926361083984e-01) (29, -3.35581362247467041016e-01) (30, -6.40119075775146484375e-01) (31, -5.25068759918212890625e-01) (32, 1.98982194066047668457e-01) (33, -3.99884879589080810547e-01) (34, -4.54924941062927246094e-01) (35, -6.49911105632781982422e-01) (36, -4.19832706451416015625e-01) (37, -5.22142887115478515625e-01) (38, -4.61717516183853149414e-01) (39, -5.44702187180519104004e-02) (40, 5.27953952550888061523e-02) (41, -1.95822075009346008301e-01) (42, -3.72666791081428527832e-02) (43, -9.02026534080505371094e-01) (44, -6.01699233055114746094e-01) (45, -3.52514743804931640625e-01) (46, -1.59405648708343505859e-01) (47, -2.06184834241867065430e-01) (48, -7.01270878314971923828e-01) (0, -6.08799047768115997314e-02) (1, -3.03880035877227783203e-01) (2, -3.48248511552810668945e-01) (3, -1.97472393512725830078e-01) (4, -9.39796626567840576172e-01) (5, -1.45187556743621826172e-01) (6, -2.45951354503631591797e-01) (7, -7.64226913452148437500e-02) (8, 2.63704299926757812500e-01) (9, -1.61072254180908203125e-01) (10, -2.46226355433464050293e-01) (11, -6.07696712017059326172e-01) (12, -7.59328722953796386719e-01) (13, -4.25147235393524169922e-01) (14, -2.00972184538841247559e-01) (15, 1.65185227990150451660e-01) (16, 1.31253242492675781250e-01) (17, -1.84233173727989196777e-01) (18, -9.93415564298629760742e-02) (19, -8.52359116077423095703e-01) (20, -8.61751019954681396484e-01) (21, -8.03103506565093994141e-01) (22, -4.92141634225845336914e-01) (23, -8.42733860015869140625e-01) (24, 6.02626383304595947266e-01) (25, -1.67407289147377014160e-01) (26, 2.05394566059112548828e-01) (27, -6.16129219532012939453e-01) (28, -4.38066184520721435547e-01) (29, -6.79719090461730957031e-01) (30, -6.81781291961669921875e-01) (31, -1.19992017745971679688e+00) (32, 1.03716542944312095642e-02) (33, -1.93331748247146606445e-01) (34, -1.09784625470638275146e-01) (35, -6.07258498668670654297e-01) (36, -1.02525436878204345703e+00) (37, -4.95790034532546997070e-01) (38, -3.49010854959487915039e-01) (39, 3.78510281443595886230e-02) (40, -2.26138368248939514160e-01) (41, -2.21285045146942138672e-01) (42, -2.38048985600471496582e-01) (43, -4.82388406991958618164e-01) (44, -1.03726422786712646484e+00) (45, -2.85195946693420410156e-01) (46, 2.80499964952468872070e-01) (47, 7.90523812174797058105e-02) (48, -6.70315265655517578125e-01) (0, 1.75727754831314086914e-01) (1, -8.70945751667022705078e-02) (2, 6.39551281929016113281e-02) (3, -2.53194898366928100586e-01) (4, 6.53859198093414306641e-01) (5, 2.58767247200012207031e-01) (6, 3.83212007582187652588e-02) (7, 1.53857395052909851074e-01) (8, -2.46978908777236938477e-01) (9, 6.48711547255516052246e-02) (10, 3.57666611671447753906e-01) (11, 2.67369031906127929688e-01) (12, -3.06441597640514373779e-02) (13, -1.59976556897163391113e-01) (14, -1.89873024821281433105e-01) (15, -5.62565028667449951172e-01) (16, 4.52491790056228637695e-01) (17, 1.84710279107093811035e-01) (18, 2.66994655132293701172e-01) (19, 2.50168859958648681641e-01) (20, 5.67030370235443115234e-01) (21, 2.93463647365570068359e-01) (22, 4.26880538463592529297e-01) (23, 1.54241871833801269531e+00) (24, 1.96722492575645446777e-01) (25, 6.02059900760650634766e-01) (26, 6.54180288314819335938e-01) (27, 3.14038574695587158203e-01) (28, 1.61263048648834228516e-01) (29, 4.02985513210296630859e-01) (30, 1.33469033241271972656e+00) (31, 1.50367128849029541016e+00) (32, 2.17836759984493255615e-02) (33, 6.94124877452850341797e-01) (34, 9.06382143497467041016e-01) (35, 6.69334352016448974609e-01) (36, 5.33303081989288330078e-01) (37, 8.17208766937255859375e-01) (38, 6.02986752986907958984e-01) (39, 2.81662374734878540039e-01) (40, -1.05514019727706909180e-01) (41, 5.30050754547119140625e-01) (42, 1.72312989830970764160e-01) (43, 1.26007664203643798828e+00) (44, 4.94880616664886474609e-01) (45, 6.11861050128936767578e-01) (46, 5.29395835474133491516e-03) (47, 1.67291108518838882446e-02) (48, -9.83131051063537597656e-01) (0, -2.33126077800989151001e-02) (1, -1.64979137480258941650e-02) (2, -1.04296408593654632568e-01) (3, -1.95681184530258178711e-01) (4, -4.66566830873489379883e-01) (5, -1.28094106912612915039e-01) (6, -7.21752643585205078125e-02) (7, -1.44638687372207641602e-01) (8, 2.06366539001464843750e-01) (9, -1.94814503192901611328e-01) (10, -2.24783152341842651367e-01) (11, -3.03199321031570434570e-01) (12, -2.89888620376586914062e-01) (13, -1.17654822766780853271e-01) (14, 2.12666355073451995850e-02) (15, 1.96233659982681274414e-01) (16, -1.33482381701469421387e-01) (17, -2.91165381669998168945e-01) (18, -2.53970235586166381836e-01) (19, -2.54598408937454223633e-01) (20, -4.99989271163940429688e-01) (21, -4.90183681249618530273e-01) (22, -3.19020330905914306641e-01) (23, -5.30759513378143310547e-01) (24, 6.48208409547805786133e-02) (25, -3.30178290605545043945e-01) (26, -2.28042736649513244629e-01) (27, -2.87043273448944091797e-01) (28, -3.91420632600784301758e-01) (29, -3.44228148460388183594e-01) (30, -5.82608699798583984375e-01) (31, -6.06974899768829345703e-01) (32, -3.46807092428207397461e-02) (33, -2.99172282218933105469e-01) (34, -3.47071647644042968750e-01) (35, -6.50278806686401367188e-01) (36, -5.90779721736907958984e-01) (37, -3.69470834732055664062e-01) (38, -4.07500743865966796875e-01) (39, -1.03967301547527313232e-01) (40, -1.38606756925582885742e-01) (41, -1.46424368023872375488e-01) (42, -1.25886231660842895508e-01) (43, -7.00012862682342529297e-01) (44, -5.40977120399475097656e-01) (45, -3.45629692077636718750e-01) (46, -6.52087405323982238770e-02) (47, 6.92680776119232177734e-02) (48, -7.70651340484619140625e-01) (0, 1.69345393776893615723e-01) (1, 1.31645932793617248535e-01) (2, 2.16206550598144531250e-01) (3, 1.05622477829456329346e-01) (4, -2.13063687086105346680e-01) (5, -2.37899944186210632324e-01) (6, -2.41984218358993530273e-01) (7, -1.48023173213005065918e-01) (8, 2.66582578420639038086e-01) (9, -1.29273682832717895508e-01) (10, -6.14872053265571594238e-02) (11, -6.18004649877548217773e-02) (12, -6.93081840872764587402e-02) (13, -7.14504718780517578125e-02) (14, 7.29132667183876037598e-02) (15, -1.84273794293403625488e-01) (16, 7.02229589223861694336e-02) (17, -4.88289706408977508545e-02) (18, -1.30070745944976806641e-01) (19, 1.27547547221183776855e-01) (20, -2.90281921625137329102e-01) (21, -2.39931151270866394043e-01) (22, -1.14031046628952026367e-01) (23, 1.81463897228240966797e-01) (24, 5.42985163629055023193e-02) (25, -1.05602577328681945801e-01) (26, 1.09170250594615936279e-01) (27, -6.68404698371887207031e-02) (28, 2.10636407136917114258e-01) (29, -2.61563450098037719727e-01) (30, -9.52782779932022094727e-02) (31, -1.97113871574401855469e-01) (32, -3.58909279108047485352e-01) (33, -2.47809916734695434570e-01) (34, -2.18392357230186462402e-01) (35, -1.71875342726707458496e-01) (36, -2.30235487222671508789e-01) (37, -3.00674047321081161499e-03) (38, -1.25753208994865417480e-01) (39, 6.18820171803236007690e-03) (40, -3.59241515398025512695e-01) (41, -3.70271176099777221680e-01) (42, -2.09377363324165344238e-01) (43, -1.13758526742458343506e-01) (44, -8.10602307319641113281e-02) (45, 5.89125193655490875244e-02) (46, 2.19271719455718994141e-01) (47, 5.99739290773868560791e-02) (48, -1.59458494186401367188e+00) (0, 2.66742538660764694214e-02) (1, -1.98063328862190246582e-01) (2, -2.49497368931770324707e-01) (3, -4.13955718278884887695e-01) (4, -6.25972092151641845703e-01) (5, -4.39249277114868164062e-01) (6, -3.88534158468246459961e-01) (7, -4.39741700887680053711e-01) (8, 3.76408956944942474365e-02) (9, 8.05583521723747253418e-02) (10, 4.92100179195404052734e-01) (11, 2.12184071540832519531e-01) (12, -8.94555807113647460938e-01) (13, -1.08408689498901367188e+00) (14, -4.13203448057174682617e-01) (15, -5.27034819126129150391e-01) (16, 5.23029983043670654297e-01) (17, 2.21533954143524169922e-01) (18, 7.78109729290008544922e-02) (19, 6.98323249816894531250e-02) (20, 2.12185114622116088867e-01) (21, -2.58737411350011825562e-02) (22, 2.68976539373397827148e-01) (23, -2.73220509290695190430e-01) (24, 5.93796908855438232422e-01) (25, 4.79193925857543945312e-01) (26, 4.04421269893646240234e-01) (27, 1.45982965826988220215e-01) (28, 2.64195591211318969727e-01) (29, -3.66692751646041870117e-01) (30, -1.12275622785091400146e-01) (31, 9.61871370673179626465e-02) (32, -7.50418603420257568359e-01) (33, 5.39758205413818359375e-01) (34, 3.64112734794616699219e-01) (35, 4.08101826906204223633e-01) (36, -2.07884728908538818359e-01) (37, -1.27129629254341125488e-01) (38, 1.04161277413368225098e-01) (39, -4.17243450880050659180e-01) (40, -5.70160329341888427734e-01) (41, -1.11977308988571166992e-01) (42, 2.58189290761947631836e-01) (43, 3.55938851833343505859e-01) (44, -1.46293849684298038483e-03) (45, 1.54438644647598266602e-01) (46, 1.22860424220561981201e-01) (47, -3.48449975252151489258e-01) (48, -2.04881453514099121094e+00) (0, -4.48993891477584838867e-01) (1, -2.70485103130340576172e-01) (2, 7.92070776224136352539e-02) (3, -1.05536699295043945312e-01) (4, 2.15541303157806396484e-01) (5, -7.75868967175483703613e-02) (6, -2.60863125324249267578e-01) (7, 1.67317971587181091309e-01) (8, -7.19121277332305908203e-01) (9, 7.44057834148406982422e-01) (10, 3.83816599845886230469e-01) (11, 3.33432525396347045898e-01) (12, -1.00936047732830047607e-01) (13, -1.60339012742042541504e-01) (14, -5.61470150947570800781e-01) (15, -3.94437044858932495117e-01) (16, 7.29157269001007080078e-01) (17, 6.16542935371398925781e-01) (18, 6.09537482261657714844e-01) (19, 5.65466463565826416016e-01) (20, 3.83773535490036010742e-01) (21, 5.22445619106292724609e-01) (22, 5.80553293228149414062e-01) (23, 7.36768394708633422852e-02) (24, 1.44526290893554687500e+00) (25, 8.47596824169158935547e-01) (26, -4.94591444730758666992e-02) (27, 5.15580654144287109375e-01) (28, 2.76970211416482925415e-02) (29, 3.15630435943603515625e-01) (30, 3.43532800674438476562e-01) (31, 3.52617979049682617188e-01) (32, -7.35132321715354919434e-02) (33, 1.55917143821716308594e+00) (34, 1.19597136974334716797e+00) (35, 3.90159010887145996094e-01) (36, -2.13928334414958953857e-02) (37, 3.16168785095214843750e-01) (38, 3.99496912956237792969e-01) (39, -3.35043907165527343750e-01) (40, -1.48606404662132263184e-01) (41, 4.28684920072555541992e-01) (42, 7.97550082206726074219e-01) (43, 9.42515313625335693359e-01) (44, -3.31079140305519104004e-02) (45, -3.09051096439361572266e-01) (46, -6.30584061145782470703e-01) (47, -2.14474394917488098145e-01) (48, -1.02282428741455078125e+00) (0, 9.43671260029077529907e-03) (1, -3.50230969488620758057e-02) (2, -3.04694995284080505371e-02) (3, -1.28643751144409179688e-01) (4, -6.42486393451690673828e-01) (5, -5.55276632308959960938e-01) (6, -4.80952858924865722656e-01) (7, -6.84428095817565917969e-01) (8, 5.63589595258235931396e-02) (9, 3.51279675960540771484e-01) (10, 4.47417795658111572266e-01) (11, 3.49182933568954467773e-01) (12, -8.73892307281494140625e-01) (13, -9.83985245227813720703e-01) (14, -8.60223889350891113281e-01) (15, -9.47713375091552734375e-01) (16, 6.70204937458038330078e-01) (17, 4.53512072563171386719e-01) (18, 1.00230455398559570312e-01) (19, 2.86590278148651123047e-01) (20, -1.57660871744155883789e-01) (21, 1.38182252645492553711e-01) (22, -2.57162265479564666748e-02) (23, -4.30148988962173461914e-01) (24, 9.63147282600402832031e-01) (25, 7.68125832080841064453e-01) (26, 7.13864922523498535156e-01) (27, 6.30260109901428222656e-01) (28, 9.10942137241363525391e-01) (29, -5.02653755247592926025e-02) (30, 2.20182806253433227539e-01) (31, -7.03744888305664062500e-02) (32, -9.00938153266906738281e-01) (33, 6.11446380615234375000e-01) (34, 5.76081931591033935547e-01) (35, 5.94765067100524902344e-01) (36, 7.01501891016960144043e-02) (37, 2.96068698167800903320e-01) (38, 4.90960836410522460938e-01) (39, -2.55796998739242553711e-01) (40, -1.01058673858642578125e+00) (41, -2.18772575259208679199e-01) (42, 3.61979573965072631836e-01) (43, 6.90108418464660644531e-01) (44, 3.97614032030105590820e-01) (45, 9.32397723197937011719e-01) (46, 2.75679528713226318359e-01) (47, 2.15666797012090682983e-02) (48, -2.51042032241821289062e+00) (0, 1.49871751666069030762e-01) (1, 2.01073698699474334717e-02) (2, 1.61897122859954833984e-01) (3, 2.19930961728096008301e-01) (4, -1.73234984278678894043e-01) (5, 1.24856293201446533203e-01) (6, 5.86769962683320045471e-03) (7, 5.32313585281372070312e-02) (8, 3.91053743660449981689e-02) (9, 1.18949621915817260742e-01) (10, -8.39974507689476013184e-02) (11, -2.08774313330650329590e-01) (12, -2.80455261468887329102e-01) (13, 5.39978682994842529297e-01) (14, 2.97338068485260009766e-01) (15, -5.85537612438201904297e-01) (16, 2.06560984253883361816e-01) (17, 1.06323659420013427734e-01) (18, 3.14330756664276123047e-01) (19, -9.39975753426551818848e-02) (20, -6.29586517810821533203e-01) (21, -7.71001428365707397461e-02) (22, -2.92816936969757080078e-01) (23, 5.83620429039001464844e-01) (24, 1.19956903159618377686e-01) (25, 2.99101948738098144531e-01) (26, 2.37954854965209960938e-01) (27, 1.82617545127868652344e-01) (28, -4.53720390796661376953e-01) (29, 1.52957051992416381836e-01) (30, 4.44063574075698852539e-01) (31, 3.69978725910186767578e-01) (32, 2.18362927436828613281e-01) (33, 4.94838170707225799561e-02) (34, 4.73626732826232910156e-01) (35, 2.30125799775123596191e-01) (36, -6.72418549656867980957e-02) (37, 5.95410019159317016602e-02) (38, 6.91508650779724121094e-02) (39, 1.39543771743774414062e-01) (40, -1.73751235008239746094e-01) (41, -8.13125260174274444580e-03) (42, 2.16539368033409118652e-01) (43, 9.67568084597587585449e-02) (44, 2.16798752546310424805e-01) (45, -1.19538515806198120117e-01) (46, -5.02343066036701202393e-02) (47, 2.90921390056610107422e-01) (48, -1.82848560810089111328e+00) (0, -2.29200676083564758301e-01) (1, -9.62874591350555419922e-02) (2, -1.62915363907814025879e-02) (3, 1.15481596440076828003e-02) (4, 2.09878645837306976318e-02) (5, -1.09494112432003021240e-01) (6, -7.68797397613525390625e-02) (7, -4.99148555099964141846e-02) (8, -2.98074930906295776367e-01) (9, -1.88640709966421127319e-02) (10, 2.06341013312339782715e-01) (11, 1.80890873074531555176e-01) (12, -3.68002355098724365234e-02) (13, -1.01754538714885711670e-01) (14, -3.19719940423965454102e-01) (15, 1.67082220315933227539e-01) (16, -1.90701887011528015137e-01) (17, 3.01681518554687500000e-01) (18, 2.36518770456314086914e-01) (19, 1.18684619665145874023e-01) (20, -1.75098944455385208130e-02) (21, 2.58747953921556472778e-02) (22, 2.84906059503555297852e-01) (23, -1.37195780873298645020e-01) (24, 6.71462416648864746094e-02) (25, -6.70652538537979125977e-02) (26, 4.77109067142009735107e-02) (27, -2.57276803255081176758e-01) (28, -1.87133267521858215332e-01) (29, 9.06542390584945678711e-02) (30, -1.33395910263061523438e-01) (31, -1.56269729137420654297e-01) (32, 2.76669040322303771973e-02) (33, 9.55410450696945190430e-02) (34, -9.58985984325408935547e-02) (35, -9.04008597135543823242e-02) (36, -6.04214705526828765869e-02) (37, -1.96627050638198852539e-01) (38, 8.65535885095596313477e-02) (39, -3.34127187728881835938e-01) (40, 5.62426960095763206482e-03) (41, 7.01980143785476684570e-02) (42, -1.13981291651725769043e-01) (43, -2.01103657484054565430e-01) (44, -2.09384724497795104980e-01) (45, -2.02549919486045837402e-01) (46, -3.38015794754028320312e-01) (47, -3.69623959064483642578e-01) (48, -1.59182226657867431641e+00) (0, -7.02499300241470336914e-02) (1, -4.18482944369316101074e-02) (2, -1.90151363611221313477e-01) (3, -1.91529124975204467773e-01) (4, -2.93391078710556030273e-01) (5, -1.46993130445480346680e-01) (6, -1.36121645569801330566e-01) (7, -2.22197771072387695312e-01) (8, -7.44123309850692749023e-02) (9, -4.74478423595428466797e-01) (10, -2.63136804103851318359e-01) (11, -4.13260072469711303711e-01) (12, -2.49106049537658691406e-01) (13, -1.04005873203277587891e-01) (14, 1.09504863619804382324e-01) (15, 6.37580677866935729980e-02) (16, -1.47030293941497802734e-01) (17, -4.63219702243804931641e-01) (18, -3.21710675954818725586e-01) (19, -4.71101999282836914062e-01) (20, -5.57001411914825439453e-01) (21, -3.67098927497863769531e-01) (22, -2.57622569799423217773e-01) (23, -3.00028562545776367188e-01) (24, 1.10313035547733306885e-02) (25, -2.89730906486511230469e-01) (26, -2.41834595799446105957e-01) (27, -3.95546555519104003906e-01) (28, -3.67594093084335327148e-01) (29, -4.48732137680053710938e-01) (30, -3.29382479190826416016e-01) (31, -5.26121497154235839844e-01) (32, -5.73788173496723175049e-02) (33, -3.45821261405944824219e-01) (34, -3.00004035234451293945e-01) (35, -5.82389831542968750000e-01) (36, -5.55678129196166992188e-01) (37, -4.75093871355056762695e-01) (38, -5.92230737209320068359e-01) (39, -9.77981686592102050781e-02) (40, -6.02706968784332275391e-02) (41, -2.74582087993621826172e-01) (42, 4.19431887567043304443e-02) (43, -6.34627223014831542969e-01) (44, -5.01793384552001953125e-01) (45, -2.29164898395538330078e-01) (46, -3.15700471401214599609e-02) (47, -3.07987481355667114258e-02) (48, -7.64773666858673095703e-01) (0, -8.15731585025787353516e-02) (1, 1.65660277009010314941e-01) (2, 2.35890418291091918945e-01) (3, -3.06413203477859497070e-01) (4, 4.33472394943237304688e-01) (5, 2.79538869857788085938e-01) (6, -1.75635322928428649902e-01) (7, -1.35487737134099006653e-02) (8, -1.63855716586112976074e-01) (9, 7.14321374893188476562e-01) (10, 3.52373927831649780273e-01) (11, 3.84475857019424438477e-01) (12, -2.45282083749771118164e-01) (13, -3.20357739925384521484e-01) (14, -2.01460689306259155273e-01) (15, -2.60706305503845214844e-01) (16, 6.81248128414154052734e-01) (17, 1.00017786026000976562e+00) (18, 5.68792164325714111328e-01) (19, 5.11014401912689208984e-01) (20, 6.46722391247749328613e-02) (21, 2.74238258600234985352e-01) (22, 5.75232803821563720703e-01) (23, 9.52379524707794189453e-01) (24, 6.92526698112487792969e-01) (25, 8.72830927371978759766e-01) (26, 1.03192293643951416016e+00) (27, 8.72590839862823486328e-01) (28, 1.23012974858283996582e-01) (29, 7.31542944908142089844e-01) (30, 1.19923150539398193359e+00) (31, 1.27953267097473144531e+00) (32, 4.54880625009536743164e-01) (33, 1.09647822380065917969e+00) (34, 1.29704737663269042969e+00) (35, 1.48046588897705078125e+00) (36, 5.45223176479339599609e-01) (37, 5.96741139888763427734e-01) (38, 8.46294522285461425781e-01) (39, 3.06489109992980957031e-01) (40, -1.26762792468070983887e-01) (41, 8.30399096012115478516e-01) (42, 1.63555935025215148926e-01) (43, 1.85983383655548095703e+00) (44, 8.73034715652465820312e-01) (45, 7.35058367252349853516e-01) (46, 2.33869049698114395142e-02) (47, 7.35391452908515930176e-02) (48, -1.05267500877380371094e+00) (0, 1.82296618819236755371e-01) (1, 1.30400940775871276855e-01) (2, 1.22928135097026824951e-02) (3, 9.46897715330123901367e-02) (4, -3.53864550590515136719e-01) (5, -2.29094564914703369141e-01) (6, -3.90453964471817016602e-01) (7, -1.07077255845069885254e-01) (8, 1.86061471700668334961e-01) (9, 3.53370219469070434570e-01) (10, 5.11164844036102294922e-01) (11, -2.63357292860746383667e-02) (12, -2.46885433793067932129e-01) (13, -1.71601712703704833984e-01) (14, -1.27281144261360168457e-01) (15, -3.52724134922027587891e-01) (16, 3.14561784267425537109e-01) (17, -1.49960950016975402832e-01) (18, 1.97877183556556701660e-01) (19, 5.02800285816192626953e-01) (20, -2.18281954526901245117e-01) (21, -4.49575148522853851318e-02) (22, -7.68111497163772583008e-02) (23, 6.84970766305923461914e-02) (24, 1.08702136203646659851e-02) (25, 3.05590957403182983398e-01) (26, -5.44269829988479614258e-02) (27, 2.79787749052047729492e-01) (28, 5.10633409023284912109e-01) (29, 2.45895698666572570801e-01) (30, 4.00265194475650787354e-02) (31, 1.78506359457969665527e-01) (32, -5.87368786334991455078e-01) (33, -2.15573057532310485840e-01) (34, 3.19771356880664825439e-02) (35, -1.89967062324285507202e-02) (36, -2.19150289893150329590e-01) (37, 3.50546538829803466797e-01) (38, 4.23919886350631713867e-01) (39, 6.45339936017990112305e-02) (40, -4.84033912420272827148e-01) (41, -1.63893550634384155273e-01) (42, -1.43536657094955444336e-01) (43, -1.10408030450344085693e-01) (44, 9.38746258616447448730e-02) (45, 9.10078883171081542969e-02) (46, 3.28804492950439453125e-01) (47, 2.13012576103210449219e-01) (48, -2.18708705902099609375e+00) (0, -1.70771613717079162598e-01) (1, -3.09835016727447509766e-01) (2, -2.02501699328422546387e-01) (3, -2.69192337989807128906e-01) (4, -4.72489506006240844727e-01) (5, -1.77658036351203918457e-01) (6, 5.85411936044692993164e-02) (7, 2.66348302364349365234e-01) (8, -2.01360806822776794434e-01) (9, -3.89773160219192504883e-01) (10, -1.29371419548988342285e-01) (11, -6.94746002554893493652e-02) (12, -5.75616002082824707031e-01) (13, -1.11236996948719024658e-01) (14, -9.66960564255714416504e-03) (15, 2.57372140884399414062e-01) (16, -2.71557450294494628906e-01) (17, -3.39130491018295288086e-01) (18, -1.31091207265853881836e-01) (19, -2.49007761478424072266e-01) (20, -3.05934309959411621094e-01) (21, -1.66212826967239379883e-01) (22, -9.63504314422607421875e-02) (23, -2.53889083862304687500e-01) (24, -3.58489900827407836914e-01) (25, -8.62654820084571838379e-02) (26, -5.07318079471588134766e-01) (27, -3.42060953378677368164e-01) (28, -3.80432128906250000000e-01) (29, -1.26029402017593383789e-01) (30, -3.33862394094467163086e-01) (31, -3.02565217018127441406e-01) (32, 1.72499313950538635254e-01) (33, -4.45962667465209960938e-01) (34, -4.62797403335571289062e-01) (35, -4.18043255805969238281e-01) (36, -2.23293617367744445801e-01) (37, -3.63313466310501098633e-01) (38, -2.13075160980224609375e-01) (39, -1.75848782062530517578e-01) (40, 2.26858600974082946777e-01) (41, 7.23991841077804565430e-02) (42, 1.23431332409381866455e-01) (43, -7.37682282924652099609e-01) (44, -4.39191997051239013672e-01) (45, -2.58208662271499633789e-01) (46, -6.03947415947914123535e-02) (47, -2.99000054597854614258e-01) (48, -1.01943087577819824219e+00) (0, -2.10988983511924743652e-01) (1, -2.10038110613822937012e-01) (2, -2.59036198258399963379e-02) (3, -1.75797775387763977051e-01) (4, 3.00504893064498901367e-01) (5, 2.59958654642105102539e-02) (6, -3.36602568626403808594e-01) (7, -1.23715423047542572021e-01) (8, -4.09040898084640502930e-01) (9, 2.13866651058197021484e-01) (10, 1.91379129886627197266e-01) (11, 2.35872000455856323242e-01) (12, 9.95218455791473388672e-02) (13, -2.99557149410247802734e-01) (14, -3.31668853759765625000e-01) (15, 8.33033993840217590332e-02) (16, -1.07286572456359863281e-01) (17, 3.60067874193191528320e-01) (18, 1.04515351355075836182e-01) (19, 1.81632742285728454590e-01) (20, 2.70712256431579589844e-01) (21, 3.10504674911499023438e-01) (22, 6.54420137405395507812e-01) (23, 4.10276800394058227539e-01) (24, 5.91014884412288665771e-02) (25, -4.35334770008921623230e-03) (26, 1.82773023843765258789e-01) (27, -3.37252616882324218750e-02) (28, 4.91740815341472625732e-02) (29, 9.30062383413314819336e-02) (30, 4.09366756677627563477e-01) (31, 3.35755676031112670898e-01) (32, -1.83926209807395935059e-01) (33, 3.05135399103164672852e-01) (34, 1.49983853101730346680e-01) (35, 1.73331856727600097656e-01) (36, 2.40406766533851623535e-01) (37, 3.33657264709472656250e-02) (38, 4.37123626470565795898e-01) (39, -2.53530502319335937500e-01) (40, -1.34146735072135925293e-01) (41, 3.04532855749130249023e-01) (42, 4.40151579678058624268e-02) (43, 7.43823349475860595703e-02) (44, 2.66345620155334472656e-01) (45, -1.11293457448482513428e-01) (46, -1.53747230768203735352e-01) (47, -1.87289178371429443359e-01) (48, -1.73099935054779052734e+00) (0, 5.19708991050720214844e-01) (1, 3.75517368316650390625e-01) (2, 5.54538488388061523438e-01) (3, 1.36754477024078369141e+00) (4, -8.84016454219818115234e-01) (5, -6.17776930332183837891e-01) (6, -8.65582048892974853516e-01) (7, -4.24733549356460571289e-01) (8, 1.07055857777595520020e-01) (9, 4.18955802917480468750e-01) (10, 1.78733006119728088379e-01) (11, -3.46572160720825195312e-01) (12, 1.09953308105468750000e+00) (13, 4.69436168670654296875e-01) (14, -7.68812477588653564453e-01) (15, -7.94483721256256103516e-01) (16, -1.07077226042747497559e-01) (17, -4.88275140523910522461e-01) (18, 2.71504998207092285156e-01) (19, 4.45852965116500854492e-01) (20, -3.24948549270629882812e-01) (21, 8.07239294052124023438e-01) (22, 1.26115190982818603516e+00) (23, -1.78582996129989624023e-01) (24, -5.19013881683349609375e-01) (25, -6.10638201236724853516e-01) (26, -4.66167002916336059570e-01) (27, -2.68583506345748901367e-01) (28, 9.62760329246520996094e-01) (29, 1.37381166219711303711e-01) (30, 7.69016683101654052734e-01) (31, -3.29334259033203125000e-01) (32, -6.19911074638366699219e-01) (33, -9.73280012607574462891e-01) (34, -8.82133066654205322266e-01) (35, -5.72009205818176269531e-01) (36, -1.23453664779663085938e+00) (37, 5.96374832093715667725e-02) (38, 9.65840280055999755859e-01) (39, 2.85009205341339111328e-01) (40, -6.23449087142944335938e-01) (41, -5.49001514911651611328e-01) (42, -5.12321531772613525391e-01) (43, -6.49716734886169433594e-01) (44, -1.00554203987121582031e+00) (45, -9.26166892051696777344e-01) (46, 3.55091430246829986572e-02) (47, 5.00928640365600585938e-01) (48, -2.60986328125000000000e+00) (0, -4.31033253669738769531e-01) (1, -4.88208472728729248047e-01) (2, -1.66598349809646606445e-01) (3, 1.02191165089607238770e-01) (4, 4.42882210016250610352e-01) (5, 5.17805144190788269043e-02) (6, 8.69911685585975646973e-02) (7, 2.38447472453117370605e-01) (8, -8.86056721210479736328e-01) (9, -4.05079685151576995850e-02) (10, 5.37444949150085449219e-01) (11, 2.39329040050506591797e-01) (12, 2.72038578987121582031e-01) (13, 3.97557377815246582031e-01) (14, -3.94479542970657348633e-01) (15, -3.05142790079116821289e-01) (16, -1.38168916106224060059e-01) (17, 7.34750747680664062500e-01) (18, 6.08711898326873779297e-01) (19, 5.31851887702941894531e-01) (20, 7.94255018234252929688e-01) (21, 7.43558108806610107422e-01) (22, 4.77681428194046020508e-01) (23, 1.43940299749374389648e-02) (24, -9.15244594216346740723e-02) (25, 3.03461670875549316406e-01) (26, 5.81385552883148193359e-01) (27, 2.73701339960098266602e-01) (28, 2.38375380635261535645e-01) (29, 5.53194522857666015625e-01) (30, 6.25109195709228515625e-01) (31, 1.76540285348892211914e-01) (32, 3.79728794097900390625e-01) (33, 9.29205477237701416016e-01) (34, 7.55089521408081054688e-01) (35, 7.04447865486145019531e-01) (36, 2.90244311094284057617e-01) (37, 4.68524485826492309570e-01) (38, 6.67609497904777526855e-02) (39, -5.54817438125610351562e-01) (40, 2.31633603572845458984e-01) (41, 7.66841292381286621094e-01) (42, 2.03877404332160949707e-01) (43, 6.98929905891418457031e-01) (44, -6.04045577347278594971e-02) (45, -2.57232248783111572266e-01) (46, -8.30206096172332763672e-01) (47, -4.01900500059127807617e-01) (48, -2.06338453292846679688e+00) (0, -3.90824109315872192383e-01) (1, -5.22996857762336730957e-02) (2, 3.18490862846374511719e-02) (3, 1.63688987493515014648e-01) (4, -3.09888035058975219727e-01) (5, -3.83830308914184570312e-01) (6, -9.13732573390007019043e-02) (7, 3.69953364133834838867e-01) (8, -3.90680462121963500977e-01) (9, -5.09457401931285858154e-02) (10, 3.25319290161132812500e-01) (11, 3.32457900047302246094e-01) (12, -8.38798284530639648438e-01) (13, 6.30745217204093933105e-02) (14, -2.58136987686157226562e-01) (15, 5.25717675685882568359e-01) (16, -3.08734297752380371094e-01) (17, 4.08039838075637817383e-01) (18, 9.03828442096710205078e-02) (19, -2.77652829885482788086e-01) (20, -2.03419148921966552734e-01) (21, 1.69286027550697326660e-01) (22, 8.54807421565055847168e-02) (23, -4.15323406457901000977e-01) (24, 3.49821411073207855225e-02) (25, 3.87298427522182464600e-02) (26, -5.33153533935546875000e-01) (27, -5.20382344722747802734e-01) (28, -3.76701742410659790039e-01) (29, -3.85209731757640838623e-02) (30, -4.33544635772705078125e-01) (31, -3.77790778875350952148e-01) (32, 5.12229681015014648438e-01) (33, -4.32329773902893066406e-01) (34, -3.63324612379074096680e-01) (35, -2.42418184876441955566e-01) (36, -3.11816513538360595703e-01) (37, -2.93222784996032714844e-01) (38, 4.30480055510997772217e-02) (39, -2.99939900636672973633e-01) (40, 3.55171263217926025391e-01) (41, 8.95194858312606811523e-02) (42, 2.60992050170898437500e-02) (43, -7.49555408954620361328e-01) (44, -4.76847440004348754883e-01) (45, -3.56510043144226074219e-01) (46, -2.14450582861900329590e-01) (47, -6.00355029106140136719e-01) (48, -1.46547734737396240234e+00) (0, -1.01982697844505310059e-01) (1, -2.30986669659614562988e-01) (2, -2.43240177631378173828e-01) (3, -1.58331006765365600586e-01) (4, -4.95233982801437377930e-01) (5, -2.17733621597290039062e-01) (6, 1.03615663945674896240e-01) (7, 1.44343152642250061035e-01) (8, -1.01542152464389801025e-01) (9, -6.69399321079254150391e-01) (10, -3.88793259859085083008e-01) (11, -2.67151385545730590820e-01) (12, -4.11354362964630126953e-01) (13, -1.05944529175758361816e-01) (14, 2.45717227458953857422e-01) (15, 2.46766224503517150879e-01) (16, -4.37615126371383666992e-01) (17, -6.49660348892211914062e-01) (18, -3.57960730791091918945e-01) (19, -5.75016736984252929688e-01) (20, -4.61620986461639404297e-01) (21, -5.71399092674255371094e-01) (22, -2.68555730581283569336e-01) (23, -4.93683904409408569336e-01) (24, -3.90673667192459106445e-01) (25, -4.66604828834533691406e-01) (26, -6.16101443767547607422e-01) (27, -4.98691678047180175781e-01) (28, -5.66152989864349365234e-01) (29, -5.16319930553436279297e-01) (30, -6.98074996471405029297e-01) (31, -5.89535653591156005859e-01) (32, 1.52593195438385009766e-01) (33, -5.75866281986236572266e-01) (34, -7.48144626617431640625e-01) (35, -8.36381554603576660156e-01) (36, -5.42100310325622558594e-01) (37, -4.23215836286544799805e-01) (38, -5.58327436447143554688e-01) (39, -9.35166031122207641602e-02) (40, 4.05906468629837036133e-01) (41, -1.02574817836284637451e-01) (42, 1.05688363313674926758e-01) (43, -1.16704106330871582031e+00) (44, -7.40101277828216552734e-01) (45, -5.50262451171875000000e-01) (46, -6.98043033480644226074e-02) (47, -7.93028026819229125977e-02) (48, -3.15011620521545410156e-01) (49, -1.23055744171142578125e+00) (50, -1.97028279304504394531e+00) (51, 1.66364002227783203125e+00) (52, -1.68551814556121826172e+00) (53, -4.54025697708129882812e+00) (54, 1.39973604679107666016e+00) (55, 4.54366016387939453125e+00) (56, 1.03127038478851318359e+00) (57, 1.12434136867523193359e+00) (58, -2.95492112636566162109e-01) (59, 3.66397023200988769531e+00) (60, 1.95344924926757812500e+00) (61, 1.74251878261566162109e+00) (62, -3.46784782409667968750e+00) (63, 1.81092572212219238281e+00) (64, 3.08212906122207641602e-01) (65, -1.10462355613708496094e+00) (66, -2.57213115692138671875e+00) (67, -2.26367497444152832031e+00) (68, -1.07331764698028564453e+00) (69, -1.42716571688652038574e-01) (70, 1.83143997192382812500e+00) (71, -4.87919282913208007812e+00) (72, -5.01020729541778564453e-01) (73, 1.44647407531738281250e+00) (74, -1.39599764347076416016e+00) (75, 1.19897770881652832031e+00) (76, -2.30861091613769531250e+00) (77, 9.03466165065765380859e-01) (78, 2.78796339035034179688e+00) (79, -1.06553830206394195557e-01) (49, 5.80716729164123535156e-01) (50, -5.09238898754119873047e-01) (51, -2.06814438104629516602e-01) (52, 4.82353478670120239258e-01) (53, 4.35073792934417724609e-01) (54, 1.53578385710716247559e-01) (55, -1.58092066645622253418e-01) (56, -5.80191433429718017578e-01) (57, 2.59310007095336914062e-02) (58, 5.82071959972381591797e-01) (59, 9.34620141983032226562e-01) (60, -1.50285065174102783203e-01) (61, -9.95317995548248291016e-01) (62, 1.21890413761138916016e+00) (63, -2.69104808568954467773e-01) (64, 2.79007889330387115479e-02) (65, 7.85923302173614501953e-02) (66, -9.61684465408325195312e-01) (67, 8.67715001106262207031e-01) (68, 8.43635439872741699219e-01) (69, -4.99088406562805175781e-01) (70, 1.16434112191200256348e-01) (71, -5.22185027599334716797e-01) (72, 4.47333335876464843750e-01) (73, 2.46287882328033447266e-01) (74, -8.62354218959808349609e-01) (75, 1.65162098407745361328e+00) (76, -5.38930833339691162109e-01) (77, -7.47259378433227539062e-01) (78, 3.07507634162902832031e-01) (79, -2.70644158124923706055e-01) (49, -1.44176483154296875000e-01) (50, 7.70000398159027099609e-01) (51, -2.59169310331344604492e-01) (52, -2.66067326068878173828e-01) (53, -4.57909017801284790039e-01) (54, 1.52618005871772766113e-01) (55, 6.93158328533172607422e-01) (56, 2.59112954139709472656e+00) (57, 4.41177673637866973877e-02) (58, 1.06496281921863555908e-01) (59, -4.43795233964920043945e-01) (60, 3.97450998425483703613e-02) (61, -1.27242493629455566406e+00) (62, 7.28008672595024108887e-02) (63, -3.67017053067684173584e-02) (64, -1.30397334694862365723e-01) (65, -1.27171707153320312500e+00) (66, 9.62271809577941894531e-01) (67, -1.43072807788848876953e+00) (68, 5.52397727966308593750e-01) (69, 4.36747670173645019531e-02) (70, -1.34011596441268920898e-01) (71, -6.46047234535217285156e-01) (72, -5.35675108432769775391e-01) (73, -1.30293399095535278320e-01) (74, -1.90219402313232421875e-01) (75, -1.44492506980895996094e+00) (76, 9.70199346542358398438e-01) (77, -1.45700559020042419434e-01) (78, -2.50236868858337402344e-01) (79, 2.63290375471115112305e-01) 
