FANN_FLO_2.1
num_layers=3
learning_rate=0.700000
connection_rate=1.000000
network_type=0
learning_momentum=0.400000
training_algorithm=0
train_error_function=1
train_stop_function=0
cascade_output_change_fraction=0.010000
quickprop_decay=-0.000100
quickprop_mu=1.750000
rprop_increase_factor=1.200000
rprop_decrease_factor=0.500000
rprop_delta_min=0.000000
rprop_delta_max=50.000000
rprop_delta_zero=0.100000
cascade_output_stagnation_epochs=12
cascade_candidate_change_fraction=0.010000
cascade_candidate_stagnation_epochs=12
cascade_max_out_epochs=150
cascade_min_out_epochs=50
cascade_max_cand_epochs=150
cascade_min_cand_epochs=50
cascade_num_candidate_groups=2
bit_fail_limit=3.49999994039535522461e-01
cascade_candidate_limit=1.00000000000000000000e+03
cascade_weight_multiplier=4.00000005960464477539e-01
cascade_activation_functions_count=10
cascade_activation_functions=3 5 7 8 10 11 14 15 16 17 
cascade_activation_steepnesses_count=4
cascade_activation_steepnesses=2.50000000000000000000e-01 5.00000000000000000000e-01 7.50000000000000000000e-01 1.00000000000000000000e+00 
layer_sizes=11 97 2 
scale_included=0
neurons (num_inputs, activation_function, activation_steepness)=(0, 0, 0.00000000000000000000e+00) (0, 0, 0.00000000000000000000e+00) (0, 0, 0.00000000000000000000e+00) (0, 0, 0.00000000000000000000e+00) (0, 0, 0.00000000000000000000e+00) (0, 0, 0.00000000000000000000e+00) (0, 0, 0.00000000000000000000e+00) (0, 0, 0.00000000000000000000e+00) (0, 0, 0.00000000000000000000e+00) (0, 0, 0.00000000000000000000e+00) (0, 0, 0.00000000000000000000e+00) (11, 4, 5.00000000000000000000e-01) (11, 4, 5.00000000000000000000e-01) (11, 4, 5.00000000000000000000e-01) (11, 4, 5.00000000000000000000e-01) (11, 4, 5.00000000000000000000e-01) (11, 4, 5.00000000000000000000e-01) (11, 4, 5.00000000000000000000e-01) (11, 4, 5.00000000000000000000e-01) (11, 4, 5.00000000000000000000e-01) (11, 4, 5.00000000000000000000e-01) (11, 4, 5.00000000000000000000e-01) (11, 4, 5.00000000000000000000e-01) (11, 4, 5.00000000000000000000e-01) (11, 4, 5.00000000000000000000e-01) (11, 4, 5.00000000000000000000e-01) (11, 4, 5.00000000000000000000e-01) (11, 4, 5.00000000000000000000e-01) (11, 4, 5.00000000000000000000e-01) (11, 4, 5.00000000000000000000e-01) (11, 4, 5.00000000000000000000e-01) (11, 4, 5.00000000000000000000e-01) (11, 4, 5.00000000000000000000e-01) (11, 4, 5.00000000000000000000e-01) (11, 4, 5.00000000000000000000e-01) (11, 4, 5.00000000000000000000e-01) (11, 4, 5.00000000000000000000e-01) (11, 4, 5.00000000000000000000e-01) (11, 4, 5.00000000000000000000e-01) (11, 4, 5.00000000000000000000e-01) (11, 4, 5.00000000000000000000e-01) (11, 4, 5.00000000000000000000e-01) (11, 4, 5.00000000000000000000e-01) (11, 4, 5.00000000000000000000e-01) (11, 4, 5.00000000000000000000e-01) (11, 4, 5.00000000000000000000e-01) (11, 4, 5.00000000000000000000e-01) (11, 4, 5.00000000000000000000e-01) (11, 4, 5.00000000000000000000e-01) (11, 4, 5.00000000000000000000e-01) (11, 4, 5.00000000000000000000e-01) (11, 4, 5.00000000000000000000e-01) (11, 4, 5.00000000000000000000e-01) (11, 4, 5.00000000000000000000e-01) (11, 4, 5.00000000000000000000e-01) (11, 4, 5.00000000000000000000e-01) (11, 4, 5.00000000000000000000e-01) (11, 4, 5.00000000000000000000e-01) (11, 4, 5.00000000000000000000e-01) (11, 4, 5.00000000000000000000e-01) (11, 4, 5.00000000000000000000e-01) (11, 4, 5.00000000000000000000e-01) (11, 4, 5.00000000000000000000e-01) (11, 4, 5.00000000000000000000e-01) (11, 4, 5.00000000000000000000e-01) (11, 4, 5.00000000000000000000e-01) (11, 4, 5.00000000000000000000e-01) (11, 4, 5.00000000000000000000e-01) (11, 4, 5.00000000000000000000e-01) (11, 4, 5.00000000000000000000e-01) (11, 4, 5.00000000000000000000e-01) (11, 4, 5.00000000000000000000e-01) (11, 4, 5.00000000000000000000e-01) (11, 4, 5.00000000000000000000e-01) (11, 4, 5.00000000000000000000e-01) (11, 4, 5.00000000000000000000e-01) (11, 4, 5.00000000000000000000e-01) (11, 4, 5.00000000000000000000e-01) (11, 4, 5.00000000000000000000e-01) (11, 4, 5.00000000000000000000e-01) (11, 4, 5.00000000000000000000e-01) (11, 4, 5.00000000000000000000e-01) (11, 4, 5.00000000000000000000e-01) (11, 4, 5.00000000000000000000e-01) (11, 4, 5.00000000000000000000e-01) (11, 4, 5.00000000000000000000e-01) (11, 4, 5.00000000000000000000e-01) (11, 4, 5.00000000000000000000e-01) (11, 4, 5.00000000000000000000e-01) (11, 4, 5.00000000000000000000e-01) (11, 4, 5.00000000000000000000e-01) (11, 4, 5.00000000000000000000e-01) (11, 4, 5.00000000000000000000e-01) (11, 4, 5.00000000000000000000e-01) (11, 4, 5.00000000000000000000e-01) (11, 4, 5.00000000000000000000e-01) (11, 4, 5.00000000000000000000e-01) (11, 4, 5.00000000000000000000e-01) (11, 4, 5.00000000000000000000e-01) (11, 4, 5.00000000000000000000e-01) (11, 4, 5.00000000000000000000e-01) (11, 4, 5.00000000000000000000e-01) (11, 4, 5.00000000000000000000e-01) (11, 4, 5.00000000000000000000e-01) (11, 4, 5.00000000000000000000e-01) (11, 4, 5.00000000000000000000e-01) (11, 4, 5.00000000000000000000e-01) (0, 0, 0.00000000000000000000e+00) (97, 4, 5.00000000000000000000e-01) (0, 0, 0.00000000000000000000e+00) 
connections (connected_to_neuron, weight)=(0, 8.56090560555458068848e-02) (1, -7.45488107204437255859e-02) (2, -3.05216405540704727173e-02) (3, 2.85514201968908309937e-02) (4, -5.49469739198684692383e-02) (5, 4.20345403254032135010e-02) (6, -2.02606860548257827759e-02) (7, 5.78807480633258819580e-02) (8, 7.14715048670768737793e-02) (9, 3.15117724239826202393e-02) (10, 1.20312236249446868896e-02) (0, -6.43737986683845520020e-02) (1, -4.08272296190261840820e-02) (2, -9.29721072316169738770e-02) (3, 7.03705148771405220032e-03) (4, -1.00897841155529022217e-01) (5, -4.09507788717746734619e-02) (6, -4.39493693411350250244e-02) (7, 3.45991551876068115234e-02) (8, -3.85987125337123870850e-02) (9, -2.15230882167816162109e-02) (10, -5.26736788451671600342e-02) (0, -1.18958530947566032410e-02) (1, 9.60033852607011795044e-03) (2, -2.67163906246423721313e-02) (3, -4.27524074912071228027e-02) (4, -7.63031467795372009277e-02) (5, 3.05015724152326583862e-02) (6, 9.14453864097595214844e-02) (7, 8.60681980848312377930e-02) (8, 5.03241680562496185303e-02) (9, 8.11645537614822387695e-02) (10, -8.55772420763969421387e-02) (0, -7.91639611124992370605e-02) (1, 1.07494695112109184265e-02) (2, -3.82839627563953399658e-02) (3, 6.69807046651840209961e-02) (4, 9.45989042520523071289e-02) (5, -7.62931033968925476074e-02) (6, 4.25623171031475067139e-02) (7, 3.02207879722118377686e-02) (8, 4.39583472907543182373e-02) (9, 7.91616737842559814453e-02) (10, 8.60833600163459777832e-02) (0, 5.70964589715003967285e-02) (1, -7.69105367362499237061e-03) (2, 9.55790802836418151855e-02) (3, -8.28811749815940856934e-02) (4, 4.93327155709266662598e-02) (5, 3.11513785272836685181e-02) (6, -2.05067452043294906616e-02) (7, -7.12172314524650573730e-02) (8, 8.04239884018898010254e-02) (9, 6.88041374087333679199e-02) (10, 4.04435954988002777100e-02) (0, -5.05197383463382720947e-02) (1, -7.81756043434143066406e-02) (2, 5.90593628585338592529e-02) (3, 8.11885669827461242676e-02) (4, -8.55234861373901367188e-02) (5, 4.63342927396297454834e-02) (6, 3.27194742858409881592e-02) (7, -1.03152208030223846436e-01) (8, 6.31705150008201599121e-02) (9, 5.78388385474681854248e-02) (10, 7.30028236284852027893e-03) (0, -6.95867389440536499023e-02) (1, 3.03462296724319458008e-02) (2, 1.20061952620744705200e-02) (3, -4.15965244174003601074e-02) (4, -2.28081345558166503906e-02) (5, -5.34896850585937500000e-02) (6, -9.33548435568809509277e-02) (7, -3.93631309270858764648e-02) (8, -5.88396526873111724854e-02) (9, 6.28878697752952575684e-02) (10, 4.87551018595695495605e-02) (0, -5.83480224013328552246e-02) (1, 8.49192440509796142578e-02) (2, 6.33733486756682395935e-03) (3, 7.19496011734008789062e-02) (4, -3.64412590861320495605e-02) (5, 3.42663489282131195068e-02) (6, 5.15198372304439544678e-02) (7, -6.84908628463745117188e-02) (8, -2.69975531846284866333e-02) (9, -9.44195836782455444336e-02) (10, -3.96568067371845245361e-02) (0, -6.44876509904861450195e-02) (1, 9.02195423841476440430e-02) (2, -2.41590887308120727539e-02) (3, 8.64269584417343139648e-02) (4, 2.75193080306053161621e-02) (5, -2.27309763431549072266e-02) (6, 5.41777834296226501465e-02) (7, -1.00615313276648521423e-02) (8, 9.37299430370330810547e-02) (9, 8.79280120134353637695e-02) (10, -7.50787928700447082520e-02) (0, 1.15462522953748703003e-02) (1, -4.78584170341491699219e-02) (2, 6.62362482398748397827e-03) (3, 6.13935291767120361328e-02) (4, -3.78763005137443542480e-02) (5, 7.05974474549293518066e-02) (6, -9.41091775894165039062e-02) (7, -7.16514885425567626953e-02) (8, 2.60264798998832702637e-02) (9, -5.48865273594856262207e-02) (10, -8.53888690471649169922e-02) (0, -7.37435519695281982422e-02) (1, -8.90442803502082824707e-02) (2, -3.17102000117301940918e-02) (3, 5.80934658646583557129e-02) (4, 6.00462183356285095215e-02) (5, -2.63040605932474136353e-03) (6, -7.13334307074546813965e-02) (7, 6.31973072886466979980e-02) (8, 5.28541132807731628418e-02) (9, -3.71206477284431457520e-02) (10, 5.22119626402854919434e-02) (0, -6.95174783468246459961e-02) (1, -4.89061959087848663330e-02) (2, -1.85759160667657852173e-02) (3, 6.45198347046971321106e-03) (4, -9.60279703140258789062e-02) (5, 7.00629949569702148438e-02) (6, -1.11763505265116691589e-03) (7, 9.06004756689071655273e-02) (8, 9.23850834369659423828e-02) (9, -9.33440923690795898438e-02) (10, -5.78488968312740325928e-02) (0, -1.11103598028421401978e-02) (1, 5.79303726553916931152e-02) (2, -9.02603007853031158447e-03) (3, -4.42856252193450927734e-02) (4, 6.00484833121299743652e-02) (5, 1.55497770756483078003e-02) (6, 7.79681205749511718750e-02) (7, -9.86107587814331054688e-02) (8, 2.26154830306768417358e-02) (9, -9.58701223134994506836e-02) (10, -9.09143164753913879395e-02) (0, 9.80990082025527954102e-02) (1, 6.94170743227005004883e-02) (2, 7.94902145862579345703e-02) (3, -4.62608318775892257690e-03) (4, 9.79889333248138427734e-02) (5, 4.25928123295307159424e-02) (6, -5.18666729331016540527e-02) (7, -3.92263978719711303711e-02) (8, -5.38461189717054367065e-03) (9, -2.45659071952104568481e-02) (10, 1.28094870597124099731e-02) (0, 6.68046623468399047852e-02) (1, 7.26512670516967773438e-02) (2, 3.42287169769406318665e-03) (3, 3.36858667433261871338e-02) (4, -3.16481366753578186035e-02) (5, -9.15842410176992416382e-03) (6, 2.28891987353563308716e-02) (7, -2.81739961355924606323e-02) (8, 2.66291592270135879517e-02) (9, -8.50565731525421142578e-02) (10, -6.90082684159278869629e-02) (0, -8.10059458017349243164e-02) (1, -2.79512759298086166382e-02) (2, 9.43603739142417907715e-02) (3, 3.77084240317344665527e-02) (4, -4.68185544013977050781e-02) (5, -1.01085789501667022705e-01) (6, -3.65115106105804443359e-02) (7, -3.95240783691406250000e-02) (8, -8.56709182262420654297e-02) (9, -4.25363257527351379395e-02) (10, -7.79337286949157714844e-02) (0, 9.60979759693145751953e-02) (1, 5.51162660121917724609e-02) (2, -7.39632099866867065430e-02) (3, 3.45669537782669067383e-02) (4, 9.91257578134536743164e-02) (5, -1.73134431242942810059e-02) (6, -7.49414935708045959473e-02) (7, -2.95639708638191223145e-02) (8, 8.72483700513839721680e-02) (9, 9.37923938035964965820e-02) (10, -5.22838756442070007324e-02) (0, -7.07395374774932861328e-03) (1, 2.97330692410469055176e-02) (2, 1.56231662258505821228e-02) (3, 8.56968536972999572754e-02) (4, -4.54485192894935607910e-02) (5, 8.93783941864967346191e-02) (6, 1.42552172765135765076e-02) (7, -2.85758748650550842285e-02) (8, -7.57714062929153442383e-02) (9, 3.69521751999855041504e-02) (10, 5.02009466290473937988e-02) (0, -8.48615318536758422852e-02) (1, -2.87899039685726165771e-02) (2, -1.03093318641185760498e-01) (3, -8.22444260120391845703e-02) (4, 3.84014807641506195068e-02) (5, -3.89144979417324066162e-02) (6, -6.42124488949775695801e-02) (7, -1.00431956350803375244e-01) (8, -9.44244675338268280029e-03) (9, -7.08140879869461059570e-02) (10, 4.78565245866775512695e-02) (0, 1.49072650820016860962e-02) (1, 6.20657950639724731445e-02) (2, 4.94233816862106323242e-02) (3, 9.48942005634307861328e-02) (4, 8.44246894121170043945e-02) (5, -8.28402191400527954102e-02) (6, 7.94429481029510498047e-02) (7, 7.55174309015274047852e-02) (8, -4.05233278870582580566e-02) (9, -3.06562017649412155151e-02) (10, -8.90341354534029960632e-04) (0, 7.59609118103981018066e-02) (1, -4.40982952713966369629e-02) (2, 5.76378628611564636230e-02) (3, 6.23141154646873474121e-02) (4, 6.71317204833030700684e-02) (5, -7.39632248878479003906e-02) (6, 8.35174992680549621582e-02) (7, 1.05868268292397260666e-03) (8, 7.01873078942298889160e-02) (9, -9.72158387303352355957e-02) (10, 7.71675929427146911621e-02) (0, 6.86649158596992492676e-02) (1, -7.78893530368804931641e-02) (2, 1.63693595677614212036e-02) (3, -6.61214143037796020508e-02) (4, -3.79736088216304779053e-02) (5, 2.00655926018953323364e-02) (6, 2.85643432289361953735e-02) (7, -4.65951906517148017883e-03) (8, -2.38215234130620956421e-02) (9, -5.34127578139305114746e-02) (10, -4.12647314369678497314e-02) (0, -6.49144425988197326660e-02) (1, -4.90348525345325469971e-02) (2, -4.55696918070316314697e-02) (3, -4.46390099823474884033e-02) (4, -6.64762482047080993652e-02) (5, -6.69366046786308288574e-02) (6, 1.79533101618289947510e-02) (7, 5.98319200798869132996e-03) (8, 3.84043455123901367188e-02) (9, -6.85640843585133552551e-03) (10, 6.56956955790519714355e-02) (0, -8.02212674170732498169e-03) (1, -4.86066266894340515137e-02) (2, 2.41816677153110504150e-02) (3, 1.72440223395824432373e-02) (4, -6.58597499132156372070e-02) (5, -7.55302757024765014648e-02) (6, -1.33393006399273872375e-02) (7, -6.38462230563163757324e-02) (8, 1.00096069276332855225e-01) (9, -4.28877435624599456787e-02) (10, -3.86612042784690856934e-02) (0, 1.94100476801395416260e-02) (1, -6.06452254578471183777e-03) (2, 2.50221006572246551514e-02) (3, -5.87377138435840606689e-02) (4, -7.57135525345802307129e-02) (5, -7.78507813811302185059e-02) (6, 1.92274041473865509033e-02) (7, -2.73396559059619903564e-02) (8, -1.55422063544392585754e-02) (9, 4.97315563261508941650e-02) (10, 2.14897766709327697754e-02) (0, 2.80144251883029937744e-02) (1, 9.42188724875450134277e-02) (2, 4.16941531002521514893e-02) (3, 5.64964003860950469971e-02) (4, 7.59075907990336418152e-03) (5, -5.69040738046169281006e-02) (6, -9.68067068606615066528e-03) (7, 9.61529240012168884277e-02) (8, -1.00371211767196655273e-01) (9, 8.10094848275184631348e-02) (10, -5.75879886746406555176e-02) (0, 2.20799576491117477417e-02) (1, -3.47698736004531383514e-03) (2, -2.13316548615694046021e-02) (3, 4.52619604766368865967e-02) (4, 8.18959847092628479004e-02) (5, 1.35344155132770538330e-02) (6, 4.40703146159648895264e-02) (7, -6.22794628143310546875e-02) (8, 7.22977742552757263184e-02) (9, -3.89653258025646209717e-02) (10, 2.49209553003311157227e-02) (0, -3.98596655577421188354e-03) (1, 9.91125591099262237549e-04) (2, 5.21909408271312713623e-02) (3, 1.57175641506910324097e-02) (4, -8.22271704673767089844e-02) (5, -7.75944069027900695801e-02) (6, -1.02270342409610748291e-01) (7, 6.50586858391761779785e-02) (8, 3.90039943158626556396e-02) (9, 2.95906644314527511597e-02) (10, 5.99746443331241607666e-02) (0, -1.09532820060849189758e-02) (1, -5.56435808539390563965e-03) (2, -2.09365300834178924561e-02) (3, 3.59892211854457855225e-02) (4, 8.86015519499778747559e-02) (5, -2.09370292723178863525e-02) (6, 3.94645743072032928467e-02) (7, 7.34576061367988586426e-02) (8, 2.91681401431560516357e-02) (9, -3.41661088168621063232e-02) (10, -2.43775043636560440063e-02) (0, -9.33526009321212768555e-02) (1, -9.00932326912879943848e-02) (2, -4.50231134891510009766e-02) (3, 2.44711637496948242188e-02) (4, 5.82664459943771362305e-02) (5, -3.01321432925760746002e-03) (6, 1.05829676613211631775e-03) (7, -7.64095336198806762695e-02) (8, -6.95135518908500671387e-02) (9, -9.97781828045845031738e-02) (10, 2.36051622778177261353e-02) (0, 8.71443897485733032227e-02) (1, 2.04063709825277328491e-02) (2, 4.99709136784076690674e-02) (3, -8.73005241155624389648e-02) (4, 2.12855320423841476440e-02) (5, 1.81791018694639205933e-02) (6, 5.48529513180255889893e-02) (7, -4.59743291139602661133e-02) (8, -1.55472764745354652405e-02) (9, -5.74528463184833526611e-02) (10, 4.43003959953784942627e-02) (0, 6.70611634850502014160e-02) (1, 8.20813402533531188965e-02) (2, 3.92553322017192840576e-02) (3, -5.52283823490142822266e-02) (4, 2.01934184879064559937e-02) (5, 1.13604115322232246399e-02) (6, 7.25872293114662170410e-02) (7, 8.46747830510139465332e-02) (8, 8.42778608202934265137e-02) (9, 8.33605453372001647949e-02) (10, 1.00796550512313842773e-01) (0, -5.89326508343219757080e-02) (1, 9.64430905878543853760e-03) (2, 5.87865076959133148193e-02) (3, 4.21800427138805389404e-02) (4, -8.51714909076690673828e-02) (5, 8.65028724074363708496e-02) (6, 7.67924115061759948730e-02) (7, -8.08237567543983459473e-02) (8, 1.83598808944225311279e-02) (9, 6.67452290654182434082e-02) (10, 4.21667993068695068359e-02) (0, -2.77554877102375030518e-02) (1, 8.33584144711494445801e-02) (2, -3.24097238481044769287e-02) (3, 9.32320132851600646973e-02) (4, 4.10197786986827850342e-02) (5, 2.44243629276752471924e-02) (6, -1.95068530738353729248e-02) (7, 8.63753482699394226074e-02) (8, -2.56584323942661285400e-02) (9, -5.45347742736339569092e-02) (10, 6.72486871480941772461e-02) (0, -8.66538062691688537598e-02) (1, -1.00138587877154350281e-02) (2, -1.36896772310137748718e-02) (3, 2.26175095885992050171e-02) (4, -3.95157113671302795410e-02) (5, -3.11039946973323822021e-02) (6, 4.80628525838255882263e-03) (7, -5.82442507147789001465e-02) (8, -3.44856195151805877686e-02) (9, 4.60978709161281585693e-02) (10, 5.43437637388706207275e-02) (0, -8.24605152010917663574e-02) (1, -1.84834934771060943604e-02) (2, 5.96914067864418029785e-02) (3, -9.57334116101264953613e-02) (4, -4.14668470621109008789e-02) (5, 7.90918841958045959473e-02) (6, 2.28506885468959808350e-02) (7, -7.44973942637443542480e-02) (8, 2.17071436345577239990e-02) (9, 9.42141339182853698730e-02) (10, -9.62862372398376464844e-02) (0, 9.38889160752296447754e-02) (1, 9.20376405119895935059e-02) (2, 5.35912103950977325439e-02) (3, 1.74322053790092468262e-02) (4, -2.83502861857414245605e-02) (5, 3.90854813158512115479e-02) (6, 9.08926948904991149902e-02) (7, 1.62338614463806152344e-02) (8, 4.57202596589922904968e-03) (9, -9.84805822372436523438e-02) (10, -9.52930599451065063477e-02) (0, 9.12412852048873901367e-02) (1, 2.44958773255348205566e-02) (2, -3.56562323868274688721e-02) (3, -4.25821729004383087158e-02) (4, -7.34173059463500976562e-02) (5, 3.38005321100354194641e-03) (6, 2.02127471566200256348e-02) (7, 6.99611008167266845703e-02) (8, -4.77151274681091308594e-02) (9, 4.20183837413787841797e-02) (10, -3.99714037775993347168e-02) (0, -8.49789530038833618164e-02) (1, 4.93297502398490905762e-02) (2, 1.73217076808214187622e-02) (3, 9.83790829777717590332e-02) (4, -2.35533844679594039917e-02) (5, 4.70904633402824401855e-02) (6, 2.43523959070444107056e-02) (7, -2.50730868428945541382e-02) (8, 5.93365803360939025879e-02) (9, 1.70348975807428359985e-02) (10, -3.11784241348505020142e-02) (0, 6.26504141837358474731e-03) (1, -7.21956789493560791016e-02) (2, 3.07450853288173675537e-02) (3, -5.58558814227581024170e-02) (4, -8.25093984603881835938e-02) (5, -5.42274639010429382324e-02) (6, 4.75097298622131347656e-02) (7, -8.21963995695114135742e-02) (8, -5.19333444535732269287e-02) (9, 3.44661921262741088867e-02) (10, 3.56217361986637115479e-02) (0, 1.36885279789566993713e-02) (1, 9.31621119379997253418e-02) (2, 6.58754631876945495605e-02) (3, -8.72162431478500366211e-02) (4, 9.09003708511590957642e-03) (5, 3.15517410635948181152e-02) (6, -3.92161868512630462646e-02) (7, -5.31763993203639984131e-02) (8, 8.30106958746910095215e-02) (9, -2.72585675120353698730e-02) (10, 9.62599292397499084473e-02) (0, -7.64148496091365814209e-03) (1, -3.68533581495285034180e-02) (2, -3.84373366832733154297e-02) (3, -6.36144429445266723633e-02) (4, 8.44356045126914978027e-02) (5, 3.34261432290077209473e-02) (6, 9.26587060093879699707e-02) (7, -1.59291794989258050919e-03) (8, 9.61208567023277282715e-02) (9, 1.31668278481811285019e-03) (10, 2.68638841807842254639e-02) (0, 2.68889088183641433716e-02) (1, 4.54837530851364135742e-02) (2, 4.61179018020629882812e-02) (3, 7.50543773174285888672e-02) (4, -4.61358344182372093201e-03) (5, 6.63144439458847045898e-02) (6, -7.44860395789146423340e-02) (7, -6.77544772624969482422e-02) (8, 6.72203535214066505432e-03) (9, 3.60324829816818237305e-02) (10, -8.18727761507034301758e-02) (0, -3.13523225486278533936e-02) (1, 4.48664203286170959473e-02) (2, 2.73778643459081649780e-02) (3, -1.02970585227012634277e-01) (4, -9.75197553634643554688e-02) (5, 7.10314735770225524902e-02) (6, 7.68701210618019104004e-02) (7, -2.79483292251825332642e-02) (8, 6.09513893723487854004e-02) (9, -2.90309209376573562622e-02) (10, 3.20485271513462066650e-02) (0, -7.33683928847312927246e-02) (1, 1.14721795544028282166e-02) (2, 2.54919305443763732910e-02) (3, 6.17982037365436553955e-02) (4, 5.87134715169668197632e-03) (5, -7.43605345487594604492e-02) (6, 5.96595145761966705322e-02) (7, -9.10715162754058837891e-02) (8, 5.59842474758625030518e-02) (9, -9.34114400297403335571e-03) (10, 5.60095235705375671387e-02) (0, 7.59084802120923995972e-03) (1, -2.87980847060680389404e-02) (2, -4.06022407114505767822e-02) (3, -2.19842903316020965576e-02) (4, 8.26287781819701194763e-04) (5, -4.24629868939518928528e-03) (6, 8.88481512665748596191e-02) (7, -5.90308010578155517578e-02) (8, 2.21017636358737945557e-02) (9, -3.76139245927333831787e-02) (10, 8.95909965038299560547e-02) (0, -4.82082776725292205811e-02) (1, -3.82724106311798095703e-02) (2, 9.55181941390037536621e-02) (3, -7.22865909337997436523e-02) (4, -5.65120615065097808838e-02) (5, -2.75398883968591690063e-02) (6, 9.35550406575202941895e-02) (7, 1.93472411483526229858e-02) (8, -8.57108905911445617676e-02) (9, -7.73002058267593383789e-02) (10, -7.03804343938827514648e-02) (0, 4.13179323077201843262e-02) (1, 8.60348865389823913574e-02) (2, 4.07408103346824645996e-02) (3, 6.94705471396446228027e-02) (4, 4.82075586915016174316e-02) (5, 5.21824434399604797363e-02) (6, 2.79679354280233383179e-02) (7, -5.86204491555690765381e-02) (8, 1.32182361558079719543e-02) (9, -6.33063539862632751465e-02) (10, 9.02707222849130630493e-03) (0, 7.54305347800254821777e-02) (1, 1.75238717347383499146e-02) (2, -8.26428383588790893555e-02) (3, -2.76809092611074447632e-02) (4, 7.50690232962369918823e-03) (5, -4.05387766659259796143e-02) (6, 9.55557301640510559082e-02) (7, 7.10278525948524475098e-02) (8, -4.86780442297458648682e-02) (9, -4.89395558834075927734e-02) (10, -6.65411725640296936035e-02) (0, -4.94188927114009857178e-02) (1, -1.74851845949888229370e-02) (2, -1.63026731461286544800e-02) (3, 2.67542246729135513306e-02) (4, -2.02171262353658676147e-02) (5, -9.32424217462539672852e-02) (6, 4.47563603520393371582e-02) (7, 6.19568070396780967712e-03) (8, -5.61968386173248291016e-02) (9, -9.23645310103893280029e-03) (10, -6.06183381751179695129e-03) (0, 8.92695114016532897949e-02) (1, -3.50403673946857452393e-02) (2, -5.01470677554607391357e-02) (3, 4.61412183940410614014e-02) (4, -1.02383181452751159668e-01) (5, -4.07825177535414695740e-03) (6, -3.59512753784656524658e-02) (7, -6.10002726316452026367e-02) (8, -8.56726542115211486816e-02) (9, -5.75111433863639831543e-02) (10, 5.65878413617610931396e-02) (0, -5.96945546567440032959e-02) (1, 2.34288889914751052856e-02) (2, -2.43389513343572616577e-02) (3, 2.77628214098513126373e-03) (4, 2.19942126423120498657e-02) (5, -5.03014996647834777832e-02) (6, 5.71078434586524963379e-02) (7, 7.60642513632774353027e-02) (8, -1.08234481886029243469e-02) (9, -8.93293768167495727539e-02) (10, -3.57733033597469329834e-02) (0, 7.33188688755035400391e-02) (1, 3.78698408603668212891e-02) (2, 4.17885929346084594727e-02) (3, 8.30581188201904296875e-02) (4, -1.43921496346592903137e-02) (5, -4.90340664982795715332e-02) (6, -7.01570659875869750977e-02) (7, 7.93530642986297607422e-02) (8, 5.08674234151840209961e-02) (9, -7.79421702027320861816e-02) (10, -5.26126623153686523438e-02) (0, -9.97061505913734436035e-02) (1, 6.77725523710250854492e-02) (2, -5.55516183376312255859e-02) (3, -8.39028216432780027390e-04) (4, -6.52333423495292663574e-02) (5, -1.36065138503909111023e-02) (6, 1.64336990565061569214e-02) (7, -1.97991225868463516235e-02) (8, -5.11279366910457611084e-02) (9, 5.40731921792030334473e-02) (10, -1.02278813719749450684e-01) (0, 2.41675041615962982178e-02) (1, -4.35161404311656951904e-02) (2, 2.25923992693424224854e-02) (3, 7.12000578641891479492e-02) (4, -8.90742391347885131836e-02) (5, -4.00929525494575500488e-03) (6, -4.22893464565277099609e-02) (7, -8.10695663094520568848e-02) (8, 5.48855029046535491943e-02) (9, -6.90997615456581115723e-02) (10, 5.57287186384201049805e-02) (0, -4.81907278299331665039e-03) (1, -8.75348150730133056641e-02) (2, -5.92143200337886810303e-02) (3, 4.60175946354866027832e-02) (4, -5.78211657702922821045e-02) (5, -7.99905210733413696289e-02) (6, -3.24426614679396152496e-03) (7, -3.58926057815551757812e-02) (8, -3.28617319464683532715e-02) (9, 2.92196986265480518341e-04) (10, -6.71836137771606445312e-02) (0, 1.49268778041005134583e-02) (1, -9.72066000103950500488e-02) (2, -2.67705656588077545166e-02) (3, -9.54370200634002685547e-02) (4, 2.24697031080722808838e-02) (5, 5.66729269921779632568e-02) (6, -4.33223471045494079590e-02) (7, -2.02144943177700042725e-02) (8, 6.08793459832668304443e-02) (9, 8.17874372005462646484e-02) (10, 3.50030958652496337891e-02) (0, -1.37199489399790763855e-02) (1, 5.57958036661148071289e-02) (2, 5.09456992149353027344e-02) (3, 8.32130312919616699219e-02) (4, -8.55512693524360656738e-02) (5, 7.08184093236923217773e-02) (6, 3.90408039093017578125e-02) (7, -5.37087582051753997803e-02) (8, 2.84316670149564743042e-02) (9, -6.34721145033836364746e-02) (10, -3.92799153923988342285e-02) (0, 7.13009238243103027344e-02) (1, 8.46290439367294311523e-02) (2, 5.32499235123395919800e-03) (3, 9.36165601015090942383e-02) (4, -1.63090582937002182007e-02) (5, 7.17385560274124145508e-02) (6, -3.69390211999416351318e-02) (7, 8.62893015146255493164e-02) (8, -9.08327326178550720215e-02) (9, 8.01964104175567626953e-02) (10, 9.07261371612548828125e-02) (0, -1.07837244868278503418e-02) (1, 9.15789529681205749512e-02) (2, 2.05805152654647827148e-02) (3, -5.19022606313228607178e-02) (4, -4.95348423719406127930e-02) (5, 1.02574579417705535889e-01) (6, -8.88143852353096008301e-02) (7, -6.55388683080673217773e-02) (8, 4.19947430491447448730e-02) (9, -2.19184067100286483765e-03) (10, 9.46453735232353210449e-02) (0, -1.03468904271721839905e-02) (1, -2.22661513835191726685e-02) (2, -9.82391834259033203125e-02) (3, -3.91859859228134155273e-02) (4, -8.28828588128089904785e-02) (5, -5.16054406762123107910e-02) (6, 8.95881801843643188477e-02) (7, -4.60124723613262176514e-02) (8, 9.79965087026357650757e-03) (9, 6.14541992545127868652e-02) (10, -6.04022257030010223389e-02) (0, -8.32188054919242858887e-02) (1, 5.67273013293743133545e-02) (2, 2.45291646569967269897e-02) (3, 8.90848413109779357910e-02) (4, -7.96466320753097534180e-02) (5, 1.13835595548152923584e-02) (6, 9.88171920180320739746e-02) (7, 1.01114876568317413330e-01) (8, 3.23988939635455608368e-03) (9, -1.60124693065881729126e-02) (10, 9.01554673910140991211e-02) (0, -8.04579406976699829102e-02) (1, 2.78069172054529190063e-02) (2, -6.51653110980987548828e-02) (3, -8.19293260574340820312e-02) (4, 3.49465869367122650146e-02) (5, -3.47501225769519805908e-02) (6, 5.60194812715053558350e-02) (7, -7.12911933660507202148e-02) (8, -4.81966473162174224854e-02) (9, -5.47435320913791656494e-02) (10, 7.30172870680689811707e-03) (0, -5.27926571667194366455e-02) (1, -2.86357535514980554581e-04) (2, 1.67868565768003463745e-02) (3, -4.81420988216996192932e-03) (4, -1.11142862588167190552e-02) (5, 7.03582912683486938477e-02) (6, -9.54306796193122863770e-02) (7, -5.00762164592742919922e-02) (8, -9.08761695027351379395e-02) (9, -8.01570639014244079590e-02) (10, -9.95220318436622619629e-02) (0, 3.43391075730323791504e-02) (1, -9.03861001133918762207e-02) (2, -7.38169923424720764160e-02) (3, -5.57849109172821044922e-02) (4, -9.30764898657798767090e-02) (5, -7.42097124457359313965e-02) (6, 4.59473952651023864746e-02) (7, -1.05965519323945045471e-02) (8, -8.70694145560264587402e-02) (9, 6.42142742872238159180e-02) (10, -8.65366458892822265625e-02) (0, -5.19362427294254302979e-02) (1, 8.25834199786186218262e-02) (2, 5.11802695691585540771e-02) (3, 1.20384432375431060791e-02) (4, 3.73277179896831512451e-02) (5, 7.86138847470283508301e-02) (6, 6.25666156411170959473e-02) (7, 8.13089832663536071777e-02) (8, -1.66347511112689971924e-02) (9, -8.55605155229568481445e-02) (10, -1.52099803090095520020e-02) (0, -9.83462929725646972656e-02) (1, 1.11268805339932441711e-02) (2, 7.60754868388175964355e-02) (3, 7.66775235533714294434e-02) (4, 2.03617420047521591187e-02) (5, -6.93351924419403076172e-02) (6, 9.04668793082237243652e-02) (7, 4.48702089488506317139e-02) (8, -5.95261491835117340088e-02) (9, 2.72778403013944625854e-02) (10, 5.28938360512256622314e-02) (0, -2.32022125273942947388e-02) (1, 8.16338658332824707031e-02) (2, 7.40203708410263061523e-02) (3, 5.05991093814373016357e-03) (4, 3.00530921667814254761e-02) (5, -3.41043360531330108643e-02) (6, 2.04623248428106307983e-02) (7, -3.26080783270299434662e-03) (8, -1.56973097473382949829e-02) (9, 6.94242566823959350586e-02) (10, -1.61722060292959213257e-02) (0, -6.87431544065475463867e-02) (1, -2.27634273469448089600e-02) (2, -8.66776183247566223145e-02) (3, -8.92311111092567443848e-02) (4, -5.92986494302749633789e-02) (5, 9.55295339226722717285e-02) (6, -4.96769975870847702026e-03) (7, -4.39609922468662261963e-02) (8, -1.78841240704059600830e-02) (9, 7.48109829146414995193e-04) (10, 6.97107315063476562500e-02) (0, -3.23462188243865966797e-02) (1, -1.31119480356574058533e-02) (2, 1.05214142240583896637e-03) (3, 2.38069915212690830231e-03) (4, -1.85829680413007736206e-02) (5, -5.00155538320541381836e-02) (6, 4.69166561961174011230e-02) (7, -8.72430354356765747070e-02) (8, -8.89975279569625854492e-02) (9, -7.98925757408142089844e-02) (10, 9.46668758988380432129e-02) (0, 7.38485455513000488281e-02) (1, 1.39930173754692077637e-02) (2, 9.66261327266693115234e-03) (3, -6.38628005981445312500e-02) (4, -6.91516622900962829590e-02) (5, -9.72052067518234252930e-02) (6, 1.68328732252120971680e-02) (7, -1.03334426879882812500e-01) (8, -2.05914378166198730469e-02) (9, 4.96069863438606262207e-02) (10, -2.82648429274559020996e-02) (0, -5.30762970447540283203e-03) (1, 6.23373016715049743652e-02) (2, 1.80821958929300308228e-02) (3, -8.26082285493612289429e-03) (4, -4.11131307482719421387e-02) (5, 7.56384655833244323730e-02) (6, 7.53723308444023132324e-02) (7, 6.11522421240806579590e-02) (8, 4.83837351202964782715e-02) (9, -6.08569383621215820312e-02) (10, -5.90828433632850646973e-02) (0, -5.39646893739700317383e-02) (1, 3.81231978535652160645e-02) (2, 2.21737176179885864258e-02) (3, -7.86329060792922973633e-03) (4, -1.88432112336158752441e-02) (5, 3.10476347804069519043e-02) (6, -7.43865792173892259598e-04) (7, -2.61883414350450038910e-03) (8, 1.79484114050865173340e-02) (9, -2.32110694050788879395e-02) (10, -8.76991748809814453125e-02) (0, -6.88442215323448181152e-02) (1, 1.64708979427814483643e-02) (2, -5.05484677851200103760e-02) (3, -6.23651780188083648682e-02) (4, -6.30119815468788146973e-02) (5, -5.01986555755138397217e-02) (6, 2.07276381552219390869e-02) (7, 9.02792587876319885254e-02) (8, 2.89050154387950897217e-02) (9, -8.13399031758308410645e-02) (10, 5.29595613479614257812e-02) (0, -5.01052662730216979980e-02) (1, 1.33068067952990531921e-02) (2, -8.23489427566528320312e-02) (3, -7.12267085909843444824e-02) (4, -8.08077026158571243286e-03) (5, 8.20433944463729858398e-02) (6, 8.03971141576766967773e-02) (7, 3.43023873865604400635e-02) (8, -7.05592706799507141113e-02) (9, -7.08099678158760070801e-02) (10, -2.80464608222246170044e-02) (0, 5.72324320673942565918e-02) (1, 2.69447360187768936157e-02) (2, 6.19579628109931945801e-02) (3, -8.96232388913631439209e-03) (4, -7.10415244102478027344e-02) (5, -3.79032604396343231201e-02) (6, -8.82563069462776184082e-02) (7, 8.50501842796802520752e-03) (8, -2.00872179120779037476e-02) (9, -5.42034283280372619629e-02) (10, -7.24962726235389709473e-02) (0, 3.35015878081321716309e-02) (1, -1.24313235282897949219e-02) (2, -3.10016945004463195801e-02) (3, 8.62000435590744018555e-02) (4, -8.88065844774246215820e-02) (5, -3.78253422677516937256e-02) (6, 1.80021468549966812134e-02) (7, -6.72493949532508850098e-02) (8, -7.90715888142585754395e-02) (9, 7.11265355348587036133e-02) (10, 5.01579754054546356201e-02) (0, -6.11115619540214538574e-02) (1, -9.97911989688873291016e-02) (2, -5.84847293794155120850e-02) (3, -7.58385136723518371582e-02) (4, 8.38355720043182373047e-02) (5, 7.90473073720932006836e-02) (6, -4.31681238114833831787e-02) (7, -8.37447345256805419922e-02) (8, -4.25398498773574829102e-02) (9, -8.55664089322090148926e-02) (10, 4.15195040404796600342e-02) (0, -7.83465281128883361816e-02) (1, 7.70661281421780586243e-03) (2, 7.47631043195724487305e-02) (3, -1.58805176615715026855e-02) (4, 1.98195874691009521484e-02) (5, -1.63626000285148620605e-02) (6, 6.44015520811080932617e-02) (7, 6.59854412078857421875e-02) (8, 1.18796899914741516113e-02) (9, -2.96775926835834980011e-03) (10, -4.75004948675632476807e-02) (0, 8.29510167241096496582e-02) (1, -1.46947028115391731262e-02) (2, -3.40503491461277008057e-02) (3, -5.57452253997325897217e-02) (4, 1.02436535060405731201e-01) (5, -2.17065704055130481720e-03) (6, -3.56877148151397705078e-02) (7, 7.26921781897544860840e-02) (8, -5.37544824182987213135e-02) (9, 5.25050843134522438049e-03) (10, 7.77109563350677490234e-02) (0, -1.30879292264580726624e-02) (1, 2.85632666200399398804e-02) (2, 5.79376146197319030762e-02) (3, -3.19908335804939270020e-02) (4, 8.74449387192726135254e-02) (5, 7.62426629662513732910e-02) (6, 2.75191124528646469116e-02) (7, -9.60716977715492248535e-02) (8, 2.18617152422666549683e-02) (9, 4.93562892079353332520e-02) (10, 1.16803413257002830505e-02) (0, -1.28479429986327886581e-03) (1, -6.44338428974151611328e-02) (2, -6.62713944911956787109e-02) (3, 8.25363174080848693848e-02) (4, 1.00151412189006805420e-01) (5, 9.98977497220039367676e-02) (6, -5.40028605610132217407e-03) (7, -2.63264146633446216583e-03) (8, -4.72353249788284301758e-02) (9, -2.52094864845275878906e-02) (10, 8.16808342933654785156e-02) (0, 1.47157022729516029358e-02) (1, 1.50466794148087501526e-02) (2, 7.83503726124763488770e-02) (3, -9.02151614427566528320e-02) (4, 7.65987560153007507324e-02) (5, 4.82823215425014495850e-02) (6, -4.67298515141010284424e-02) (7, -2.09109559655189514160e-02) (8, 2.04728692770004272461e-02) (9, 4.03205119073390960693e-02) (10, -9.16794016957283020020e-02) (0, -1.70919932425022125244e-02) (1, -8.71728137135505676270e-02) (2, 9.97330546379089355469e-02) (3, -4.07110564410686492920e-02) (4, 4.04845848679542541504e-02) (5, 1.03799641132354736328e-01) (6, 8.12889337539672851562e-02) (7, -1.00208558142185211182e-02) (8, 1.57565511763095855713e-02) (9, -2.17642523348331451416e-02) (10, 2.86661386489868164062e-02) (0, 4.62372750043869018555e-02) (1, -4.24758233129978179932e-02) (2, 2.06804163753986358643e-02) (3, 4.43666279315948486328e-02) (4, 5.03554940223693847656e-02) (5, -8.37206169962882995605e-02) (6, 9.53628942370414733887e-02) (7, -7.66223818063735961914e-02) (8, 9.44234356284141540527e-02) (9, 9.54861845821142196655e-03) (10, 4.13040369749069213867e-02) (0, 7.32969790697097778320e-02) (1, 1.98566336184740066528e-02) (2, 1.50162233039736747742e-02) (3, 2.10493076592683792114e-02) (4, 7.25967884063720703125e-02) (5, 9.35752838850021362305e-02) (6, -5.90078122913837432861e-02) (7, 1.23873008415102958679e-02) (8, 1.00835889577865600586e-01) (9, 1.90109629184007644653e-02) (10, 2.47881542891263961792e-02) (0, 8.88805836439132690430e-02) (1, 6.66115432977676391602e-02) (2, -5.08785061538219451904e-02) (3, 8.77909958362579345703e-02) (4, 4.30112667381763458252e-02) (5, 3.42114008963108062744e-02) (6, -1.34167715441435575485e-03) (7, -8.36422219872474670410e-02) (8, -4.69009280204772949219e-02) (9, -5.85141405463218688965e-02) (10, -3.18640135228633880615e-02) (0, 6.90678134560585021973e-02) (1, 8.11408087611198425293e-02) (2, -8.38839560747146606445e-02) (3, 8.19374695420265197754e-02) (4, 7.30939880013465881348e-02) (5, -6.39160722494125366211e-02) (6, 7.29511752724647521973e-02) (7, -2.07671318203210830688e-02) (8, 7.05685093998908996582e-02) (9, 4.17852811515331268311e-02) (10, 9.09884348511695861816e-02) (0, -1.59946084022521972656e-02) (1, -3.87447588145732879639e-02) (2, 6.56440481543540954590e-02) (3, -2.68822237849235534668e-02) (4, -2.21545458771288394928e-03) (5, -2.64315232634544372559e-02) (6, -3.05092260241508483887e-02) (7, -8.76673907041549682617e-02) (8, 8.94308611750602722168e-02) (9, -3.92924025654792785645e-02) (10, 8.05257707834243774414e-02) (0, -5.63637986779212951660e-02) (1, -4.64175492525100708008e-02) (2, 2.93755028396844863892e-02) (3, 8.01838487386703491211e-02) (4, 5.45770190656185150146e-02) (5, 4.80695180594921112061e-02) (6, -6.43808469176292419434e-02) (7, 9.83991175889968872070e-02) (8, -7.91220143437385559082e-02) (9, -9.16748419404029846191e-02) (10, 8.51710736751556396484e-02) (0, -6.59065768122673034668e-02) (1, 8.73620286583900451660e-02) (2, 5.33714778721332550049e-02) (3, -2.61844675987958908081e-02) (4, 6.39513954520225524902e-02) (5, -6.37574791908264160156e-02) (6, -5.19777834415435791016e-02) (7, 9.37483645975589752197e-03) (8, -6.54926896095275878906e-02) (9, 3.27822454273700714111e-02) (10, 6.68389052152633666992e-02) (0, -8.99815037846565246582e-02) (1, -8.42328593134880065918e-02) (2, -2.09636203944683074951e-02) (3, -1.56583897769451141357e-02) (4, -1.39874545857310295105e-02) (5, -7.87636917084455490112e-03) (6, -2.54728905856609344482e-02) (7, 4.74747829139232635498e-02) (8, -2.58413366973400115967e-02) (9, 1.61703266203403472900e-02) (10, 1.03630915284156799316e-01) (0, 9.55890417098999023438e-02) (1, -1.15909595042467117310e-02) (2, 4.56961207091808319092e-02) (3, 4.16655801236629486084e-02) (4, 2.20352169126272201538e-02) (5, 4.21022586524486541748e-02) (6, 6.05505965650081634521e-02) (7, 2.83673983067274093628e-02) (8, 2.32873912900686264038e-02) (9, -1.00810177624225616455e-01) (10, 1.88897512853145599365e-02) (0, -1.57761517912149429321e-02) (1, -1.94296557456254959106e-02) (2, -8.20838753134012222290e-03) (3, 2.50121783465147018433e-02) (4, 3.31383869051933288574e-02) (5, -9.42877456545829772949e-02) (6, 6.40653073787689208984e-02) (7, -2.95335669070482254028e-02) (8, 8.16427916288375854492e-02) (9, 6.95171207189559936523e-02) (10, -1.66994128376245498657e-02) (0, -4.07681651413440704346e-02) (1, -4.75885905325412750244e-02) (2, 6.62321150302886962891e-02) (3, 4.67887967824935913086e-02) (4, 2.23718415945768356323e-02) (5, 9.14021395146846771240e-03) (6, -8.36192145943641662598e-02) (7, -6.60244971513748168945e-02) (8, 3.63779673352837562561e-03) (9, -8.66446867585182189941e-02) (10, 2.85230539739131927490e-02) (0, -5.30319958925247192383e-02) (1, 5.26549667119979858398e-02) (2, -5.65606765449047088623e-02) (3, 9.04557555913925170898e-02) (4, 1.45910447463393211365e-02) (5, 7.31922090053558349609e-02) (6, 1.51286488398909568787e-02) (7, 1.51663636788725852966e-02) (8, -5.14706270769238471985e-03) (9, 9.77188050746917724609e-02) (10, 9.51046422123908996582e-02) (11, -1.21922850608825683594e-01) (12, -1.54025182127952575684e-01) (13, -1.73236265778541564941e-01) (14, -1.26247927546501159668e-01) (15, -2.25665628910064697266e-01) (16, -1.07282504439353942871e-01) (17, -1.22301280498504638672e-01) (18, -2.39118784666061401367e-01) (19, -2.29416549205780029297e-01) (20, -2.57812589406967163086e-01) (21, -1.99529051780700683594e-01) (22, -2.51042544841766357422e-01) (23, -1.24324917793273925781e-01) (24, -2.90753960609436035156e-01) (25, -1.55104994773864746094e-01) (26, -1.00610099732875823975e-01) (27, -2.56977856159210205078e-01) (28, -2.65674769878387451172e-01) (29, -9.38902795314788818359e-02) (30, -1.47813200950622558594e-01) (31, -2.27443233132362365723e-01) (32, -1.51306897401809692383e-01) (33, -2.80226618051528930664e-01) (34, -2.10399642586708068848e-01) (35, -2.39887714385986328125e-01) (36, -1.25524267554283142090e-01) (37, -1.20152324438095092773e-01) (38, -1.36421039700508117676e-01) (39, -2.28527218103408813477e-01) (40, -9.88190695643424987793e-02) (41, -1.46577075123786926270e-01) (42, -2.69318878650665283203e-01) (43, -2.01490178704261779785e-01) (44, -2.27204248309135437012e-01) (45, -2.45894148945808410645e-01) (46, -1.01574808359146118164e-01) (47, -2.24065333604812622070e-01) (48, -2.79653400182723999023e-01) (49, -2.61964470148086547852e-01) (50, -1.39494270086288452148e-01) (51, -2.71615415811538696289e-01) (52, -1.71213164925575256348e-01) (53, -1.14576637744903564453e-01) (54, -1.01967476308345794678e-01) (55, -1.50231704115867614746e-01) (56, -1.78479462862014770508e-01) (57, -1.07378751039505004883e-01) (58, -1.15213319659233093262e-01) (59, -1.31571248173713684082e-01) (60, -1.28404021263122558594e-01) (61, -1.29728540778160095215e-01) (62, -2.43381604552268981934e-01) (63, -2.00947999954223632812e-01) (64, -1.15114122629165649414e-01) (65, -1.75560489296913146973e-01) (66, -1.30111485719680786133e-01) (67, -1.53587877750396728516e-01) (68, -1.90896630287170410156e-01) (69, -2.08520323038101196289e-01) (70, -2.84122824668884277344e-01) (71, -1.90589204430580139160e-01) (72, -2.43439644575119018555e-01) (73, -2.07991138100624084473e-01) (74, -8.08359012007713317871e-02) (75, -1.23798310756683349609e-01) (76, -1.88248544931411743164e-01) (77, -1.25619798898696899414e-01) (78, -2.75209158658981323242e-01) (79, -1.59119293093681335449e-01) (80, -2.67241984605789184570e-01) (81, -1.12203225493431091309e-01) (82, -1.36853739619255065918e-01) (83, -1.33889034390449523926e-01) (84, -1.33817940950393676758e-01) (85, -1.23378634452819824219e-01) (86, -1.76766917109489440918e-01) (87, -2.13072419166564941406e-01) (88, -1.41919448971748352051e-01) (89, -1.94158628582954406738e-01) (90, -2.60774552822113037109e-01) (91, -2.03760355710983276367e-01) (92, -2.41638302803039550781e-01) (93, -2.04541876912117004395e-01) (94, -3.02829951047897338867e-01) (95, -2.74456143379211425781e-01) (96, -3.03657531738281250000e-01) (97, -1.50695130228996276855e-01) (98, -1.45573496818542480469e-01) (99, -1.83425426483154296875e-01) (100, -2.41983473300933837891e-01) (101, -1.10984042286872863770e-01) (102, -2.85882622003555297852e-01) (103, -1.81372448801994323730e-01) (104, -2.31722831726074218750e-01) (105, -2.84964472055435180664e-01) (106, -2.35559463500976562500e-01) (107, -3.07314455509185791016e-01) 
