FANN_FLO_2.1
num_layers=3
learning_rate=0.700000
connection_rate=1.000000
network_type=0
learning_momentum=0.000000
training_algorithm=2
train_error_function=1
train_stop_function=0
cascade_output_change_fraction=0.010000
quickprop_decay=-0.000100
quickprop_mu=1.750000
rprop_increase_factor=1.200000
rprop_decrease_factor=0.500000
rprop_delta_min=0.000000
rprop_delta_max=50.000000
rprop_delta_zero=0.100000
cascade_output_stagnation_epochs=12
cascade_candidate_change_fraction=0.010000
cascade_candidate_stagnation_epochs=12
cascade_max_out_epochs=150
cascade_min_out_epochs=50
cascade_max_cand_epochs=150
cascade_min_cand_epochs=50
cascade_num_candidate_groups=2
bit_fail_limit=3.49999994039535522461e-01
cascade_candidate_limit=1.00000000000000000000e+03
cascade_weight_multiplier=4.00000005960464477539e-01
cascade_activation_functions_count=10
cascade_activation_functions=3 5 7 8 10 11 14 15 16 17 
cascade_activation_steepnesses_count=4
cascade_activation_steepnesses=2.50000000000000000000e-01 5.00000000000000000000e-01 7.50000000000000000000e-01 1.00000000000000000000e+00 
layer_sizes=126 33 3 
scale_included=0
neurons (num_inputs, activation_function, activation_steepness)=(0, 0, 0.00000000000000000000e+00) (0, 0, 0.00000000000000000000e+00) (0, 0, 0.00000000000000000000e+00) (0, 0, 0.00000000000000000000e+00) (0, 0, 0.00000000000000000000e+00) (0, 0, 0.00000000000000000000e+00) (0, 0, 0.00000000000000000000e+00) (0, 0, 0.00000000000000000000e+00) (0, 0, 0.00000000000000000000e+00) (0, 0, 0.00000000000000000000e+00) (0, 0, 0.00000000000000000000e+00) (0, 0, 0.00000000000000000000e+00) (0, 0, 0.00000000000000000000e+00) (0, 0, 0.00000000000000000000e+00) (0, 0, 0.00000000000000000000e+00) (0, 0, 0.00000000000000000000e+00) (0, 0, 0.00000000000000000000e+00) (0, 0, 0.00000000000000000000e+00) (0, 0, 0.00000000000000000000e+00) (0, 0, 0.00000000000000000000e+00) (0, 0, 0.00000000000000000000e+00) (0, 0, 0.00000000000000000000e+00) (0, 0, 0.00000000000000000000e+00) (0, 0, 0.00000000000000000000e+00) (0, 0, 0.00000000000000000000e+00) (0, 0, 0.00000000000000000000e+00) (0, 0, 0.00000000000000000000e+00) (0, 0, 0.00000000000000000000e+00) (0, 0, 0.00000000000000000000e+00) (0, 0, 0.00000000000000000000e+00) (0, 0, 0.00000000000000000000e+00) (0, 0, 0.00000000000000000000e+00) (0, 0, 0.00000000000000000000e+00) (0, 0, 0.00000000000000000000e+00) (0, 0, 0.00000000000000000000e+00) (0, 0, 0.00000000000000000000e+00) (0, 0, 0.00000000000000000000e+00) (0, 0, 0.00000000000000000000e+00) (0, 0, 0.00000000000000000000e+00) (0, 0, 0.00000000000000000000e+00) (0, 0, 0.00000000000000000000e+00) (0, 0, 0.00000000000000000000e+00) (0, 0, 0.00000000000000000000e+00) (0, 0, 0.00000000000000000000e+00) (0, 0, 0.00000000000000000000e+00) (0, 0, 0.00000000000000000000e+00) (0, 0, 0.00000000000000000000e+00) (0, 0, 0.00000000000000000000e+00) (0, 0, 0.00000000000000000000e+00) (0, 0, 0.00000000000000000000e+00) (0, 0, 0.00000000000000000000e+00) (0, 0, 0.00000000000000000000e+00) (0, 0, 0.00000000000000000000e+00) (0, 0, 0.00000000000000000000e+00) (0, 0, 0.00000000000000000000e+00) (0, 0, 0.00000000000000000000e+00) (0, 0, 0.00000000000000000000e+00) (0, 0, 0.00000000000000000000e+00) (0, 0, 0.00000000000000000000e+00) (0, 0, 0.00000000000000000000e+00) (0, 0, 0.00000000000000000000e+00) (0, 0, 0.00000000000000000000e+00) (0, 0, 0.00000000000000000000e+00) (0, 0, 0.00000000000000000000e+00) (0, 0, 0.00000000000000000000e+00) (0, 0, 0.00000000000000000000e+00) (0, 0, 0.00000000000000000000e+00) (0, 0, 0.00000000000000000000e+00) (0, 0, 0.00000000000000000000e+00) (0, 0, 0.00000000000000000000e+00) (0, 0, 0.00000000000000000000e+00) (0, 0, 0.00000000000000000000e+00) (0, 0, 0.00000000000000000000e+00) (0, 0, 0.00000000000000000000e+00) (0, 0, 0.00000000000000000000e+00) (0, 0, 0.00000000000000000000e+00) (0, 0, 0.00000000000000000000e+00) (0, 0, 0.00000000000000000000e+00) (0, 0, 0.00000000000000000000e+00) (0, 0, 0.00000000000000000000e+00) (0, 0, 0.00000000000000000000e+00) (0, 0, 0.00000000000000000000e+00) (0, 0, 0.00000000000000000000e+00) (0, 0, 0.00000000000000000000e+00) (0, 0, 0.00000000000000000000e+00) (0, 0, 0.00000000000000000000e+00) (0, 0, 0.00000000000000000000e+00) (0, 0, 0.00000000000000000000e+00) (0, 0, 0.00000000000000000000e+00) (0, 0, 0.00000000000000000000e+00) (0, 0, 0.00000000000000000000e+00) (0, 0, 0.00000000000000000000e+00) (0, 0, 0.00000000000000000000e+00) (0, 0, 0.00000000000000000000e+00) (0, 0, 0.00000000000000000000e+00) (0, 0, 0.00000000000000000000e+00) (0, 0, 0.00000000000000000000e+00) (0, 0, 0.00000000000000000000e+00) (0, 0, 0.00000000000000000000e+00) (0, 0, 0.00000000000000000000e+00) (0, 0, 0.00000000000000000000e+00) (0, 0, 0.00000000000000000000e+00) (0, 0, 0.00000000000000000000e+00) (0, 0, 0.00000000000000000000e+00) (0, 0, 0.00000000000000000000e+00) (0, 0, 0.00000000000000000000e+00) (0, 0, 0.00000000000000000000e+00) (0, 0, 0.00000000000000000000e+00) (0, 0, 0.00000000000000000000e+00) (0, 0, 0.00000000000000000000e+00) (0, 0, 0.00000000000000000000e+00) (0, 0, 0.00000000000000000000e+00) (0, 0, 0.00000000000000000000e+00) (0, 0, 0.00000000000000000000e+00) (0, 0, 0.00000000000000000000e+00) (0, 0, 0.00000000000000000000e+00) (0, 0, 0.00000000000000000000e+00) (0, 0, 0.00000000000000000000e+00) (0, 0, 0.00000000000000000000e+00) (0, 0, 0.00000000000000000000e+00) (0, 0, 0.00000000000000000000e+00) (0, 0, 0.00000000000000000000e+00) (0, 0, 0.00000000000000000000e+00) (0, 0, 0.00000000000000000000e+00) (0, 0, 0.00000000000000000000e+00) (0, 0, 0.00000000000000000000e+00) (126, 6, 5.00000000000000000000e-01) (126, 6, 5.00000000000000000000e-01) (126, 6, 5.00000000000000000000e-01) (126, 6, 5.00000000000000000000e-01) (126, 6, 5.00000000000000000000e-01) (126, 6, 5.00000000000000000000e-01) (126, 6, 5.00000000000000000000e-01) (126, 6, 5.00000000000000000000e-01) (126, 6, 5.00000000000000000000e-01) (126, 6, 5.00000000000000000000e-01) (126, 6, 5.00000000000000000000e-01) (126, 6, 5.00000000000000000000e-01) (126, 6, 5.00000000000000000000e-01) (126, 6, 5.00000000000000000000e-01) (126, 6, 5.00000000000000000000e-01) (126, 6, 5.00000000000000000000e-01) (126, 6, 5.00000000000000000000e-01) (126, 6, 5.00000000000000000000e-01) (126, 6, 5.00000000000000000000e-01) (126, 6, 5.00000000000000000000e-01) (126, 6, 5.00000000000000000000e-01) (126, 6, 5.00000000000000000000e-01) (126, 6, 5.00000000000000000000e-01) (126, 6, 5.00000000000000000000e-01) (126, 6, 5.00000000000000000000e-01) (126, 6, 5.00000000000000000000e-01) (126, 6, 5.00000000000000000000e-01) (126, 6, 5.00000000000000000000e-01) (126, 6, 5.00000000000000000000e-01) (126, 6, 5.00000000000000000000e-01) (126, 6, 5.00000000000000000000e-01) (126, 6, 5.00000000000000000000e-01) (0, 6, 0.00000000000000000000e+00) (33, 5, 5.00000000000000000000e-01) (33, 5, 5.00000000000000000000e-01) (0, 5, 0.00000000000000000000e+00) 
connections (connected_to_neuron, weight)=(0, 1.09072232246398925781e+00) (1, 3.13533186912536621094e-01) (2, -4.43811006844043731689e-02) (3, -4.10660989582538604736e-02) (4, 8.04781098850071430206e-04) (5, 1.50000000000000000000e+03) (6, 3.33576977252960205078e-01) (7, -5.73457121849060058594e-01) (8, -5.20395524799823760986e-02) (9, 9.39347664825618267059e-04) (10, 1.12537503242492675781e-01) (11, 1.85316264629364013672e-01) (12, 2.02042198181152343750e+00) (13, 2.36993238329887390137e-01) (14, 1.50000000000000000000e+03) (15, 1.84821546077728271484e-01) (16, 1.50000000000000000000e+03) (17, 3.61827039159834384918e-03) (18, 1.64319053292274475098e-01) (19, 2.04851493239402770996e-01) (20, 5.40560297667980194092e-02) (21, 1.17056638002395629883e-01) (22, 1.50000000000000000000e+03) (23, 1.50000000000000000000e+03) (24, -1.44429996609687805176e-01) (25, 1.06258578598499298096e-02) (26, -4.98740673065185546875e-02) (27, 2.75534898042678833008e-01) (28, 1.89591922760009765625e+01) (29, -1.41220122575759887695e-01) (30, -4.50823567807674407959e-02) (31, 2.03801751136779785156e+00) (32, 1.50000000000000000000e+03) (33, 4.85276468098163604736e-02) (34, 1.50000000000000000000e+03) (35, 1.22276879847049713135e-01) (36, 3.90176087617874145508e-01) (37, 1.50000000000000000000e+03) (38, 5.36945760250091552734e-01) (39, 3.46710756421089172363e-02) (40, 3.23588475584983825684e-02) (41, -2.14953452348709106445e-01) (42, 4.17053252458572387695e-02) (43, 2.74503082036972045898e-01) (44, 2.01661691069602966309e-01) (45, 4.15131688117980957031e-01) (46, 1.50000000000000000000e+03) (47, 2.52648089081048965454e-02) (48, -2.80302137136459350586e-01) (49, 1.50000000000000000000e+03) (50, -1.09556831419467926025e-01) (51, 3.09867829084396362305e-01) (52, -5.10713309049606323242e-02) (53, 2.67876416444778442383e-01) (54, -2.86009181290864944458e-02) (55, 1.47636291503906250000e+03) (56, 1.50000000000000000000e+03) (57, 2.26164564490318298340e-01) (58, 1.50000000000000000000e+03) (59, 1.50000000000000000000e+03) (60, 3.92586030066013336182e-02) (61, 1.04529511928558349609e+00) (62, 5.20786881446838378906e-01) (63, 1.44267588853836059570e-01) (64, 6.97819842025637626648e-03) (65, 2.03855171799659729004e-01) (66, 3.20196926593780517578e-01) (67, 1.37809440493583679199e-01) (68, 3.83207559585571289062e-01) (69, 1.67062640190124511719e-01) (70, 3.27899605035781860352e-01) (71, 1.50000000000000000000e+03) (72, 1.50000000000000000000e+03) (73, -2.08643032237887382507e-03) (74, 1.50000000000000000000e+03) (75, 2.26687341928482055664e-01) (76, -2.80433386564254760742e-01) (77, 2.38410905003547668457e-01) (78, 1.41285285353660583496e-01) (79, 2.91413038969039916992e-01) (80, 1.50000000000000000000e+03) (81, 1.50000000000000000000e+03) (82, -3.63709665834903717041e-02) (83, 1.50000000000000000000e+03) (84, 2.09248691797256469727e-01) (85, 1.29563987255096435547e-01) (86, 7.77244046330451965332e-02) (87, 1.50000000000000000000e+03) (88, 1.50000000000000000000e+03) (89, 1.50000000000000000000e+03) (90, -3.49388830363750457764e-02) (91, -2.71598100662231445312e-01) (92, 3.71724158525466918945e-01) (93, 1.08487613499164581299e-01) (94, 1.50000000000000000000e+03) (95, 1.50000000000000000000e+03) (96, 7.88211226463317871094e-02) (97, 1.50000000000000000000e+03) (98, 2.92971819639205932617e-01) (99, 3.28161329030990600586e-01) (100, -1.85668244957923889160e-02) (101, 1.50000000000000000000e+03) (102, 1.50000000000000000000e+03) (103, 2.00549453496932983398e-01) (104, 1.86907380819320678711e-01) (105, 1.50000000000000000000e+03) (106, 1.50881931185722351074e-01) (107, 2.54973024129867553711e-02) (108, 1.50000000000000000000e+03) (109, 1.50000000000000000000e+03) (110, 2.66852416098117828369e-02) (111, 1.50000000000000000000e+03) (112, 1.50000000000000000000e+03) (113, -1.80717906951904296875e+01) (114, 1.50000000000000000000e+03) (115, 2.21373111009597778320e-01) (116, 1.16041809320449829102e-01) (117, 3.23944181203842163086e-01) (118, 1.09290294349193572998e-01) (119, 1.02179139852523803711e-01) (120, 7.16625928878784179688e-01) (121, 2.91922301054000854492e-01) (122, 6.49280548095703125000e-02) (123, 1.50000000000000000000e+03) (124, 1.61927446722984313965e-01) (125, 2.41693910211324691772e-02) (0, -5.29164969921112060547e-02) (1, 2.19373315572738647461e-01) (2, -7.63837546110153198242e-02) (3, -8.34802836179733276367e-02) (4, -2.36540243029594421387e-01) (5, 1.48271179199218750000e+00) (6, -1.56123563647270202637e-01) (7, 1.96709603071212768555e-01) (8, -2.74671465158462524414e-01) (9, -6.44646659493446350098e-02) (10, 6.04163333773612976074e-02) (11, -3.02818536758422851562e-01) (12, 2.23332643508911132812e+00) (13, -9.61627289652824401855e-02) (14, -6.67947158217430114746e-02) (15, 1.81487098336219787598e-01) (16, -6.55304718017578125000e+00) (17, 1.42838761210441589355e-01) (18, -2.19116866588592529297e-01) (19, -4.62675750255584716797e-01) (20, -1.78645640611648559570e-01) (21, -2.73099392652511596680e-01) (22, -1.27719324082136154175e-02) (23, -1.21788583695888519287e-01) (24, 3.36388468742370605469e-01) (25, -1.93782016634941101074e-01) (26, -2.60492980480194091797e-01) (27, -2.37717688083648681641e-01) (28, 2.32548356056213378906e-01) (29, 3.89481127262115478516e-01) (30, -2.13195040822029113770e-01) (31, -1.01991444826126098633e-01) (32, 1.50000000000000000000e+03) (33, -1.78487330675125122070e-01) (34, 1.50000000000000000000e+03) (35, -1.89580857753753662109e-01) (36, -1.44728437066078186035e-01) (37, 1.50000000000000000000e+03) (38, -1.24521777033805847168e-02) (39, -9.14274454116821289062e-02) (40, -3.88402380049228668213e-02) (41, 5.58985397219657897949e-02) (42, -2.69971549510955810547e-01) (43, -3.46368730068206787109e-01) (44, -4.51826825737953186035e-02) (45, 5.41597545146942138672e-01) (46, 6.75655305385589599609e-02) (47, -2.40254942327737808228e-02) (48, 1.63078203797340393066e-01) (49, -2.80436128377914428711e-03) (50, 4.05907742679119110107e-02) (51, 2.08150539547204971313e-02) (52, -1.83743774890899658203e-01) (53, -8.73129349201917648315e-03) (54, -1.39700412750244140625e-01) (55, -1.32776603102684020996e-01) (56, 1.50000000000000000000e+03) (57, 1.97800770401954650879e-02) (58, 1.50000000000000000000e+03) (59, -8.30856561660766601562e-02) (60, 1.03510737419128417969e-01) (61, -1.42036393284797668457e-01) (62, -4.95108395814895629883e-01) (63, -1.72409325838088989258e-01) (64, -2.29046374559402465820e-01) (65, -3.95028442144393920898e-01) (66, -3.23245704174041748047e-01) (67, -1.20520889759063720703e-01) (68, -1.01609528064727783203e-01) (69, -1.57878234982490539551e-01) (70, -2.24716410040855407715e-01) (71, 1.03549756109714508057e-01) (72, -9.12947058677673339844e-02) (73, -4.34751771390438079834e-02) (74, -1.35145308449864387512e-02) (75, -2.10162431001663208008e-01) (76, -3.91642898321151733398e-01) (77, -1.89170107245445251465e-01) (78, -1.06516391038894653320e-01) (79, -2.71610558032989501953e-01) (80, 4.47111539542675018311e-02) (81, -1.75403982400894165039e-01) (82, -2.01713129878044128418e-01) (83, -1.46790653467178344727e-01) (84, -2.12610542774200439453e-01) (85, 6.65247380733489990234e-01) (86, -2.62744724750518798828e-01) (87, 1.50000000000000000000e+03) (88, 3.72492410242557525635e-02) (89, -3.56014668941497802734e-02) (90, -3.25379312038421630859e-01) (91, -4.33992594480514526367e-01) (92, -2.58392155170440673828e-01) (93, -2.10380390286445617676e-01) (94, -1.28620222210884094238e-01) (95, 1.50000000000000000000e+03) (96, -1.35575339198112487793e-01) (97, -5.65770380198955535889e-02) (98, -1.99748575687408447266e-01) (99, -2.52634704113006591797e-01) (100, 4.11998247727751731873e-03) (101, 1.50000000000000000000e+03) (102, 1.50000000000000000000e+03) (103, -1.17292098701000213623e-01) (104, -1.34096115827560424805e-01) (105, -5.21320700645446777344e-02) (106, -2.08470106124877929688e-01) (107, 3.56806486845016479492e-01) (108, -6.93384511396288871765e-03) (109, 5.44266849756240844727e-02) (110, -1.80395871400833129883e-01) (111, -1.57930746674537658691e-01) (112, 8.86968299746513366699e-02) (113, -1.98333382606506347656e-01) (114, -1.73907931894063949585e-02) (115, -4.12200130522251129150e-02) (116, -2.03509926795959472656e-01) (117, 2.38795578479766845703e-01) (118, -4.30273776873946189880e-03) (119, -3.54859024286270141602e-01) (120, 2.67276704311370849609e-01) (121, -3.57334017753601074219e-01) (122, -1.10286009311676025391e+00) (123, -1.75041213631629943848e-01) (124, 4.50404062867164611816e-02) (125, -2.96660304069519042969e-01) (0, 1.88264735043048858643e-02) (1, 2.46256276965141296387e-01) (2, -3.64084728062152862549e-02) (3, 4.05535846948623657227e-03) (4, -1.51641219854354858398e-01) (5, -5.70980787277221679688e-01) (6, 1.09297670423984527588e-02) (7, -5.65473794937133789062e-01) (8, 4.63893711566925048828e-02) (9, -1.18354052305221557617e-01) (10, 2.02263668179512023926e-01) (11, 4.92994636297225952148e-02) (12, 3.54121446609497070312e-01) (13, 4.43717502057552337646e-02) (14, -1.23725101351737976074e-01) (15, 1.09439633786678314209e-01) (16, -2.03643083572387695312e-01) (17, 1.52877429500222206116e-02) (18, 7.29655921459197998047e-02) (19, 1.86731979250907897949e-01) (20, -7.93049037456512451172e-02) (21, -2.27556154131889343262e-02) (22, -4.71479117870330810547e-01) (23, -1.95464283227920532227e-01) (24, -6.44968032836914062500e-01) (25, -1.37690871953964233398e-01) (26, -1.74159616231918334961e-01) (27, -9.39408168196678161621e-02) (28, -5.44868316501379013062e-03) (29, -3.43470871448516845703e-01) (30, -4.62468117475509643555e-02) (31, 1.51568323373794555664e-01) (32, 1.50000000000000000000e+03) (33, 1.28007121384143829346e-02) (34, 1.50000000000000000000e+03) (35, -6.89680315554141998291e-03) (36, 1.70556828379631042480e-01) (37, 1.50000000000000000000e+03) (38, 9.18076038360595703125e-02) (39, -5.43822050094604492188e-02) (40, -1.28153581172227859497e-02) (41, -1.17914550006389617920e-01) (42, -1.81697010993957519531e-01) (43, -1.12139366567134857178e-01) (44, 1.15577038377523422241e-02) (45, -2.35228955745697021484e-01) (46, -1.69038391113281250000e+00) (47, -1.53569936752319335938e-01) (48, -1.15579366683959960938e-01) (49, -1.05065636336803436279e-01) (50, 2.15731099247932434082e-01) (51, 6.92999288439750671387e-02) (52, 7.24921897053718566895e-02) (53, -7.39968568086624145508e-02) (54, -1.45744383335113525391e-01) (55, -1.02659292519092559814e-01) (56, 1.50000000000000000000e+03) (57, 3.09742391109466552734e-01) (58, 1.50000000000000000000e+03) (59, 3.65878045558929443359e-02) (60, -8.04726779460906982422e-02) (61, -1.09218128025531768799e-01) (62, -1.89350351691246032715e-01) (63, 7.60076493024826049805e-02) (64, 3.20991203188896179199e-02) (65, 7.18860179185867309570e-02) (66, -1.42723113298416137695e-01) (67, 1.76908269524574279785e-01) (68, -2.03473657369613647461e-01) (69, -6.19672164320945739746e-02) (70, -9.01251211762428283691e-02) (71, -2.39893719553947448730e-01) (72, -2.13712647557258605957e-01) (73, -3.38835678994655609131e-02) (74, -2.35570490360260009766e-01) (75, 8.07845368981361389160e-02) (76, 1.86145871877670288086e-01) (77, 1.09709270298480987549e-01) (78, -1.44398674368858337402e-01) (79, -6.98654279112815856934e-02) (80, -2.06969425082206726074e-01) (81, -3.55531603097915649414e-01) (82, -1.37004986405372619629e-01) (83, -4.86818253993988037109e-01) (84, 1.05145961046218872070e-01) (85, 7.23089426755905151367e-02) (86, 3.40954661369323730469e-02) (87, 1.50000000000000000000e+03) (88, -3.01109820604324340820e-01) (89, -7.44444280862808227539e-02) (90, -4.39093746244907379150e-02) (91, 1.68962791562080383301e-01) (92, -2.04753607511520385742e-01) (93, 3.08838617056608200073e-02) (94, 2.81468689441680908203e-01) (95, 1.50000000000000000000e+03) (96, 2.07251206040382385254e-01) (97, -3.22051078081130981445e-01) (98, -3.19185853004455566406e-02) (99, -1.17855571210384368896e-01) (100, 5.85120320320129394531e-02) (101, 1.50000000000000000000e+03) (102, 1.50000000000000000000e+03) (103, -1.22293561697006225586e-01) (104, -3.53279747068881988525e-02) (105, -1.75233155488967895508e-01) (106, -2.08561986684799194336e-01) (107, -5.36379277706146240234e-01) (108, -6.52147158980369567871e-02) (109, -2.31571507453918457031e+00) (110, 1.36014625430107116699e-01) (111, -7.25810751318931579590e-02) (112, -8.44996869564056396484e-01) (113, 4.02340590953826904297e-01) (114, 4.04844246804714202881e-02) (115, 5.00856563448905944824e-02) (116, -1.47682517766952514648e-01) (117, -2.01840057969093322754e-01) (118, 3.70146147906780242920e-02) (119, 1.24653145670890808105e-01) (120, -4.63292188942432403564e-02) (121, -1.26383483409881591797e-01) (122, -5.35230152308940887451e-02) (123, 3.21379005908966064453e-02) (124, -3.83681394159793853760e-02) (125, 1.42807960510253906250e-02) (0, -2.21922602504491806030e-02) (1, 6.17214965820312500000e+00) (2, -1.44158914685249328613e-01) (3, -1.37842729687690734863e-01) (4, -2.40393150597810745239e-02) (5, -1.14539158344268798828e+00) (6, -5.15539765357971191406e-01) (7, 1.32502258300781250000e+03) (8, 1.99966579675674438477e-01) (9, 4.77120667695999145508e-01) (10, -2.64926403760910034180e-02) (11, 8.96300911903381347656e-01) (12, -3.11798334121704101562e+00) (13, -3.10939520597457885742e-01) (14, -1.55818712711334228516e+00) (15, -2.38969159126281738281e+00) (16, -5.56932508945465087891e-01) (17, -6.05072826147079467773e-02) (18, -2.09945160895586013794e-02) (19, 4.16710712015628814697e-02) (20, -1.54028594493865966797e-01) (21, 2.00819820165634155273e-01) (22, -1.10240973532199859619e-01) (23, -1.24223209917545318604e-01) (24, 3.78610610961914062500e+01) (25, 3.54625284671783447266e-01) (26, 1.33116269111633300781e+00) (27, 8.35746049880981445312e-01) (28, -6.95527732372283935547e-01) (29, 1.50000000000000000000e+03) (30, 3.85490298271179199219e-01) (31, -4.29271869361400604248e-02) (32, 1.50000000000000000000e+03) (33, -2.54862636327743530273e-01) (34, 1.50000000000000000000e+03) (35, 2.11735427379608154297e-01) (36, -4.46094703674316406250e+00) (37, 1.50000000000000000000e+03) (38, 3.36296577006578445435e-03) (39, 3.42381387948989868164e-01) (40, -1.47882744669914245605e-01) (41, -9.69193056225776672363e-02) (42, 2.20117837190628051758e-01) (43, 9.76089164614677429199e-02) (44, -9.57241579890251159668e-02) (45, 6.16114311218261718750e+01) (46, -5.24604171514511108398e-02) (47, -2.40489438176155090332e-01) (48, -9.73362028598785400391e-02) (49, 1.79081223905086517334e-02) (50, -1.53590410947799682617e-01) (51, 4.55778799951076507568e-02) (52, 2.06682592630386352539e-01) (53, -2.48166978359222412109e-01) (54, -8.35160445421934127808e-03) (55, -1.87958225607872009277e-01) (56, 1.50000000000000000000e+03) (57, -2.64796423912048339844e+00) (58, 1.50000000000000000000e+03) (59, -1.33240962028503417969e+00) (60, 2.36449465155601501465e-01) (61, -1.29871690273284912109e+00) (62, 2.50208288431167602539e-01) (63, -1.18128105998039245605e-01) (64, 2.99606695771217346191e-02) (65, 3.00189778208732604980e-02) (66, 3.19184899330139160156e-01) (67, -1.46138593554496765137e-01) (68, 3.51867169141769409180e-01) (69, 3.43128502368927001953e-01) (70, 9.72125709056854248047e-01) (71, 8.71695876121520996094e-02) (72, -1.55188292264938354492e-01) (73, 3.97813729941844940186e-02) (74, -1.10790506005287170410e-01) (75, -1.06846258044242858887e-01) (76, 4.80291986465454101562e+00) (77, 5.95757551491260528564e-02) (78, 4.63653117418289184570e-01) (79, 8.55418026447296142578e-01) (80, 5.47427162528038024902e-02) (81, -1.64217725396156311035e-01) (82, 1.38257473707199096680e-01) (83, 1.47976242005825042725e-02) (84, 1.68833602219820022583e-02) (85, 3.36174845695495605469e+00) (86, -1.49137675762176513672e-01) (87, 1.50000000000000000000e+03) (88, -1.16929434239864349365e-01) (89, -3.28220278024673461914e-02) (90, -2.16459631919860839844e-01) (91, 4.82853364944458007812e+00) (92, 8.96638631820678710938e-01) (93, 3.34679812192916870117e-01) (94, -1.47397005558013916016e+00) (95, 1.50000000000000000000e+03) (96, 2.14552432298660278320e-01) (97, -3.34174513816833496094e+00) (98, 1.81668519973754882812e-01) (99, 9.48545992374420166016e-01) (100, -4.75758239626884460449e-02) (101, 1.50000000000000000000e+03) (102, 1.50000000000000000000e+03) (103, -3.22523444890975952148e-01) (104, -3.15945059061050415039e-01) (105, -7.82702714204788208008e-02) (106, 9.56068634986877441406e-01) (107, 1.50000000000000000000e+03) (108, -1.48656249046325683594e-01) (109, -1.70645445585250854492e-01) (110, 1.51789873838424682617e-01) (111, -1.28616988658905029297e-01) (112, -3.95547784864902496338e-02) (113, -6.81155443191528320312e-01) (114, -5.01889958977699279785e-02) (115, -6.63897171616554260254e-02) (116, 2.61486202478408813477e-01) (117, -1.25178074836730957031e+00) (118, 1.54872819781303405762e-01) (119, 6.41703188419342041016e-01) (120, -2.75331996381282806396e-02) (121, 1.13339744508266448975e-01) (122, 2.34322339296340942383e-01) (123, -1.43335402011871337891e-01) (124, -4.60921615362167358398e-01) (125, -3.12023431062698364258e-01) (0, -2.90473282337188720703e-01) (1, -1.29619553685188293457e-01) (2, -1.67246431112289428711e-01) (3, -1.41688853502273559570e-01) (4, -3.05692076683044433594e-01) (5, 4.57079696655273437500e+00) (6, 4.65817272663116455078e-01) (7, -1.81433784961700439453e+00) (8, -7.02569335699081420898e-02) (9, -2.52827733755111694336e-01) (10, -1.58880934119224548340e-01) (11, -7.51132369041442871094e-01) (12, 9.22307968139648437500e-01) (13, -1.53604313731193542480e-01) (14, 9.34986686706542968750e+00) (15, -9.01010513305664062500e-01) (16, 6.36874389648437500000e+02) (17, -1.85592338442802429199e-01) (18, -5.64255677163600921631e-02) (19, -2.38691300153732299805e-01) (20, 2.93007791042327880859e-01) (21, -1.84165053069591522217e-02) (22, 5.77227544784545898438e+00) (23, 7.50495719909667968750e+00) (24, -4.08217000961303710938e+00) (25, -9.78635907173156738281e-01) (26, -1.32321298122406005859e+00) (27, -8.46525907516479492188e-01) (28, 2.77401638031005859375e+00) (29, -1.31730282306671142578e+00) (30, -9.79382514953613281250e-01) (31, 5.48343718051910400391e-01) (32, 1.50000000000000000000e+03) (33, -8.02205577492713928223e-02) (34, 1.50000000000000000000e+03) (35, -1.59127578139305114746e-01) (36, 2.01001930236816406250e+00) (37, 1.50000000000000000000e+03) (38, 3.90265285968780517578e-01) (39, -1.19221019744873046875e+00) (40, 1.04369066655635833740e-01) (41, 6.77684415131807327271e-03) (42, -5.88392555713653564453e-01) (43, -5.03125965595245361328e-01) (44, -3.49664278328418731689e-02) (45, -1.08409845829010009766e+00) (46, 1.36767315864562988281e+00) (47, -3.99870835244655609131e-02) (48, -1.61849148571491241455e-02) (49, 1.10283172130584716797e+00) (50, -1.76453273743391036987e-02) (51, 8.55247676372528076172e-01) (52, -3.60511898994445800781e-01) (53, -2.83541053533554077148e-01) (54, -2.15378701686859130859e-01) (55, 5.16942143440246582031e-01) (56, 1.50000000000000000000e+03) (57, 7.44072571396827697754e-02) (58, 1.50000000000000000000e+03) (59, 2.10711044311523437500e+02) (60, 2.01990902423858642578e-01) (61, 2.95671963691711425781e+00) (62, -9.24739539623260498047e-01) (63, 4.09237593412399291992e-01) (64, 1.62463814020156860352e-01) (65, -3.23439741134643554688e+00) (66, -1.47125542163848876953e-01) (67, 4.31461483240127563477e-01) (68, 1.16427820175886154175e-02) (69, -1.65049865841865539551e-01) (70, -7.37624287605285644531e-01) (71, 5.66601419448852539062e+00) (72, 1.36463022232055664062e+00) (73, 9.56476852297782897949e-02) (74, 1.11277878284454345703e+00) (75, 5.92377148568630218506e-02) (76, -1.65564668178558349609e+00) (77, 8.82262706756591796875e-01) (78, -4.23906475305557250977e-01) (79, -9.17774200439453125000e-01) (80, 1.49777185916900634766e+00) (81, 1.27035880088806152344e+00) (82, -2.19822302460670471191e-02) (83, 1.10040891170501708984e+00) (84, 6.37059882283210754395e-02) (85, -4.57941889762878417969e-01) (86, -8.02401900291442871094e-02) (87, 1.50000000000000000000e+03) (88, 1.39865303039550781250e+00) (89, 2.94236278533935546875e+00) (90, -1.85656532645225524902e-01) (91, -1.71115005016326904297e+00) (92, -8.98864746093750000000e-01) (93, -3.46331670880317687988e-02) (94, 1.57118952274322509766e+00) (95, 1.50000000000000000000e+03) (96, -1.13164819777011871338e-01) (97, 4.20632934570312500000e+02) (98, -4.63422924280166625977e-01) (99, -9.28547501564025878906e-01) (100, 3.94721537828445434570e-01) (101, 1.50000000000000000000e+03) (102, 1.50000000000000000000e+03) (103, 4.37786340713500976562e-01) (104, 4.72124934196472167969e-01) (105, 1.41036319732666015625e+00) (106, -1.20963597297668457031e+00) (107, -5.82200431823730468750e+00) (108, 1.38506042957305908203e+00) (109, 2.38417792320251464844e+00) (110, -4.05617773532867431641e-01) (111, 2.66462016105651855469e+00) (112, 1.82504153251647949219e+00) (113, -3.77860140800476074219e+00) (114, 5.08602046966552734375e+00) (115, -1.41845598816871643066e-01) (116, -2.63909369707107543945e-01) (117, 5.75377106666564941406e-01) (118, -1.97230547666549682617e-01) (119, -2.38546013832092285156e-01) (120, 2.37374842166900634766e-01) (121, -4.58634763956069946289e-01) (122, 7.24698826670646667480e-02) (123, 8.91669940948486328125e+00) (124, -2.55207657814025878906e-01) (125, -9.44404900074005126953e-02) (0, -8.91208052635192871094e-02) (1, 1.55907109379768371582e-01) (2, -1.82796448469161987305e-01) (3, -9.13872197270393371582e-02) (4, -2.49720573425292968750e-01) (5, 1.28517735004425048828e+00) (6, -3.66653263568878173828e-01) (7, 8.77508744597434997559e-02) (8, -3.22974503040313720703e-01) (9, -2.48158290982246398926e-01) (10, 2.59061641991138458252e-02) (11, -2.39154919981956481934e-01) (12, 1.09578526020050048828e+00) (13, -1.68746560811996459961e-01) (14, 3.18770080804824829102e-01) (15, 7.99218565225601196289e-02) (16, 1.70328438282012939453e-01) (17, -1.67084142565727233887e-01) (18, -2.75460749864578247070e-01) (19, -5.34867346286773681641e-01) (20, -9.99456718564033508301e-02) (21, -2.05451428890228271484e-01) (22, 6.52178302407264709473e-02) (23, -1.48750022053718566895e-02) (24, 4.78351861238479614258e-01) (25, -3.24304193258285522461e-01) (26, -2.75483429431915283203e-01) (27, -1.72990277409553527832e-01) (28, 1.88502416014671325684e-01) (29, 3.47208917140960693359e-01) (30, -1.85765102505683898926e-01) (31, -1.49244442582130432129e-01) (32, 1.50000000000000000000e+03) (33, -1.96890592575073242188e-01) (34, 1.50000000000000000000e+03) (35, -2.21638336777687072754e-01) (36, -2.27818608283996582031e-01) (37, 1.50000000000000000000e+03) (38, -1.41546964645385742188e-01) (39, -2.54703104496002197266e-01) (40, 2.59099155664443969727e-02) (41, 3.37647125124931335449e-02) (42, -3.27040791511535644531e-01) (43, -2.79033221304416656494e-02) (44, -2.60037690401077270508e-01) (45, 5.04343688488006591797e-01) (46, 1.14717818796634674072e-01) (47, -7.96692166477441787720e-03) (48, 1.54129907488822937012e-01) (49, 1.91767677664756774902e-01) (50, 7.17518404126167297363e-02) (51, -7.60998874902725219727e-02) (52, -3.47948253154754638672e-01) (53, -7.39464908838272094727e-02) (54, -4.18317392468452453613e-02) (55, -1.63861691951751708984e-01) (56, 1.50000000000000000000e+03) (57, -1.02072551846504211426e-01) (58, 1.50000000000000000000e+03) (59, 2.05735899507999420166e-02) (60, -8.97069945931434631348e-02) (61, 1.03021013736724853516e+00) (62, -5.30700206756591796875e-01) (63, -5.03940172493457794189e-02) (64, 1.27705320715904235840e-01) (65, 9.14441496133804321289e-02) (66, -2.21034213900566101074e-01) (67, -2.50092744827270507812e-01) (68, -1.42467468976974487305e-02) (69, -4.97583597898483276367e-02) (70, -1.50946795940399169922e-01) (71, 8.66958275437355041504e-02) (72, -1.59028321504592895508e-01) (73, -3.53123337030410766602e-01) (74, -4.20543625950813293457e-02) (75, -2.80958026647567749023e-01) (76, -3.37563663721084594727e-01) (77, -1.37870147824287414551e-01) (78, 1.67142786085605621338e-02) (79, -1.41798943281173706055e-01) (80, 2.36824974417686462402e-02) (81, -2.78993863612413406372e-02) (82, -2.03650161623954772949e-01) (83, 1.77913665771484375000e-01) (84, -1.63334041833877563477e-01) (85, 1.82375326752662658691e-01) (86, -1.39170497655868530273e-01) (87, 1.50000000000000000000e+03) (88, -1.35536044836044311523e-01) (89, -1.95182114839553833008e-01) (90, -9.95275154709815979004e-02) (91, -3.43499094247817993164e-01) (92, -1.43560439348220825195e-01) (93, -3.29628467559814453125e-01) (94, -3.14122974872589111328e-01) (95, 1.50000000000000000000e+03) (96, -1.08487986028194427490e-01) (97, -4.67473678290843963623e-02) (98, -2.63490844517946243286e-02) (99, -2.15112403035163879395e-01) (100, 1.98662877082824707031e-02) (101, 1.50000000000000000000e+03) (102, 1.50000000000000000000e+03) (103, 1.60943402443081140518e-03) (104, -2.01164148747920989990e-02) (105, -1.36239498853683471680e-01) (106, -3.06239187717437744141e-01) (107, 3.94276320934295654297e-01) (108, -1.48916602134704589844e-01) (109, 8.77284482121467590332e-02) (110, -2.73635089397430419922e-01) (111, -1.14373706281185150146e-01) (112, 2.74357721209526062012e-02) (113, 2.46777143329381942749e-02) (114, 4.33369725942611694336e-03) (115, 1.26962602138519287109e-01) (116, -2.44974747300148010254e-01) (117, -9.53597016632556915283e-03) (118, 2.04297862946987152100e-02) (119, -2.35262513160705566406e-01) (120, 1.23780108988285064697e-01) (121, -1.13192670047283172607e-01) (122, -1.34905800223350524902e-01) (123, -3.39772514998912811279e-02) (124, -9.64266508817672729492e-02) (125, -2.68918722867965698242e-01) (0, 1.83511286973953247070e-01) (1, 1.66213348507881164551e-01) (2, 7.73920863866806030273e-02) (3, 6.48465231060981750488e-02) (4, 3.17168943583965301514e-02) (5, 1.50000000000000000000e+03) (6, -1.18199281394481658936e-01) (7, -4.53211396932601928711e-01) (8, -1.97218712419271469116e-02) (9, -5.94384782016277313232e-02) (10, 6.06461018323898315430e-02) (11, 2.30227917432785034180e-01) (12, 6.70949101448059082031e-01) (13, 6.59450441598892211914e-02) (14, 1.50000000000000000000e+03) (15, 6.21962666511535644531e-01) (16, 1.50000000000000000000e+03) (17, 8.66665095090866088867e-02) (18, -2.68364638090133666992e-01) (19, 2.96032577753067016602e-01) (20, 9.36859995126724243164e-02) (21, -2.91536543518304824829e-02) (22, 1.50000000000000000000e+03) (23, 1.50000000000000000000e+03) (24, -1.06346532702445983887e-01) (25, -7.32079297304153442383e-02) (26, 4.92904670536518096924e-02) (27, 6.81310832500457763672e-01) (28, 1.46700787544250488281e+00) (29, -1.26569077372550964355e-01) (30, 1.14927580580115318298e-02) (31, 9.14555966854095458984e-01) (32, 1.50000000000000000000e+03) (33, 1.75001733005046844482e-02) (34, 1.50000000000000000000e+03) (35, 4.53539192676544189453e-02) (36, -3.44564169645309448242e-01) (37, 1.50000000000000000000e+03) (38, 5.86613714694976806641e-02) (39, -5.18266446888446807861e-02) (40, -1.72631651163101196289e-01) (41, 1.50773569941520690918e-01) (42, 3.87117192149162292480e-02) (43, 5.87484538555145263672e-02) (44, -4.37919683754444122314e-02) (45, 9.92366299033164978027e-03) (46, 1.50000000000000000000e+03) (47, 7.40130618214607238770e-02) (48, 4.95513409376144409180e-01) (49, 1.50000000000000000000e+03) (50, 2.83121436834335327148e-01) (51, 5.76303541660308837891e-01) (52, -4.38152328133583068848e-02) (53, 5.94036914408206939697e-02) (54, -2.56793797016143798828e-02) (55, 3.03307223320007324219e+00) (56, 1.50000000000000000000e+03) (57, -5.71445301175117492676e-02) (58, 1.50000000000000000000e+03) (59, 1.50000000000000000000e+03) (60, -1.01863689720630645752e-01) (61, 3.71674180030822753906e+00) (62, 1.40337556600570678711e-01) (63, -7.05404803156852722168e-02) (64, 4.76136982440948486328e-01) (65, -3.59891366958618164062e+00) (66, 3.02457779645919799805e-01) (67, 5.76757453382015228271e-03) (68, 2.44000956416130065918e-01) (69, 2.41371005773544311523e-01) (70, 7.52647876739501953125e-01) (71, 1.50000000000000000000e+03) (72, 1.50000000000000000000e+03) (73, -6.93541532382369041443e-03) (74, 1.50000000000000000000e+03) (75, -4.38927114009857177734e-02) (76, -1.36064693331718444824e-01) (77, 1.69991031289100646973e-01) (78, 1.67420357465744018555e-01) (79, 6.54524505138397216797e-01) (80, 1.50000000000000000000e+03) (81, 1.50000000000000000000e+03) (82, 1.09453678131103515625e-01) (83, 1.50000000000000000000e+03) (84, 1.81508865207433700562e-02) (85, 2.53316253423690795898e-01) (86, 7.61085674166679382324e-02) (87, 1.50000000000000000000e+03) (88, 1.50000000000000000000e+03) (89, 1.50000000000000000000e+03) (90, 7.43900761008262634277e-02) (91, -1.25548884272575378418e-01) (92, 6.24354243278503417969e-01) (93, 1.07483878731727600098e-01) (94, 1.33584179687500000000e+03) (95, 1.50000000000000000000e+03) (96, 5.88025860488414764404e-02) (97, 1.50000000000000000000e+03) (98, 2.15780004858970642090e-01) (99, 6.15026414394378662109e-01) (100, 2.14588008821010589600e-02) (101, 1.50000000000000000000e+03) (102, 1.50000000000000000000e+03) (103, 7.31988072395324707031e-01) (104, 7.16018080711364746094e-01) (105, 1.50000000000000000000e+03) (106, -3.16573940217494964600e-02) (107, 1.81362703442573547363e-02) (108, 1.50000000000000000000e+03) (109, 1.50000000000000000000e+03) (110, -3.55944968760013580322e-02) (111, 1.50000000000000000000e+03) (112, 1.50000000000000000000e+03) (113, -2.48015522956848144531e+00) (114, 1.50000000000000000000e+03) (115, 5.23306913673877716064e-02) (116, -2.10698619484901428223e-02) (117, 2.46209744364023208618e-02) (118, 3.81614342331886291504e-02) (119, 5.54444193840026855469e-02) (120, 7.18380749225616455078e-01) (121, 4.19218512251973152161e-03) (122, 7.24845305085182189941e-02) (123, 1.50000000000000000000e+03) (124, -6.81466236710548400879e-02) (125, 6.40614256262779235840e-02) (0, 5.78792728483676910400e-02) (1, 2.11953282356262207031e+00) (2, -2.32450112700462341309e-01) (3, -2.55445897579193115234e-01) (4, -1.62128657102584838867e-01) (5, 5.33249020576477050781e-01) (6, -4.32760804891586303711e-01) (7, 1.11260175704956054688e+00) (8, -3.26974421739578247070e-01) (9, -2.07817673683166503906e-01) (10, -3.17290633916854858398e-01) (11, 1.24222218990325927734e+00) (12, -1.08083176612854003906e+00) (13, -1.37726753950119018555e-01) (14, -1.40068101882934570312e+00) (15, 1.24325442314147949219e+00) (16, -1.34864497184753417969e+00) (17, -3.88459801673889160156e-01) (18, 1.90888792276382446289e-01) (19, 7.56203055381774902344e-01) (20, 1.06807954609394073486e-01) (21, 5.58377504348754882812e-01) (22, -5.81043899059295654297e-01) (23, -6.66154026985168457031e-01) (24, 2.19818782806396484375e+00) (25, 1.05864620208740234375e+00) (26, 1.18891859054565429688e+00) (27, 9.36967790126800537109e-01) (28, -2.23360395431518554688e+00) (29, 1.85770857334136962891e+00) (30, 1.05300414562225341797e+00) (31, -5.89580774307250976562e-01) (32, 1.50000000000000000000e+03) (33, -2.07397803664207458496e-01) (34, 1.50000000000000000000e+03) (35, -2.46611133217811584473e-01) (36, -9.87172365188598632812e-01) (37, 1.50000000000000000000e+03) (38, -3.34786653518676757812e-01) (39, 1.16967201232910156250e+00) (40, -2.08602368831634521484e-01) (41, -1.74257367849349975586e-01) (42, 9.56354022026062011719e-01) (43, 7.12469756603240966797e-01) (44, -9.05158594250679016113e-02) (45, 1.62522554397583007812e+00) (46, -1.41945049166679382324e-01) (47, 6.06348831206560134888e-03) (48, -2.23470821976661682129e-01) (49, -5.74227832257747650146e-02) (50, 6.06856867671012878418e-02) (51, -5.81757843494415283203e-01) (52, -3.39748084545135498047e-01) (53, -3.07485342025756835938e-01) (54, -1.42341598868370056152e-01) (55, 1.03317070752382278442e-02) (56, 1.50000000000000000000e+03) (57, -3.47131639719009399414e-01) (58, 1.50000000000000000000e+03) (59, -4.46965980529785156250e+00) (60, -6.49327188730239868164e-02) (61, -5.60909025371074676514e-02) (62, 8.61222267150878906250e-01) (63, -3.19017857313156127930e-01) (64, -4.85713034868240356445e-01) (65, 9.69619214534759521484e-01) (66, 2.75259912014007568359e-01) (67, -2.65759348869323730469e-01) (68, 1.16470324993133544922e+00) (69, 1.02699053287506103516e+00) (70, 8.74541580677032470703e-01) (71, -3.82797047495841979980e-02) (72, -1.12124361097812652588e-01) (73, 4.42744761705398559570e-01) (74, -9.09084156155586242676e-02) (75, -3.51653993129730224609e-01) (76, 7.01934814453125000000e-01) (77, 2.63416290283203125000e-01) (78, 7.56897330284118652344e-01) (79, 8.27091991901397705078e-01) (80, -1.20916478335857391357e-01) (81, -1.33681431412696838379e-01) (82, 3.57460498809814453125e-01) (83, -3.59261222183704376221e-02) (84, -2.58835971355438232422e-01) (85, 5.55338382720947265625e-01) (86, -1.98997229337692260742e-01) (87, 1.50000000000000000000e+03) (88, -2.04843029379844665527e-01) (89, 1.15861758589744567871e-01) (90, -2.17342093586921691895e-01) (91, 6.69451713562011718750e-01) (92, 8.63385140895843505859e-01) (93, -2.57504969835281372070e-01) (94, -2.50937914848327636719e+00) (95, 1.50000000000000000000e+03) (96, 3.44000905752182006836e-01) (97, -2.23952507972717285156e+00) (98, 1.05472648143768310547e+00) (99, 9.16054964065551757812e-01) (100, -3.98413166403770446777e-02) (101, 1.50000000000000000000e+03) (102, 1.50000000000000000000e+03) (103, -1.90169483423233032227e-01) (104, -1.28524616360664367676e-01) (105, -7.58997425436973571777e-02) (106, 1.05958938598632812500e+00) (107, 1.60811877250671386719e+00) (108, -1.37256413698196411133e-01) (109, -5.71052730083465576172e-01) (110, 6.80907487869262695312e-01) (111, -1.57003834843635559082e-01) (112, 9.25528258085250854492e-02) (113, 1.07480525970458984375e+00) (114, 1.91078975796699523926e-01) (115, 6.74081921577453613281e-01) (116, 8.35116028785705566406e-01) (117, -4.18509393930435180664e-01) (118, -5.20734302699565887451e-02) (119, -1.69152662158012390137e-01) (120, 3.70502173900604248047e-01) (121, 2.56308406591415405273e-01) (122, 9.00262415409088134766e-01) (123, -1.62919163703918457031e-01) (124, 1.80963635444641113281e-01) (125, -2.01667755842208862305e-01) (0, -2.25119024515151977539e-01) (1, 1.48907690048217773438e+01) (2, -1.77222549915313720703e-01) (3, -2.01466470956802368164e-01) (4, -1.13476887345314025879e-01) (5, -4.44098174571990966797e-01) (6, -1.39356851577758789062e-02) (7, 6.55938816070556640625e+00) (8, 4.90420550107955932617e-01) (9, 2.39193856716156005859e-01) (10, -1.23449221253395080566e-01) (11, -4.00553047657012939453e-01) (12, -6.07272744178771972656e-01) (13, -1.32041096687316894531e-01) (14, 9.54794883728027343750e-01) (15, -5.42509198188781738281e-01) (16, 4.36650723218917846680e-01) (17, 5.66799230873584747314e-02) (18, 7.38997310400009155273e-02) (19, 1.49443507194519042969e-01) (20, -1.38246238231658935547e-01) (21, 1.14761523902416229248e-01) (22, -2.83250302076339721680e-01) (23, -1.64194568991661071777e-01) (24, 2.79248943328857421875e+01) (25, 1.11337053775787353516e+00) (26, 2.46253252029418945312e+00) (27, 8.17524313926696777344e-01) (28, -1.23854327201843261719e+00) (29, 3.49269104003906250000e+00) (30, 9.82773780822753906250e-01) (31, -6.93441510200500488281e-01) (32, 1.50000000000000000000e+03) (33, -1.11691348254680633545e-01) (34, 1.50000000000000000000e+03) (35, 5.86823642253875732422e-01) (36, -8.69048714637756347656e-01) (37, 1.50000000000000000000e+03) (38, -2.74158000946044921875e-01) (39, 1.76381742954254150391e+00) (40, -1.29082724452018737793e-01) (41, -7.85321220755577087402e-02) (42, 7.94487237930297851562e-01) (43, -1.41739517450332641602e-01) (44, -2.78031110763549804688e-01) (45, 3.66519880294799804688e+00) (46, -7.18793869018554687500e-01) (47, -1.34976744651794433594e-01) (48, -1.40549689531326293945e-01) (49, -4.25408035516738891602e-01) (50, -9.96849685907363891602e-02) (51, -2.92285919189453125000e-01) (52, 6.92521989345550537109e-01) (53, -5.68578988313674926758e-02) (54, -5.38876056671142578125e-02) (55, -2.03024804592132568359e-01) (56, 1.50000000000000000000e+03) (57, -6.00863516330718994141e-01) (58, 1.50000000000000000000e+03) (59, -2.96444743871688842773e-01) (60, -6.58295214176177978516e-01) (61, 1.36015033721923828125e+00) (62, 1.17801392078399658203e+00) (63, -7.43561387062072753906e-02) (64, 3.74054834246635437012e-02) (65, 1.52409762144088745117e-01) (66, -4.12903577089309692383e-01) (67, -1.83068126440048217773e-01) (68, 2.42684304714202880859e-01) (69, 4.57942575216293334961e-01) (70, 8.01518201828002929688e-01) (71, -8.20516049861907958984e-02) (72, -1.86330914497375488281e+00) (73, 2.13662162423133850098e-01) (74, -2.61107027530670166016e-01) (75, 4.79228235781192779541e-02) (76, 1.28253757953643798828e+00) (77, -1.61689615249633789062e+00) (78, 4.28569376468658447266e-01) (79, 7.21534252166748046875e-01) (80, -1.67093798518180847168e-01) (81, -1.88063907623291015625e+00) (82, 2.21010327339172363281e-01) (83, -4.00462597608566284180e-01) (84, -4.88547198474407196045e-02) (85, 1.08268153667449951172e+00) (86, -1.16331465542316436768e-01) (87, 1.50000000000000000000e+03) (88, -1.14159560203552246094e+00) (89, -8.50062727928161621094e-01) (90, -1.85558944940567016602e-01) (91, 1.28896284103393554688e+00) (92, 7.51531720161437988281e-01) (93, 7.04514458775520324707e-02) (94, -3.29956150054931640625e+00) (95, 1.50000000000000000000e+03) (96, 3.44489574432373046875e-01) (97, -9.82737898826599121094e-01) (98, 4.87020701169967651367e-01) (99, 8.05652379989624023438e-01) (100, -1.16601757705211639404e-01) (101, 1.50000000000000000000e+03) (102, 1.50000000000000000000e+03) (103, -1.79468452930450439453e-01) (104, -2.44263455271720886230e-01) (105, -7.10012078285217285156e-01) (106, 2.58348035812377929688e+00) (107, 1.02504321289062500000e+03) (108, -2.22098159790039062500e+00) (109, -6.74769878387451171875e-01) (110, 5.50972640514373779297e-01) (111, -7.96804249286651611328e-01) (112, -2.78415769338607788086e-01) (113, 2.50665354728698730469e+00) (114, -1.61500185728073120117e-01) (115, -9.56969708204269409180e-02) (116, -8.21894168853759765625e-01) (117, -1.01261921226978302002e-02) (118, -1.80455762892961502075e-02) (119, -3.63089665770530700684e-02) (120, 5.95539286732673645020e-02) (121, 7.10139095783233642578e-01) (122, -1.40827894210815429688e+00) (123, -4.40535604953765869141e-01) (124, -3.81454564630985260010e-02) (125, -1.45869910717010498047e-01) (0, -3.23019444942474365234e-01) (1, -1.17883384227752685547e-01) (2, -3.40998858213424682617e-01) (3, -6.00098013877868652344e-01) (4, -3.75466465950012207031e-01) (5, 1.50000000000000000000e+03) (6, 3.26689600944519042969e-01) (7, -7.90818572044372558594e-01) (8, -5.27494370937347412109e-01) (9, -6.40406548976898193359e-01) (10, 1.27071412280201911926e-02) (11, -4.15781855583190917969e-01) (12, 7.54058599472045898438e+00) (13, 2.53361582756042480469e-01) (14, 1.50000000000000000000e+03) (15, -3.85384917259216308594e-01) (16, 1.50000000000000000000e+03) (17, 1.05561220645904541016e+00) (18, -1.11568140983581542969e+00) (19, -3.01741212606430053711e-01) (20, 2.20016717910766601562e-01) (21, -3.35295855998992919922e-01) (22, 1.50000000000000000000e+03) (23, 1.50000000000000000000e+03) (24, -2.00929212570190429688e+00) (25, -2.42944896221160888672e-01) (26, -4.29601490497589111328e-01) (27, -4.06808406114578247070e-01) (28, 4.47798919677734375000e+00) (29, -1.49640190601348876953e+00) (30, -2.43186995387077331543e-01) (31, 6.26708388328552246094e-01) (32, 1.50000000000000000000e+03) (33, -5.95114469528198242188e-01) (34, 1.50000000000000000000e+03) (35, -6.42499685287475585938e-01) (36, 1.20185220241546630859e+00) (37, 1.50000000000000000000e+03) (38, 3.96235942840576171875e-01) (39, -5.69387555122375488281e-01) (40, 2.88993626832962036133e-01) (41, 2.68444448709487915039e-01) (42, -2.72895961999893188477e-01) (43, -5.98589301109313964844e-01) (44, 3.92960458993911743164e-02) (45, -6.29654407501220703125e-01) (46, 1.50000000000000000000e+03) (47, 9.46431457996368408203e-02) (48, 8.20014029741287231445e-02) (49, 1.50000000000000000000e+03) (50, 9.79639366269111633301e-02) (51, 2.88443982601165771484e-01) (52, -4.22740250825881958008e-01) (53, 4.16208833456039428711e-01) (54, -5.90009450912475585938e-01) (55, 2.04403625488281250000e+02) (56, 1.50000000000000000000e+03) (57, 5.75803935527801513672e-01) (58, 1.50000000000000000000e+03) (59, 1.50000000000000000000e+03) (60, 7.86771997809410095215e-02) (61, 8.88937187194824218750e+00) (62, -3.18118870258331298828e-01) (63, 2.44214653968811035156e-01) (64, 7.38539218902587890625e-01) (65, -4.48766231536865234375e+00) (66, -2.78702646493911743164e-01) (67, 3.14591258764266967773e-01) (68, -1.19200693443417549133e-02) (69, -1.77546977996826171875e-01) (70, -3.08056265115737915039e-01) (71, 1.50000000000000000000e+03) (72, 1.50000000000000000000e+03) (73, 1.73014566302299499512e-01) (74, 1.50000000000000000000e+03) (75, 2.32385739684104919434e-01) (76, -7.52319395542144775391e-01) (77, 8.40290606021881103516e-01) (78, -1.00634187459945678711e-01) (79, -2.98045724630355834961e-01) (80, 1.50000000000000000000e+03) (81, 1.50000000000000000000e+03) (82, 1.54674246907234191895e-01) (83, 1.50000000000000000000e+03) (84, 2.99042135477066040039e-01) (85, 3.20428222417831420898e-01) (86, -5.57315051555633544922e-01) (87, 1.50000000000000000000e+03) (88, 1.50000000000000000000e+03) (89, 1.50000000000000000000e+03) (90, -5.84129810333251953125e-01) (91, -6.19193732738494873047e-01) (92, -2.72231131792068481445e-01) (93, -6.01377964019775390625e-01) (94, 6.76764309406280517578e-01) (95, 1.50000000000000000000e+03) (96, -3.82083594799041748047e-01) (97, 1.50000000000000000000e+03) (98, -1.11195996403694152832e-01) (99, -3.81684631109237670898e-01) (100, 3.46657186746597290039e-01) (101, 1.50000000000000000000e+03) (102, 1.50000000000000000000e+03) (103, 5.66949665546417236328e-01) (104, 5.22608101367950439453e-01) (105, 1.50000000000000000000e+03) (106, -4.84498202800750732422e-01) (107, -2.07434535026550292969e+00) (108, 1.50000000000000000000e+03) (109, 1.50000000000000000000e+03) (110, -3.95423918962478637695e-01) (111, 1.50000000000000000000e+03) (112, 1.50000000000000000000e+03) (113, -2.11083679199218750000e+02) (114, 1.50000000000000000000e+03) (115, 3.30920070409774780273e-01) (116, -3.46803933382034301758e-01) (117, 1.35751295089721679688e+00) (118, 1.50216072797775268555e-01) (119, 3.16573590040206909180e-01) (120, -4.02210019528865814209e-02) (121, -2.30074688792228698730e-01) (122, -1.74942329525947570801e-01) (123, 1.50000000000000000000e+03) (124, 3.44704478979110717773e-01) (125, -5.25354325771331787109e-01) (0, 1.39227092266082763672e-01) (1, 1.10946267843246459961e-01) (2, 2.99722440540790557861e-02) (3, 1.60225369036197662354e-02) (4, -1.33275046944618225098e-01) (5, -1.50000000000000000000e+03) (6, 2.93308608233928680420e-02) (7, -4.37347978353500366211e-01) (8, -4.47618067264556884766e-02) (9, 2.74292118847370147705e-02) (10, 5.01706749200820922852e-02) (11, -4.94214110076427459717e-02) (12, 1.09153695404529571533e-01) (13, 9.29524451494216918945e-02) (14, -1.50000000000000000000e+03) (15, 9.60357934236526489258e-02) (16, -1.50000000000000000000e+03) (17, -1.65463387966156005859e-01) (18, 9.63990297168493270874e-03) (19, -1.97931706905364990234e-01) (20, 7.06666037440299987793e-02) (21, 4.72049340605735778809e-02) (22, -1.50000000000000000000e+03) (23, -1.50000000000000000000e+03) (24, -4.93147730827331542969e-01) (25, -1.83181479573249816895e-01) (26, -1.56334832310676574707e-01) (27, -1.77452579140663146973e-01) (28, -1.50000000000000000000e+03) (29, -2.79100760817527770996e-02) (30, -2.79162172228097915649e-02) (31, 6.15662276744842529297e-01) (32, 1.50000000000000000000e+03) (33, 3.18895615637302398682e-02) (34, 1.50000000000000000000e+03) (35, -7.20219910144805908203e-02) (36, 1.29345163702964782715e-01) (37, 1.50000000000000000000e+03) (38, 4.51231747865676879883e-02) (39, -2.25397124886512756348e-01) (40, 3.01276221871376037598e-02) (41, 7.22007229924201965332e-02) (42, -1.06298185884952545166e-01) (43, -1.43790200352668762207e-01) (44, -8.53888466954231262207e-02) (45, -2.24490925669670104980e-01) (46, -1.50000000000000000000e+03) (47, 2.68078804016113281250e-01) (48, -9.29630920290946960449e-02) (49, -1.50000000000000000000e+03) (50, 1.70427322387695312500e-01) (51, 6.33933067321777343750e-01) (52, 1.20264314115047454834e-01) (53, 4.28783893585205078125e-02) (54, 9.93175134062767028809e-02) (55, -1.40670144557952880859e+00) (56, 1.50000000000000000000e+03) (57, -1.20100416243076324463e-01) (58, 1.50000000000000000000e+03) (59, -1.50000000000000000000e+03) (60, 1.13192960619926452637e-01) (61, -1.90023407340049743652e-01) (62, -1.66877046227455139160e-01) (63, 6.14840015769004821777e-02) (64, 1.07089839875698089600e-01) (65, 5.32682061195373535156e-01) (66, -4.21527922153472900391e-02) (67, 1.00998297333717346191e-01) (68, -4.62113767862319946289e-02) (69, -1.04164622724056243896e-01) (70, -2.04515084624290466309e-01) (71, -1.50000000000000000000e+03) (72, -1.50000000000000000000e+03) (73, 8.04353412240743637085e-03) (74, -1.50000000000000000000e+03) (75, 6.46295994520187377930e-02) (76, 1.55248910188674926758e-01) (77, -4.25917766988277435303e-02) (78, -1.61108583211898803711e-01) (79, -7.42503702640533447266e-02) (80, -1.50000000000000000000e+03) (81, -1.50000000000000000000e+03) (82, -2.93273665010929107666e-02) (83, -1.50000000000000000000e+03) (84, 4.04234975576400756836e-02) (85, -6.00291136652231216431e-03) (86, 5.98751828074455261230e-02) (87, 1.50000000000000000000e+03) (88, -1.50000000000000000000e+03) (89, -1.50000000000000000000e+03) (90, 1.15324683487415313721e-01) (91, 8.03383514285087585449e-02) (92, -1.33353089913725852966e-02) (93, -5.47958863899111747742e-03) (94, -4.56282928466796875000e+02) (95, 1.50000000000000000000e+03) (96, -1.08749575912952423096e-01) (97, -1.50000000000000000000e+03) (98, -9.16412100195884704590e-02) (99, -1.99444010853767395020e-01) (100, 4.91395033895969390869e-03) (101, 1.50000000000000000000e+03) (102, 1.50000000000000000000e+03) (103, -1.01992659270763397217e-01) (104, -3.48642557859420776367e-01) (105, -1.50000000000000000000e+03) (106, -1.66129887104034423828e-01) (107, -3.84725242853164672852e-01) (108, -1.50000000000000000000e+03) (109, -1.50000000000000000000e+03) (110, -6.14149719476699829102e-02) (111, -1.50000000000000000000e+03) (112, -1.50000000000000000000e+03) (113, 3.91967803239822387695e-01) (114, -1.50000000000000000000e+03) (115, -8.70689824223518371582e-02) (116, -1.43219992518424987793e-01) (117, 3.29339504241943359375e-02) (118, 1.62446781992912292480e-01) (119, -5.60896806418895721436e-02) (120, -2.57606767117977142334e-02) (121, -9.96783599257469177246e-02) (122, -8.74776840209960937500e-02) (123, -1.50000000000000000000e+03) (124, 3.53696495294570922852e-02) (125, 8.25772285461425781250e-02) (0, -4.69452515244483947754e-02) (1, 1.39430329203605651855e-01) (2, -2.77135938405990600586e-01) (3, -1.95063933730125427246e-01) (4, -4.15968932211399078369e-02) (5, 1.60921287536621093750e+00) (6, -1.12758539617061614990e-01) (7, 8.43484923243522644043e-02) (8, -1.84418603777885437012e-01) (9, -5.07141388952732086182e-02) (10, -1.67637318372726440430e-01) (11, 9.07965004444122314453e-02) (12, -4.07330155372619628906e-01) (13, -7.28625133633613586426e-02) (14, 4.39079016447067260742e-01) (15, 2.95897662639617919922e-01) (16, 3.56324344873428344727e-01) (17, -3.39251849800348281860e-03) (18, 2.46738404035568237305e-01) (19, -3.75180035829544067383e-01) (20, -3.55550125241279602051e-02) (21, -9.19923037290573120117e-02) (22, -1.50762036442756652832e-01) (23, -1.51530146598815917969e-01) (24, 5.15469968318939208984e-01) (25, -2.68634736537933349609e-01) (26, -2.15898111462593078613e-01) (27, 3.03371667861938476562e-01) (28, 2.00376972556114196777e-01) (29, 3.89979571104049682617e-01) (30, -2.30360582470893859863e-01) (31, -1.28996923565864562988e-01) (32, 1.50000000000000000000e+03) (33, -2.37478584051132202148e-01) (34, 1.50000000000000000000e+03) (35, -2.72706151008605957031e-01) (36, -2.39139243960380554199e-01) (37, 1.50000000000000000000e+03) (38, -1.39396920800209045410e-01) (39, -6.69619068503379821777e-02) (40, 3.78878489136695861816e-02) (41, 1.97325814515352249146e-02) (42, -3.57087075710296630859e-01) (43, -4.41886305809020996094e-01) (44, 1.84750128537416458130e-02) (45, 5.67441701889038085938e-01) (46, -2.14814897626638412476e-02) (47, -7.46293086558580398560e-03) (48, 6.94556236267089843750e-02) (49, 4.05507721006870269775e-02) (50, 8.33238363265991210938e-02) (51, -2.37622499465942382812e-01) (52, -3.07573646306991577148e-01) (53, -6.42428919672966003418e-02) (54, -1.43151655793190002441e-01) (55, -5.87009228765964508057e-02) (56, 1.50000000000000000000e+03) (57, 2.95410188846290111542e-03) (58, 1.50000000000000000000e+03) (59, -6.37347474694252014160e-02) (60, 1.10203027725219726562e-01) (61, 1.40628910064697265625e+00) (62, -5.25954723358154296875e-01) (63, 4.08080555498600006104e-02) (64, 1.27717688679695129395e-01) (65, -3.37819218635559082031e-01) (66, -2.59330391883850097656e-01) (67, 3.30309756100177764893e-02) (68, -1.66129954159259796143e-02) (69, -6.11527562141418457031e-02) (70, 4.24944192171096801758e-01) (71, 5.45027889311313629150e-02) (72, -1.23769246041774749756e-01) (73, -1.80053010582923889160e-01) (74, -1.34424474090337753296e-02) (75, -3.17050516605377197266e-01) (76, 3.23338389396667480469e-01) (77, -8.04727196693420410156e-01) (78, -1.40912041068077087402e-01) (79, 3.23536425828933715820e-01) (80, 8.25628042221069335938e-02) (81, -1.14050529897212982178e-01) (82, -2.43583425879478454590e-01) (83, -1.28094315528869628906e-01) (84, -3.67110848426818847656e-01) (85, 2.71791279315948486328e-01) (86, -1.37651264667510986328e-01) (87, 1.50000000000000000000e+03) (88, -1.45005002617835998535e-01) (89, -1.16875857114791870117e-01) (90, -1.38300910592079162598e-01) (91, 2.13047191500663757324e-01) (92, 2.89526969194412231445e-01) (93, -2.49134942889213562012e-01) (94, 8.38066712021827697754e-02) (95, 1.50000000000000000000e+03) (96, -1.14895351231098175049e-01) (97, 4.71979588270187377930e-01) (98, -1.55960187315940856934e-01) (99, 3.74567836523056030273e-01) (100, 4.03007902204990386963e-02) (101, 1.50000000000000000000e+03) (102, 1.50000000000000000000e+03) (103, -1.29606172442436218262e-01) (104, -1.69801130890846252441e-01) (105, -9.39352512359619140625e-02) (106, -2.77802973985671997070e-01) (107, 3.69139194488525390625e-01) (108, -1.50736927986145019531e-01) (109, 1.11150227487087249756e-01) (110, -2.97196418046951293945e-01) (111, -4.33194786310195922852e-02) (112, -2.58649513125419616699e-02) (113, 2.02786494046449661255e-02) (114, 1.86593309044837951660e-01) (115, 8.16963911056518554688e-02) (116, -1.97751641273498535156e-01) (117, -1.80288866162300109863e-01) (118, 9.53882336616516113281e-02) (119, -1.41097187995910644531e-01) (120, 1.75386443734169006348e-01) (121, -3.22447001934051513672e-01) (122, 1.84083834290504455566e-01) (123, -5.65459132194519042969e-02) (124, 5.05353286862373352051e-02) (125, -9.81528460979461669922e-02) (0, 5.11605571955442428589e-03) (1, 1.10532641410827636719e+00) (2, 5.32858550548553466797e-01) (3, 1.38305795192718505859e+00) (4, 6.84719085693359375000e-01) (5, 5.00107097625732421875e+00) (6, 2.69700080156326293945e-01) (7, 1.52154946327209472656e+00) (8, 1.57372820377349853516e+00) (9, 1.96977186203002929688e+00) (10, 4.62888568639755249023e-01) (11, 1.26072716712951660156e+00) (12, 7.65280783176422119141e-01) (13, 6.57082259654998779297e-01) (14, -1.17658242583274841309e-01) (15, 4.20365214347839355469e-01) (16, 1.21252223849296569824e-01) (17, 7.05779254436492919922e-01) (18, 4.17450219392776489258e-01) (19, 8.44468474388122558594e-01) (20, 7.22044780850410461426e-02) (21, 4.96390759944915771484e-01) (22, -8.89099836349487304688e-02) (23, -1.15739859640598297119e-01) (24, 1.95063340663909912109e+00) (25, 9.70799982547760009766e-01) (26, 9.83208954334259033203e-01) (27, 1.27804815769195556641e+00) (28, -2.57460083812475204468e-02) (29, 1.77923941612243652344e+00) (30, 4.80388045310974121094e-01) (31, -1.31707474589347839355e-01) (32, 1.50000000000000000000e+03) (33, 9.02991592884063720703e-01) (34, 1.50000000000000000000e+03) (35, 7.78965294361114501953e-01) (36, -2.53876298666000366211e-01) (37, 1.50000000000000000000e+03) (38, 3.45017135143280029297e-01) (39, 4.68424409627914428711e-01) (40, 4.56084050238132476807e-02) (41, 1.14923961460590362549e-01) (42, 8.64827394485473632812e-01) (43, 5.76602518558502197266e-01) (44, -9.62907850742340087891e-01) (45, 1.96678555011749267578e+00) (46, 1.10956847667694091797e+00) (47, 2.94055789709091186523e-01) (48, -1.29233943298459053040e-02) (49, 2.11876720190048217773e-01) (50, -3.63643169403076171875e-02) (51, 3.04991066455841064453e-01) (52, 3.54850858449935913086e-01) (53, 1.25493597984313964844e+00) (54, 1.49969816207885742188e+00) (55, -6.76323994994163513184e-02) (56, 1.50000000000000000000e+03) (57, -1.82331070303916931152e-01) (58, 1.50000000000000000000e+03) (59, -1.22306071221828460693e-01) (60, 1.40887737274169921875e-01) (61, 2.95518487691879272461e-01) (62, 5.07924616336822509766e-01) (63, 3.34557533264160156250e-01) (64, -2.55289942026138305664e-01) (65, 2.87306159734725952148e-01) (66, 3.65722358226776123047e-01) (67, 3.48811060190200805664e-01) (68, 6.44573271274566650391e-01) (69, 1.03322899341583251953e+00) (70, 1.23856210708618164062e+00) (71, 2.11658724583685398102e-03) (72, -1.67755618691444396973e-01) (73, 4.98925626277923583984e-01) (74, 1.22771285474300384521e-01) (75, 3.59129726886749267578e-01) (76, 1.01683318614959716797e+00) (77, -5.84208631515502929688e+00) (78, 1.04548954963684082031e+00) (79, 1.30924129486083984375e+00) (80, 1.42213135957717895508e-01) (81, -7.74276182055473327637e-02) (82, 4.81415152549743652344e-01) (83, 3.62617582082748413086e-01) (84, 4.30606812238693237305e-01) (85, 9.22893047332763671875e-01) (86, 5.00958621501922607422e-01) (87, 1.50000000000000000000e+03) (88, -5.28119094669818878174e-02) (89, -3.56406979262828826904e-02) (90, 9.43024575710296630859e-01) (91, 9.85258281230926513672e-01) (92, 1.22928726673126220703e+00) (93, 9.13953959941864013672e-01) (94, -2.88937073200941085815e-02) (95, 1.50000000000000000000e+03) (96, 5.49488306045532226562e-01) (97, -4.42717373371124267578e-01) (98, 9.24106299877166748047e-01) (99, 1.14306759834289550781e+00) (100, -1.35071158409118652344e-01) (101, 1.50000000000000000000e+03) (102, 1.50000000000000000000e+03) (103, 8.62655788660049438477e-03) (104, -3.37112545967102050781e-02) (105, -1.46229907870292663574e-01) (106, 7.42819607257843017578e-01) (107, 1.50657951831817626953e+00) (108, -5.57070486247539520264e-02) (109, 2.83684194087982177734e-01) (110, 4.98271971940994262695e-01) (111, 1.81755036115646362305e-01) (112, 2.76291877031326293945e-01) (113, 1.03939376771450042725e-01) (114, -1.34726136922836303711e-01) (115, 4.30978387594223022461e-01) (116, 4.95861947536468505859e-01) (117, 1.82300031185150146484e+00) (118, 4.81355309486389160156e-01) (119, 1.04302673339843750000e+01) (120, 1.21997073292732238770e-01) (121, 5.55292606353759765625e-01) (122, -6.06551933288574218750e+00) (123, -2.22735051065683364868e-02) (124, 2.00683426856994628906e+00) (125, 4.14679855108261108398e-01) (0, 4.24081951379776000977e-01) (1, 9.12283718585968017578e-01) (2, 2.79525101184844970703e-01) (3, 3.08376610279083251953e-01) (4, 6.15634500980377197266e-01) (5, 7.81068682670593261719e-01) (6, 5.13603270053863525391e-01) (7, 1.43403422832489013672e+00) (8, 3.50980669260025024414e-01) (9, 1.17779433727264404297e+00) (10, 3.48873704671859741211e-01) (11, 3.83627861738204956055e-01) (12, 7.42461860179901123047e-01) (13, 2.59189188480377197266e-01) (14, 4.17737334966659545898e-01) (15, 3.95044058561325073242e-01) (16, 4.42606538534164428711e-01) (17, 4.57542330026626586914e-01) (18, 4.22645121812820434570e-01) (19, 3.69928270578384399414e-01) (20, 5.00203490257263183594e-01) (21, 4.33939456939697265625e-01) (22, 4.32127475738525390625e-01) (23, 4.25216078758239746094e-01) (24, 7.03787565231323242188e-01) (25, 3.49444210529327392578e-01) (26, 4.69568908214569091797e-01) (27, 5.23903191089630126953e-01) (28, 5.04188716411590576172e-01) (29, 1.68277335166931152344e+00) (30, 4.89472508430480957031e-01) (31, 3.87549012899398803711e-01) (32, 1.50000000000000000000e+03) (33, 4.27881747484207153320e-01) (34, 1.50000000000000000000e+03) (35, 3.04759293794631958008e-01) (36, 2.23148867487907409668e-01) (37, 1.50000000000000000000e+03) (38, 6.10025584697723388672e-01) (39, 4.41668361425399780273e-01) (40, 4.24510449171066284180e-01) (41, 5.96625506877899169922e-01) (42, 4.58888679742813110352e-01) (43, 3.87800842523574829102e-01) (44, 4.37697798013687133789e-01) (45, 1.81887495517730712891e+00) (46, 1.41244018077850341797e+00) (47, 3.69825303554534912109e-01) (48, 3.30489933490753173828e-01) (49, 5.23474574089050292969e-01) (50, 4.09037292003631591797e-01) (51, 3.10977339744567871094e-01) (52, 3.51807743310928344727e-01) (53, 5.21196365356445312500e-01) (54, 5.57752192020416259766e-01) (55, 3.39273542165756225586e-01) (56, 1.50000000000000000000e+03) (57, 2.96209633350372314453e-01) (58, 1.50000000000000000000e+03) (59, 3.18706512451171875000e-01) (60, 4.28297430276870727539e-01) (61, 5.66879868507385253906e-01) (62, 3.30534964799880981445e-01) (63, 2.29039207100868225098e-01) (64, 2.88154572248458862305e-01) (65, 4.40975099802017211914e-01) (66, 3.41063767671585083008e-01) (67, 2.91016399860382080078e-01) (68, 5.25614261627197265625e-01) (69, 5.55147647857666015625e-01) (70, 5.28855621814727783203e-01) (71, 5.31799376010894775391e-01) (72, 3.58306378126144409180e-01) (73, 3.77271622419357299805e-01) (74, 5.72351098060607910156e-01) (75, 5.87132334709167480469e-01) (76, 3.85498881340026855469e-01) (77, -2.01311016082763671875e+00) (78, 4.85370457172393798828e-01) (79, 4.65983271598815917969e-01) (80, 4.31862920522689819336e-01) (81, 3.09414148330688476562e-01) (82, 4.30833250284194946289e-01) (83, 6.23525738716125488281e-01) (84, 2.92313605546951293945e-01) (85, 4.55724686384201049805e-01) (86, 4.48944121599197387695e-01) (87, 1.50000000000000000000e+03) (88, 4.95258152484893798828e-01) (89, 4.09509748220443725586e-01) (90, 3.62113147974014282227e-01) (91, 4.18349981307983398438e-01) (92, 4.28102195262908935547e-01) (93, 3.96592587232589721680e-01) (94, 4.17849808931350708008e-01) (95, 1.50000000000000000000e+03) (96, 5.17530322074890136719e-01) (97, 2.97579973936080932617e-01) (98, 5.81117868423461914062e-01) (99, 5.77146947383880615234e-01) (100, 3.06977331638336181641e-01) (101, 1.50000000000000000000e+03) (102, 1.50000000000000000000e+03) (103, 4.87291306257247924805e-01) (104, 4.78412926197052001953e-01) (105, 3.02189946174621582031e-01) (106, 4.82906371355056762695e-01) (107, 1.46740579605102539062e+00) (108, 2.79372602701187133789e-01) (109, 5.46073198318481445312e-01) (110, 4.40374314785003662109e-01) (111, 2.68649637699127197266e-01) (112, 7.07692265510559082031e-01) (113, 5.22870242595672607422e-01) (114, 4.91110831499099731445e-01) (115, 4.50787544250488281250e-01) (116, 4.52016532421112060547e-01) (117, 8.10332536697387695312e-01) (118, 3.97870272397994995117e-01) (119, 7.60870575904846191406e-01) (120, 6.11714184284210205078e-01) (121, 5.86621701717376708984e-01) (122, -7.65251219272613525391e-01) (123, 3.91207754611968994141e-01) (124, 6.15220665931701660156e-01) (125, 4.35491651296615600586e-01) (0, 3.13004195690155029297e-01) (1, -3.39127451181411743164e-01) (2, 3.21617126464843750000e-01) (3, 4.21281844377517700195e-01) (4, 4.67289179563522338867e-01) (5, 1.18112230300903320312e+00) (6, 4.83471840620040893555e-01) (7, 8.95430445671081542969e-02) (8, 5.00958025455474853516e-01) (9, 7.31496989727020263672e-01) (10, 4.68534320592880249023e-01) (11, -1.03942297399044036865e-01) (12, 4.41219836473464965820e-01) (13, 4.34462398290634155273e-01) (14, 3.46653193235397338867e-01) (15, 3.89888375997543334961e-01) (16, 4.65222984552383422852e-01) (17, 5.25699973106384277344e-01) (18, 3.32504868507385253906e-01) (19, 4.48550045490264892578e-01) (20, 4.03714120388031005859e-01) (21, 4.79352504014968872070e-01) (22, 4.23911929130554199219e-01) (23, 2.83401161432266235352e-01) (24, -5.62428310513496398926e-02) (25, -3.30004543066024780273e-01) (26, -3.57857108116149902344e-01) (27, -2.04681351780891418457e-01) (28, 6.73259854316711425781e-01) (29, 1.41190662980079650879e-01) (30, -1.82599127292633056641e-01) (31, 3.05918008089065551758e-01) (32, 1.50000000000000000000e+03) (33, 3.89727056026458740234e-01) (34, 1.50000000000000000000e+03) (35, 3.42197030782699584961e-01) (36, 3.48401337862014770508e-01) (37, 1.50000000000000000000e+03) (38, 4.28148239850997924805e-01) (39, -3.73815536499023437500e-01) (40, 4.01959210634231567383e-01) (41, 4.79176074266433715820e-01) (42, -1.92437648773193359375e-01) (43, 4.61563527584075927734e-01) (44, 3.79805445671081542969e-01) (45, 4.23354655504226684570e-01) (46, 1.51541948318481445312e+00) (47, 2.90206819772720336914e-01) (48, 4.27608609199523925781e-01) (49, 5.33532500267028808594e-01) (50, 3.58260422945022583008e-01) (51, 3.66530418395996093750e-01) (52, 5.66814184188842773438e-01) (53, 3.82451266050338745117e-01) (54, 4.39824730157852172852e-01) (55, 4.28453147411346435547e-01) (56, 1.50000000000000000000e+03) (57, 4.01279658079147338867e-01) (58, 1.50000000000000000000e+03) (59, 2.74639815092086791992e-01) (60, 4.51828300952911376953e-01) (61, 6.34082078933715820312e-01) (62, -1.53603434562683105469e-01) (63, 5.43273150920867919922e-01) (64, 2.83813625574111938477e-01) (65, 3.32718253135681152344e-01) (66, 7.55197927355766296387e-03) (67, 4.29866671562194824219e-01) (68, -7.48395100235939025879e-02) (69, -3.38836312294006347656e-02) (70, -1.25374794006347656250e-01) (71, 5.92729389667510986328e-01) (72, 2.92723983526229858398e-01) (73, 4.04426991939544677734e-01) (74, 5.14788687229156494141e-01) (75, 4.69760388135910034180e-01) (76, -4.44204986095428466797e-01) (77, -6.34628057479858398438e-01) (78, -6.48574018850922584534e-03) (79, -5.00014722347259521484e-02) (80, 4.76351678371429443359e-01) (81, 3.23186635971069335938e-01) (82, 3.40035617351531982422e-01) (83, 5.06188333034515380859e-01) (84, 5.08114576339721679688e-01) (85, -7.19169080257415771484e-02) (86, 4.55510169267654418945e-01) (87, 1.50000000000000000000e+03) (88, 4.78948205709457397461e-01) (89, 3.83086353540420532227e-01) (90, 5.02759277820587158203e-01) (91, -3.94556283950805664062e-01) (92, -1.86208575963973999023e-01) (93, 4.16664332151412963867e-01) (94, 4.16406154632568359375e-01) (95, 1.50000000000000000000e+03) (96, 4.51400995254516601562e-01) (97, 4.22192126512527465820e-01) (98, -2.67526116222143173218e-02) (99, -7.10499435663223266602e-02) (100, 4.59450453519821166992e-01) (101, 1.50000000000000000000e+03) (102, 1.50000000000000000000e+03) (103, 3.13271403312683105469e-01) (104, 4.48317438364028930664e-01) (105, 5.39931714534759521484e-01) (106, -7.65110030770301818848e-02) (107, 2.61931180953979492188e-01) (108, 2.79504954814910888672e-01) (109, 7.39256441593170166016e-01) (110, -2.03266203403472900391e-01) (111, 3.09771776199340820312e-01) (112, 6.91679835319519042969e-01) (113, 6.76189780235290527344e-01) (114, 4.21256870031356811523e-01) (115, 4.57910656929016113281e-01) (116, 3.78100842237472534180e-01) (117, 4.27971899509429931641e-01) (118, 7.05369591712951660156e-01) (119, 6.04174196720123291016e-01) (120, 6.68854773044586181641e-01) (121, 9.63827222585678100586e-02) (122, -9.08525109291076660156e-01) (123, 4.65881705284118652344e-01) (124, 4.83340710401535034180e-01) (125, 4.43048983812332153320e-01) (0, 1.50002464652061462402e-01) (1, -8.18371027708053588867e-02) (2, 9.97418239712715148926e-02) (3, 1.46245241165161132812e-01) (4, 3.54222543537616729736e-02) (5, 2.24679231643676757812e+00) (6, 1.30485057830810546875e-01) (7, -1.74456810951232910156e+00) (8, 1.48338019847869873047e-01) (9, 7.81367123126983642578e-02) (10, 4.40793424844741821289e-01) (11, -7.94277310371398925781e-01) (12, 5.23471355438232421875e-01) (13, 8.83566495031118392944e-03) (14, 4.26706647872924804688e+00) (15, -6.85404241085052490234e-01) (16, 1.76307128906250000000e+02) (17, 3.83387148380279541016e-01) (18, 2.30772644281387329102e-02) (19, -1.90416444092988967896e-03) (20, 4.69789057970046997070e-02) (21, -1.57664895057678222656e-01) (22, 2.42385816574096679688e+00) (23, 1.46418833732604980469e+00) (24, -1.12965083122253417969e+00) (25, -5.87643563747406005859e-01) (26, -7.85940587520599365234e-01) (27, -5.12906610965728759766e-01) (28, 9.97920215129852294922e-01) (29, -1.31022393703460693359e+00) (30, -5.64067423343658447266e-01) (31, 1.47523686289787292480e-01) (32, 1.50000000000000000000e+03) (33, 3.14989179372787475586e-01) (34, 1.50000000000000000000e+03) (35, 2.79865026473999023438e-01) (36, 5.15497326850891113281e-01) (37, 1.50000000000000000000e+03) (38, 2.77830630540847778320e-01) (39, -7.72325277328491210938e-01) (40, 1.33428022265434265137e-01) (41, 2.72210389375686645508e-02) (42, -5.58595299720764160156e-01) (43, -1.81367143988609313965e-01) (44, -4.94060367345809936523e-02) (45, 4.36796694993972778320e-01) (46, -7.81672596931457519531e-02) (47, -2.86499503999948501587e-03) (48, -8.52818563580513000488e-02) (49, 2.55948692560195922852e-01) (50, -7.19976285472512245178e-03) (51, 2.27910950779914855957e-01) (52, 1.84482872486114501953e-01) (53, 1.55636519193649291992e-01) (54, 1.62979587912559509277e-01) (55, 3.29041182994842529297e-01) (56, 1.50000000000000000000e+03) (57, 1.05774275958538055420e-01) (58, 1.50000000000000000000e+03) (59, 2.86242294311523437500e+01) (60, 5.44301830232143402100e-02) (61, 7.32723355293273925781e-01) (62, -1.16403259336948394775e-01) (63, 1.49360373616218566895e-01) (64, 3.75366583466529846191e-02) (65, -8.13252553343772888184e-02) (66, -1.80430084466934204102e-01) (67, 1.49640575051307678223e-01) (68, -2.10457757115364074707e-01) (69, -1.98862522840499877930e-01) (70, -4.57733690738677978516e-01) (71, 4.13394570350646972656e-01) (72, 2.65842556953430175781e-01) (73, -1.35656166821718215942e-02) (74, 2.40059703588485717773e-01) (75, 1.60846620798110961914e-01) (76, -1.84504354000091552734e+00) (77, -2.23695829510688781738e-01) (78, -2.94383406639099121094e-01) (79, -4.80520814657211303711e-01) (80, 5.54085254669189453125e-01) (81, 2.74952620267868041992e-01) (82, -1.36759072542190551758e-01) (83, 4.62195575237274169922e-01) (84, 5.49459122121334075928e-02) (85, -5.09075462818145751953e-01) (86, 3.03017437458038330078e-01) (87, 1.50000000000000000000e+03) (88, -9.62009429931640625000e-01) (89, 3.69475483894348144531e-01) (90, 1.36921122670173645020e-01) (91, -1.80613172054290771484e+00) (92, -4.00495231151580810547e-01) (93, 1.30531847476959228516e-01) (94, 9.09105658531188964844e-01) (95, 1.50000000000000000000e+03) (96, -1.61118293181061744690e-03) (97, 1.73762149810791015625e+01) (98, -2.20770522952079772949e-01) (99, -4.87554073333740234375e-01) (100, 1.90678253769874572754e-01) (101, 1.50000000000000000000e+03) (102, 1.50000000000000000000e+03) (103, 2.55475074052810668945e-01) (104, 1.39569506049156188965e-01) (105, 3.00832122564315795898e-01) (106, -6.73218071460723876953e-01) (107, -7.06801939010620117188e+00) (108, 4.23027902841567993164e-01) (109, 9.65140640735626220703e-01) (110, 5.35737685859203338623e-02) (111, 4.89592760801315307617e-01) (112, 1.57561063766479492188e-01) (113, 3.57517540454864501953e-01) (114, 7.76277160644531250000e+01) (115, -1.50828093290328979492e-01) (116, -3.03780347108840942383e-01) (117, -8.82399603724479675293e-02) (118, 1.31191700696945190430e-01) (119, 3.12189999967813491821e-02) (120, -6.24189913272857666016e-01) (121, 7.50057026743888854980e-02) (122, -7.62460291385650634766e-01) (123, 5.97507894039154052734e-01) (124, 2.25655883550643920898e-01) (125, 2.34930485486984252930e-01) (0, 5.06176948547363281250e-02) (1, 9.25116315484046936035e-02) (2, -1.06692641973495483398e-01) (3, -2.43855834007263183594e-01) (4, -1.47613942623138427734e-01) (5, -5.20118951797485351562e-01) (6, -2.51132845878601074219e-01) (7, 2.31486469507217407227e-01) (8, -2.55348205566406250000e-01) (9, -1.67869716882705688477e-01) (10, -3.44692647457122802734e-01) (11, 1.35384441819041967392e-03) (12, 4.96411710977554321289e-01) (13, -2.97457352280616760254e-02) (14, -2.65247732400894165039e-01) (15, 8.60279705375432968140e-03) (16, -1.73483833670616149902e-01) (17, -4.77934665977954864502e-02) (18, 1.99920281767845153809e-01) (19, 5.51447905600070953369e-02) (20, -8.10298100113868713379e-02) (21, -1.47716313600540161133e-01) (22, -3.20805341005325317383e-01) (23, 7.24067986011505126953e-02) (24, -1.38482199981808662415e-02) (25, -5.36304190754890441895e-02) (26, -6.77675977349281311035e-02) (27, -1.40478625893592834473e-01) (28, -4.12976667284965515137e-02) (29, -5.61116188764572143555e-02) (30, -4.55286428332328796387e-02) (31, 5.53146861493587493896e-02) (32, 1.50000000000000000000e+03) (33, -7.01505020260810852051e-02) (34, 1.50000000000000000000e+03) (35, -1.20055861771106719971e-01) (36, -3.15373390913009643555e-01) (37, 1.50000000000000000000e+03) (38, -1.76846727728843688965e-01) (39, -1.99389159679412841797e-01) (40, -1.73545956611633300781e-01) (41, 6.14356398582458496094e-02) (42, -4.18793074786663055420e-02) (43, -1.26079186797142028809e-01) (44, -3.60912233591079711914e-02) (45, 1.15867413580417633057e-01) (46, -6.83881163597106933594e-01) (47, -1.99550732970237731934e-01) (48, 1.44341602921485900879e-01) (49, -1.92600890994071960449e-01) (50, 1.71319425106048583984e-01) (51, 2.79968142509460449219e-01) (52, -9.10484939813613891602e-02) (53, -9.43605452775955200195e-02) (54, -9.55575481057167053223e-02) (55, -3.49125489592552185059e-02) (56, 1.50000000000000000000e+03) (57, -7.92527794837951660156e-02) (58, 1.50000000000000000000e+03) (59, -3.80694568157196044922e-02) (60, 2.26505786180496215820e-01) (61, -9.46323350071907043457e-02) (62, -1.56200766563415527344e-01) (63, -1.46273553371429443359e-01) (64, -6.38345861807465553284e-03) (65, -5.82219660282135009766e-02) (66, -4.37372177839279174805e-03) (67, -4.23629432916641235352e-02) (68, -3.62464338541030883789e-02) (69, -1.61998957395553588867e-01) (70, -6.99151530861854553223e-02) (71, -2.40541517734527587891e-01) (72, 9.77267744019627571106e-04) (73, -1.26615360379219055176e-01) (74, -1.74620002508163452148e-01) (75, -3.35123091936111450195e-02) (76, 1.03713177144527435303e-01) (77, -1.15382507443428039551e-01) (78, -5.96270151436328887939e-02) (79, -1.89760997891426086426e-01) (80, -1.24827243387699127197e-01) (81, 2.33937781304121017456e-02) (82, -1.61016676574945449829e-02) (83, -5.02536952495574951172e-01) (84, 1.81535705924034118652e-02) (85, 8.62589851021766662598e-02) (86, -1.39211863279342651367e-01) (87, 1.50000000000000000000e+03) (88, -2.10355073213577270508e-02) (89, 3.87236475944519042969e-02) (90, -1.07779450714588165283e-01) (91, 3.82358096539974212646e-02) (92, -1.12539626657962799072e-01) (93, -8.66322740912437438965e-02) (94, 5.03943674266338348389e-02) (95, 1.50000000000000000000e+03) (96, -5.35859614610671997070e-02) (97, -1.63788394927978515625e+01) (98, -6.39823302626609802246e-02) (99, -3.62440273165702819824e-02) (100, -3.48566174507141113281e-02) (101, 1.50000000000000000000e+03) (102, 1.50000000000000000000e+03) (103, -1.17681175470352172852e-01) (104, 3.37051204405725002289e-03) (105, 7.75790363550186157227e-02) (106, -1.14815264940261840820e-01) (107, -1.74533113837242126465e-01) (108, 2.33117744326591491699e-01) (109, -2.63315796852111816406e+00) (110, -1.67048916220664978027e-01) (111, -1.20786994695663452148e-01) (112, -1.42895877361297607422e-01) (113, 5.24888396263122558594e-01) (114, -1.53302103281021118164e-01) (115, -2.84187477082014083862e-02) (116, -2.18581736087799072266e-01) (117, 2.30491533875465393066e-02) (118, -1.13042302429676055908e-01) (119, -1.79337531328201293945e-01) (120, -2.44469478726387023926e-01) (121, -5.54657205939292907715e-02) (122, -4.18811649084091186523e-01) (123, -4.36982065439224243164e-02) (124, 2.04407963901758193970e-02) (125, -4.97428365051746368408e-02) (0, 1.86164513230323791504e-01) (1, 1.77007544040679931641e+00) (2, -1.31467282772064208984e-01) (3, -1.85261145234107971191e-01) (4, -1.70298129320144653320e-01) (5, -1.23745994567871093750e+02) (6, -7.28016421198844909668e-02) (7, -3.18841123580932617188e+00) (8, -1.56588375568389892578e-01) (9, -1.70711085200309753418e-01) (10, -2.01859295368194580078e-01) (11, 2.45141945779323577881e-02) (12, -9.82842519879341125488e-02) (13, -1.21123112738132476807e-01) (14, -2.18483185768127441406e+00) (15, 2.10625901818275451660e-02) (16, -8.74259591102600097656e-01) (17, -1.48719161748886108398e-01) (18, 8.23843926191329956055e-02) (19, -1.22741430997848510742e-01) (20, 8.87366831302642822266e-02) (21, -4.10400740802288055420e-02) (22, -1.49413195800781250000e+03) (23, -1.41875036621093750000e+03) (24, 7.72253811359405517578e-01) (25, 6.70690476894378662109e-01) (26, -2.77293333783745765686e-03) (27, 6.12260639667510986328e-01) (28, -5.03644287586212158203e-01) (29, 6.17288053035736083984e-01) (30, 5.76888918876647949219e-01) (31, 4.05420333147048950195e-01) (32, 1.50000000000000000000e+03) (33, -1.24009720981121063232e-01) (34, 1.50000000000000000000e+03) (35, -1.04293696582317352295e-01) (36, 1.58376321196556091309e-01) (37, 1.50000000000000000000e+03) (38, 1.27475216984748840332e-01) (39, -1.23975187540054321289e-01) (40, -9.78674832731485366821e-03) (41, -3.80161702632904052734e-02) (42, 5.41705310344696044922e-01) (43, -2.36722707748413085938e-01) (44, -1.66912734508514404297e-01) (45, 6.86305403709411621094e-01) (46, -4.72214660644531250000e+02) (47, -3.98614965379238128662e-02) (48, 1.10621258616447448730e-01) (49, -5.04302917480468750000e+02) (50, 1.81644529104232788086e-01) (51, 5.79177774488925933838e-02) (52, -1.04780897498130798340e-01) (53, -1.36236742138862609863e-01) (54, 2.45533064007759094238e-02) (55, -1.70376610755920410156e+00) (56, 1.50000000000000000000e+03) (57, 5.21226525306701660156e-02) (58, 1.50000000000000000000e+03) (59, -6.32331359863281250000e+02) (60, 1.43263593316078186035e-01) (61, -1.14754199981689453125e+00) (62, -9.54115986824035644531e-02) (63, -2.71382499486207962036e-02) (64, -7.79720991849899291992e-02) (65, -1.83075383305549621582e-01) (66, -1.95903003215789794922e-01) (67, -1.28791198134422302246e-01) (68, -6.55360966920852661133e-02) (69, -1.79178431630134582520e-01) (70, 6.07238709926605224609e-01) (71, -2.57132232189178466797e-01) (72, -2.48047199249267578125e+01) (73, -1.09169557690620422363e-01) (74, -4.33265563964843750000e+02) (75, -1.80207163095474243164e-01) (76, 2.19823050498962402344e+00) (77, -2.12835311889648437500e-01) (78, -1.93702667951583862305e-01) (79, 5.31094491481781005859e-01) (80, -1.32793557643890380859e+00) (81, -2.48250217437744140625e+01) (82, -2.18800947070121765137e-01) (83, -1.44385119628906250000e+03) (84, -1.36203303933143615723e-01) (85, 9.68348026275634765625e-01) (86, -2.03603938221931457520e-01) (87, 1.50000000000000000000e+03) (88, -1.13811092376708984375e+01) (89, -1.17050428390502929688e+01) (90, -1.47766962647438049316e-01) (91, 2.30615544319152832031e+00) (92, 5.19026398658752441406e-01) (93, -1.96606636047363281250e-01) (94, -6.37468248605728149414e-02) (95, 1.50000000000000000000e+03) (96, -9.45389866828918457031e-02) (97, 2.82593202590942382812e+00) (98, -9.73246172070503234863e-02) (99, 5.67789018154144287109e-01) (100, 6.38374686241149902344e-02) (101, 1.50000000000000000000e+03) (102, 1.50000000000000000000e+03) (103, -1.09242685139179229736e-01) (104, -2.30590745806694030762e-01) (105, -1.42980029296875000000e+03) (106, 1.87641140073537826538e-02) (107, 6.90658867359161376953e-01) (108, -1.27335047721862792969e+00) (109, -4.53251159667968750000e+02) (110, -1.94139465689659118652e-01) (111, -4.51876754760742187500e+01) (112, -1.44800000000000000000e+03) (113, 3.65205979347229003906e+00) (114, -5.03535034179687500000e+02) (115, -9.04877856373786926270e-02) (116, -2.40739971399307250977e-01) (117, 2.77367066591978073120e-02) (118, 2.97870971262454986572e-02) (119, -9.58452373743057250977e-02) (120, -5.41098192334175109863e-02) (121, -1.89260810613632202148e-01) (122, -3.97746749222278594971e-02) (123, -3.98171949386596679688e+00) (124, -1.67442828416824340820e-01) (125, -1.02292172610759735107e-01) (0, 5.48803806304931640625e-01) (1, 2.77909815311431884766e-01) (2, 4.42676216363906860352e-01) (3, 6.04281604290008544922e-01) (4, 5.73957145214080810547e-01) (5, -1.50000000000000000000e+03) (6, 1.89678251743316650391e-01) (7, -2.61663615703582763672e-01) (8, 5.72799146175384521484e-01) (9, 5.32588064670562744141e-01) (10, 8.44642043113708496094e-01) (11, 8.95558446645736694336e-02) (12, -3.88410377502441406250e+00) (13, 9.31606218218803405762e-02) (14, -1.50000000000000000000e+03) (15, 3.89656156301498413086e-01) (16, -1.50000000000000000000e+03) (17, 4.00723904371261596680e-01) (18, 6.17423415184020996094e-01) (19, 6.84914529323577880859e-01) (20, 4.24387872219085693359e-01) (21, 7.11679995059967041016e-01) (22, -1.50000000000000000000e+03) (23, -1.50000000000000000000e+03) (24, -2.32632413506507873535e-01) (25, -1.25003308057785034180e-01) (26, -2.55998596549034118652e-03) (27, -6.19815140962600708008e-02) (28, -8.20889759063720703125e+00) (29, -1.81344330310821533203e-01) (30, -1.41425222158432006836e-01) (31, 1.18033392354846000671e-02) (32, 1.50000000000000000000e+03) (33, 5.24516999721527099609e-01) (34, 1.50000000000000000000e+03) (35, 5.01121938228607177734e-01) (36, -6.25492870807647705078e-01) (37, 1.50000000000000000000e+03) (38, 4.33405280113220214844e-01) (39, -9.52983647584915161133e-02) (40, 3.88912707567214965820e-01) (41, -1.41989737749099731445e-01) (42, -1.97541952133178710938e-01) (43, 5.18736779689788818359e-01) (44, 2.86588877439498901367e-01) (45, -2.82770216464996337891e-01) (46, -1.48490246582031250000e+03) (47, 2.32312366366386413574e-01) (48, -6.21334969997406005859e-01) (49, -1.50000000000000000000e+03) (50, 4.84318673610687255859e-01) (51, 8.97003829479217529297e-01) (52, 5.82545816898345947266e-01) (53, -9.71806347370147705078e-01) (54, 5.19347786903381347656e-01) (55, -2.78380423784255981445e-01) (56, 1.50000000000000000000e+03) (57, -2.15412024408578872681e-02) (58, 1.50000000000000000000e+03) (59, -1.50000000000000000000e+03) (60, -1.32180595397949218750e+00) (61, 2.66982764005661010742e-01) (62, -1.31613716483116149902e-01) (63, 4.34143036603927612305e-01) (64, -2.67379432916641235352e-01) (65, 2.42859482765197753906e+00) (66, -1.87635481357574462891e-01) (67, 1.72692611813545227051e-01) (68, -2.57690221071243286133e-01) (69, -1.02557606995105743408e-01) (70, -8.70624557137489318848e-02) (71, -1.50000000000000000000e+03) (72, -1.50000000000000000000e+03) (73, 6.35252177715301513672e-01) (74, -1.50000000000000000000e+03) (75, 3.09345543384552001953e-01) (76, 1.43095359206199645996e-01) (77, 4.98374104499816894531e-01) (78, -1.22463405132293701172e-01) (79, -1.32858932018280029297e-01) (80, -1.50000000000000000000e+03) (81, -1.50000000000000000000e+03) (82, 4.96522873640060424805e-01) (83, -1.50000000000000000000e+03) (84, 2.84641563892364501953e-01) (85, 1.50596857070922851562e-01) (86, 4.37934100627899169922e-01) (87, 1.50000000000000000000e+03) (88, -1.50000000000000000000e+03) (89, -1.50000000000000000000e+03) (90, 4.49285477399826049805e-01) (91, 9.40159335732460021973e-02) (92, -1.92053392529487609863e-01) (93, 4.88508403301239013672e-01) (94, 6.00755155086517333984e-01) (95, 1.50000000000000000000e+03) (96, 4.75972861051559448242e-01) (97, -1.50000000000000000000e+03) (98, -8.28656256198883056641e-02) (99, -1.22524172067642211914e-01) (100, 3.42161029577255249023e-01) (101, 1.50000000000000000000e+03) (102, 1.50000000000000000000e+03) (103, -2.95642876625061035156e+00) (104, -3.89053916931152343750e+00) (105, -1.50000000000000000000e+03) (106, -1.39518946409225463867e-01) (107, -2.27748617529869079590e-01) (108, -1.50000000000000000000e+03) (109, -1.50000000000000000000e+03) (110, 6.52492821216583251953e-01) (111, -1.50000000000000000000e+03) (112, -1.50000000000000000000e+03) (113, 1.23155355453491210938e+00) (114, -1.50000000000000000000e+03) (115, 2.69484132528305053711e-01) (116, 5.49911379814147949219e-01) (117, 2.58799225091934204102e-01) (118, 5.02708554267883300781e-01) (119, 5.61823546886444091797e-01) (120, 8.14789116382598876953e-01) (121, 5.57438969612121582031e-01) (122, 1.15698002278804779053e-01) (123, -1.50000000000000000000e+03) (124, 5.21825015544891357422e-01) (125, 4.48577165603637695312e-01) (0, 3.94558347761631011963e-02) (1, 2.24954858422279357910e-01) (2, -1.43229022622108459473e-01) (3, -6.61997497081756591797e-03) (4, -5.99438324570655822754e-02) (5, -4.65766519308090209961e-01) (6, -1.50517046451568603516e-01) (7, -9.30935218930244445801e-02) (8, -7.60073512792587280273e-02) (9, -7.10024237632751464844e-02) (10, 3.09141725301742553711e-02) (11, -1.40375539660453796387e-01) (12, 3.00383884459733963013e-02) (13, -3.74904610216617584229e-02) (14, -5.74748441576957702637e-02) (15, -9.17842388153076171875e-02) (16, -1.40380626544356346130e-02) (17, 6.60127550363540649414e-02) (18, -2.91058234870433807373e-02) (19, 1.61399990320205688477e-01) (20, -9.77982506155967712402e-02) (21, -2.14507207274436950684e-01) (22, -1.08870014548301696777e-01) (23, 3.34827154874801635742e-02) (24, -2.24400937557220458984e-01) (25, -1.75443992018699645996e-01) (26, -1.05935379862785339355e-01) (27, -1.18149146437644958496e-01) (28, -1.26344323158264160156e-01) (29, -8.35745334625244140625e-02) (30, -1.09099119901657104492e-01) (31, -6.00811243057250976562e-02) (32, 1.50000000000000000000e+03) (33, -5.46374395489692687988e-02) (34, 1.50000000000000000000e+03) (35, 2.47310753911733627319e-03) (36, -2.35651314258575439453e-01) (37, 1.50000000000000000000e+03) (38, -1.11536867916584014893e-01) (39, -2.25410431623458862305e-01) (40, -5.44393137097358703613e-02) (41, -1.04688018560409545898e-01) (42, -1.64862558245658874512e-01) (43, -2.38652944564819335938e-01) (44, 1.92778576165437698364e-02) (45, -1.52637019753456115723e-01) (46, -4.12401199340820312500e-01) (47, -6.62476047873497009277e-02) (48, 3.00508383661508560181e-02) (49, -1.32248178124427795410e-01) (50, 6.60175532102584838867e-02) (51, 8.41995999217033386230e-02) (52, -5.36959385499358177185e-03) (53, -8.36344510316848754883e-02) (54, -9.79928299784660339355e-02) (55, 4.93280328810214996338e-02) (56, 1.50000000000000000000e+03) (57, -4.77445088326930999756e-02) (58, 1.50000000000000000000e+03) (59, 4.98161055147647857666e-02) (60, 4.84898947179317474365e-02) (61, -1.75909608602523803711e-01) (62, -1.88097149133682250977e-01) (63, 1.04911997914314270020e-02) (64, 5.20236901938915252686e-02) (65, 1.06699712574481964111e-01) (66, -1.20010986924171447754e-01) (67, 7.80850136652588844299e-03) (68, -1.10134065151214599609e-01) (69, -3.78931723535060882568e-02) (70, -1.10871121287345886230e-01) (71, -2.41917356848716735840e-01) (72, -6.76384717226028442383e-02) (73, -4.54638488590717315674e-02) (74, -2.32563689351081848145e-01) (75, 5.04528060555458068848e-02) (76, 2.25606724619865417480e-01) (77, 4.49364244937896728516e-01) (78, -8.89033079147338867188e-02) (79, -1.25800147652626037598e-01) (80, -1.47322699427604675293e-01) (81, -1.95743199437856674194e-02) (82, -2.45381649583578109741e-02) (83, -2.45512545108795166016e-01) (84, -1.14920698106288909912e-01) (85, -8.73393937945365905762e-02) (86, -1.46771058440208435059e-01) (87, 1.50000000000000000000e+03) (88, 6.91957166418433189392e-03) (89, 5.75004778802394866943e-02) (90, -7.64308199286460876465e-02) (91, 2.32283368706703186035e-01) (92, -1.43081381916999816895e-01) (93, 1.01383835077285766602e-01) (94, -9.78732287883758544922e-01) (95, 1.50000000000000000000e+03) (96, -3.07752154767513275146e-02) (97, -1.17816913127899169922e+00) (98, -1.80943131446838378906e-01) (99, -8.22756532579660415649e-03) (100, 9.74412858486175537109e-02) (101, 1.50000000000000000000e+03) (102, 1.50000000000000000000e+03) (103, 1.18857882916927337646e-01) (104, -1.59469675272703170776e-02) (105, -1.19096152484416961670e-02) (106, -7.04292654991149902344e-02) (107, -1.83102771639823913574e-01) (108, 3.39795909821987152100e-02) (109, -5.44004440307617187500e-01) (110, -8.56416374444961547852e-02) (111, 8.26229080557823181152e-02) (112, -2.27629557251930236816e-01) (113, 2.45309352874755859375e-01) (114, -1.44293144345283508301e-01) (115, 8.30444246530532836914e-02) (116, -2.14727535843849182129e-01) (117, -1.11643075942993164062e-01) (118, -3.26137632131576538086e-01) (119, -8.96262228488922119141e-02) (120, -2.82421767711639404297e-01) (121, -1.28347098827362060547e-01) (122, 4.56924661993980407715e-02) (123, -4.28260043263435363770e-02) (124, -1.14060677587985992432e-01) (125, 4.73183998838067054749e-03) (0, 6.73947706818580627441e-02) (1, 2.56382346153259277344e-01) (2, 9.21542167663574218750e-01) (3, 8.28947961330413818359e-01) (4, 4.94049459695816040039e-01) (5, 2.13281917572021484375e+00) (6, 1.77923455834388732910e-01) (7, -4.70150977373123168945e-01) (8, 8.99871587753295898438e-01) (9, 4.07477527856826782227e-01) (10, 9.45844769477844238281e-01) (11, -1.79814808070659637451e-02) (12, 1.20630674064159393311e-01) (13, 7.63785362243652343750e-01) (14, 9.86397206783294677734e-01) (15, 3.05882841348648071289e-01) (16, 1.09292459487915039062e+00) (17, 9.26394820213317871094e-01) (18, -1.28585517406463623047e-01) (19, 4.94284212589263916016e-01) (20, 1.52737930417060852051e-01) (21, 4.33909803628921508789e-01) (22, 2.57797300815582275391e-01) (23, 1.93029060959815979004e-01) (24, -9.49707180261611938477e-02) (25, 1.10421866178512573242e-01) (26, -1.80875137448310852051e-02) (27, 1.28291890025138854980e-01) (28, 3.83133679628372192383e-01) (29, -1.72036424279212951660e-01) (30, 1.32705196738243103027e-02) (31, 4.30181920528411865234e-01) (32, 1.50000000000000000000e+03) (33, 8.09951186180114746094e-01) (34, 1.50000000000000000000e+03) (35, 9.08900022506713867188e-01) (36, 1.79363954067230224609e+00) (37, 1.50000000000000000000e+03) (38, 1.22749440371990203857e-01) (39, 1.54279805719852447510e-02) (40, -1.20952107012271881104e-01) (41, 8.69450196623802185059e-02) (42, -4.27051521837711334229e-02) (43, 4.18386757373809814453e-01) (44, 3.24734240770339965820e-01) (45, 2.29835584759712219238e-01) (46, 1.31354641914367675781e+00) (47, 8.52218508720397949219e-01) (48, 1.72114953398704528809e-01) (49, 6.45559132099151611328e-01) (50, 2.14703567326068878174e-02) (51, 1.81988984346389770508e-01) (52, 8.14208865165710449219e-01) (53, 8.23325395584106445312e-01) (54, 6.30478501319885253906e-01) (55, 1.48615524172782897949e-01) (56, 1.50000000000000000000e+03) (57, 1.15954160690307617188e-01) (58, 1.50000000000000000000e+03) (59, 2.78765588998794555664e-01) (60, -1.43966048955917358398e-01) (61, 1.38622403144836425781e+00) (62, 3.25458824634552001953e-01) (63, 7.02413395047187805176e-02) (64, 3.71800772845745086670e-02) (65, -3.42458367347717285156e-01) (66, 5.56570649147033691406e-01) (67, 1.09546862542629241943e-01) (68, 6.15992784500122070312e-01) (69, 4.51118528842926025391e-01) (70, 2.01385840773582458496e-02) (71, 3.80020558834075927734e-01) (72, 5.36991715431213378906e-01) (73, 3.87228101491928100586e-01) (74, 4.95816141366958618164e-01) (75, 1.85592491179704666138e-02) (76, -1.80472552776336669922e-01) (77, 3.55340480804443359375e-01) (78, 4.00853633880615234375e-01) (79, 2.03906983137130737305e-01) (80, 1.99709549546241760254e-01) (81, 5.53115606307983398438e-01) (82, 4.30512607097625732422e-01) (83, 5.69905817508697509766e-01) (84, 2.41592928767204284668e-01) (85, 2.91386038064956665039e-01) (86, 8.90061557292938232422e-01) (87, 1.50000000000000000000e+03) (88, 2.08117976784706115723e-01) (89, 2.20656201243400573730e-01) (90, 8.50926816463470458984e-01) (91, -1.90274477005004882812e-01) (92, 1.85154929757118225098e-01) (93, 8.84757101535797119141e-01) (94, 4.03302699327468872070e-01) (95, 1.50000000000000000000e+03) (96, 4.71863895654678344727e-01) (97, 4.69451713562011718750e+00) (98, 5.62689960002899169922e-01) (99, 1.31349250674247741699e-01) (100, 5.84225803613662719727e-02) (101, 1.50000000000000000000e+03) (102, 1.50000000000000000000e+03) (103, 2.69838660955429077148e-01) (104, 5.15104830265045166016e-02) (105, 1.80985957384109497070e-01) (106, 2.14245859533548355103e-02) (107, 1.08784390613436698914e-02) (108, 3.33081454038619995117e-01) (109, 1.77827918529510498047e+00) (110, 3.77409934997558593750e-01) (111, 1.91237807273864746094e-01) (112, 5.79187631607055664062e-01) (113, -1.39143452048301696777e-01) (114, 3.35967183113098144531e-01) (115, 2.37141221761703491211e-01) (116, 3.88332426548004150391e-01) (117, 2.20533460378646850586e-02) (118, 2.40407466888427734375e-01) (119, 4.53744024038314819336e-01) (120, 6.90764009952545166016e-01) (121, 4.00495678186416625977e-01) (122, -1.78043439984321594238e-01) (123, 4.03251111507415771484e-01) (124, 2.50162005424499511719e-01) (125, 9.15938794612884521484e-01) (0, 2.61557638645172119141e-01) (1, 3.98884266614913940430e-01) (2, 4.72458422183990478516e-01) (3, 4.88891869783401489258e-01) (4, 4.63777035474777221680e-01) (5, 1.08891582489013671875e+00) (6, 5.05906701087951660156e-01) (7, 5.38952589035034179688e-01) (8, 4.40514832735061645508e-01) (9, 7.02500820159912109375e-01) (10, 4.19663369655609130859e-01) (11, 4.84180063009262084961e-01) (12, 9.89632844924926757812e-01) (13, 4.47638332843780517578e-01) (14, 4.21073317527770996094e-01) (15, 5.91504395008087158203e-01) (16, 4.32426095008850097656e-01) (17, 4.69333052635192871094e-01) (18, 2.57518053054809570312e-01) (19, 4.89545911550521850586e-01) (20, 4.08989161252975463867e-01) (21, 3.85212570428848266602e-01) (22, 4.63150620460510253906e-01) (23, 3.21940541267395019531e-01) (24, 4.56311255693435668945e-01) (25, 4.78812754154205322266e-01) (26, 4.15903747081756591797e-01) (27, 5.60861289501190185547e-01) (28, 3.89986604452133178711e-01) (29, 5.87391674518585205078e-01) (30, 4.85483169555664062500e-01) (31, 3.21210771799087524414e-01) (32, 1.50000000000000000000e+03) (33, 4.15139585733413696289e-01) (34, 1.50000000000000000000e+03) (35, 5.55963456630706787109e-01) (36, 2.10763782262802124023e-01) (37, 1.50000000000000000000e+03) (38, 5.82238435745239257812e-01) (39, 4.20712560415267944336e-01) (40, 3.35894495248794555664e-01) (41, 4.77904438972473144531e-01) (42, 4.11828905344009399414e-01) (43, 4.16393458843231201172e-01) (44, 3.28377842903137207031e-01) (45, 8.38938653469085693359e-01) (46, 1.48823940753936767578e+00) (47, 3.09259504079818725586e-01) (48, 3.68590980768203735352e-01) (49, 6.41031801700592041016e-01) (50, 2.91659086942672729492e-01) (51, 4.20193523168563842773e-01) (52, 5.49774765968322753906e-01) (53, 4.02519047260284423828e-01) (54, 3.23724538087844848633e-01) (55, 4.23261314630508422852e-01) (56, 1.50000000000000000000e+03) (57, 4.58640962839126586914e-01) (58, 1.50000000000000000000e+03) (59, 2.45454728603363037109e-01) (60, 3.68105173110961914062e-01) (61, 4.83812451362609863281e-01) (62, 3.90127390623092651367e-01) (63, 3.83087009191513061523e-01) (64, 4.77807939052581787109e-01) (65, 4.12411689758300781250e-01) (66, 3.92876952886581420898e-01) (67, 2.49863877892494201660e-01) (68, 6.02507591247558593750e-01) (69, 4.19950604438781738281e-01) (70, 4.70344483852386474609e-01) (71, 5.81264019012451171875e-01) (72, 3.04561316967010498047e-01) (73, 4.97579038143157958984e-01) (74, 4.49065029621124267578e-01) (75, 3.68586331605911254883e-01) (76, 4.61488246917724609375e-01) (77, -2.06117439270019531250e+00) (78, 4.00054872035980224609e-01) (79, 5.50705850124359130859e-01) (80, 5.02604186534881591797e-01) (81, 3.04404675960540771484e-01) (82, 4.80630099773406982422e-01) (83, 5.49118041992187500000e-01) (84, 3.76844882965087890625e-01) (85, 5.34193158149719238281e-01) (86, 4.61150646209716796875e-01) (87, 1.50000000000000000000e+03) (88, 4.51693356037139892578e-01) (89, 3.65322828292846679688e-01) (90, 4.30384427309036254883e-01) (91, 3.96803855895996093750e-01) (92, 5.01263678073883056641e-01) (93, 3.26771229505538940430e-01) (94, 5.17711520195007324219e-01) (95, 1.50000000000000000000e+03) (96, 3.41446131467819213867e-01) (97, 2.78122097253799438477e-01) (98, 5.29291331768035888672e-01) (99, 5.30322670936584472656e-01) (100, 3.21199655532836914062e-01) (101, 1.50000000000000000000e+03) (102, 1.50000000000000000000e+03) (103, 4.57741588354110717773e-01) (104, 3.16538989543914794922e-01) (105, 4.05773848295211791992e-01) (106, 3.80534082651138305664e-01) (107, 7.38159537315368652344e-01) (108, 3.34892392158508300781e-01) (109, 5.59946119785308837891e-01) (110, 4.61894571781158447266e-01) (111, 3.93900841474533081055e-01) (112, 7.16718912124633789062e-01) (113, 3.67501288652420043945e-01) (114, 3.43133836984634399414e-01) (115, 3.66619676351547241211e-01) (116, 4.50391322374343872070e-01) (117, 6.68270528316497802734e-01) (118, 5.56309759616851806641e-01) (119, 6.38878941535949707031e-01) (120, 6.27251803874969482422e-01) (121, 4.97968137264251708984e-01) (122, -5.46248912811279296875e-01) (123, 3.05826604366302490234e-01) (124, 5.98893642425537109375e-01) (125, 4.41831618547439575195e-01) (0, -3.81505459547042846680e-01) (1, 