FANN_FLO_2.1
num_layers=4
learning_rate=0.700000
connection_rate=1.000000
network_type=0
learning_momentum=0.400000
training_algorithm=0
train_error_function=1
train_stop_function=0
cascade_output_change_fraction=0.010000
quickprop_decay=-0.000100
quickprop_mu=1.750000
rprop_increase_factor=1.200000
rprop_decrease_factor=0.500000
rprop_delta_min=0.000000
rprop_delta_max=50.000000
rprop_delta_zero=0.100000
cascade_output_stagnation_epochs=12
cascade_candidate_change_fraction=0.010000
cascade_candidate_stagnation_epochs=12
cascade_max_out_epochs=150
cascade_min_out_epochs=50
cascade_max_cand_epochs=150
cascade_min_cand_epochs=50
cascade_num_candidate_groups=2
bit_fail_limit=3.49999994039535522461e-01
cascade_candidate_limit=1.00000000000000000000e+03
cascade_weight_multiplier=4.00000005960464477539e-01
cascade_activation_functions_count=10
cascade_activation_functions=3 5 7 8 10 11 14 15 16 17 
cascade_activation_steepnesses_count=4
cascade_activation_steepnesses=2.50000000000000000000e-01 5.00000000000000000000e-01 7.50000000000000000000e-01 1.00000000000000000000e+00 
layer_sizes=49 97 97 4 
scale_included=0
neurons (num_inputs, activation_function, activation_steepness)=(0, 0, 0.00000000000000000000e+00) (0, 0, 0.00000000000000000000e+00) (0, 0, 0.00000000000000000000e+00) (0, 0, 0.00000000000000000000e+00) (0, 0, 0.00000000000000000000e+00) (0, 0, 0.00000000000000000000e+00) (0, 0, 0.00000000000000000000e+00) (0, 0, 0.00000000000000000000e+00) (0, 0, 0.00000000000000000000e+00) (0, 0, 0.00000000000000000000e+00) (0, 0, 0.00000000000000000000e+00) (0, 0, 0.00000000000000000000e+00) (0, 0, 0.00000000000000000000e+00) (0, 0, 0.00000000000000000000e+00) (0, 0, 0.00000000000000000000e+00) (0, 0, 0.00000000000000000000e+00) (0, 0, 0.00000000000000000000e+00) (0, 0, 0.00000000000000000000e+00) (0, 0, 0.00000000000000000000e+00) (0, 0, 0.00000000000000000000e+00) (0, 0, 0.00000000000000000000e+00) (0, 0, 0.00000000000000000000e+00) (0, 0, 0.00000000000000000000e+00) (0, 0, 0.00000000000000000000e+00) (0, 0, 0.00000000000000000000e+00) (0, 0, 0.00000000000000000000e+00) (0, 0, 0.00000000000000000000e+00) (0, 0, 0.00000000000000000000e+00) (0, 0, 0.00000000000000000000e+00) (0, 0, 0.00000000000000000000e+00) (0, 0, 0.00000000000000000000e+00) (0, 0, 0.00000000000000000000e+00) (0, 0, 0.00000000000000000000e+00) (0, 0, 0.00000000000000000000e+00) (0, 0, 0.00000000000000000000e+00) (0, 0, 0.00000000000000000000e+00) (0, 0, 0.00000000000000000000e+00) (0, 0, 0.00000000000000000000e+00) (0, 0, 0.00000000000000000000e+00) (0, 0, 0.00000000000000000000e+00) (0, 0, 0.00000000000000000000e+00) (0, 0, 0.00000000000000000000e+00) (0, 0, 0.00000000000000000000e+00) (0, 0, 0.00000000000000000000e+00) (0, 0, 0.00000000000000000000e+00) (0, 0, 0.00000000000000000000e+00) (0, 0, 0.00000000000000000000e+00) (0, 0, 0.00000000000000000000e+00) (0, 0, 0.00000000000000000000e+00) (49, 4, 5.00000000000000000000e-01) (49, 4, 5.00000000000000000000e-01) (49, 4, 5.00000000000000000000e-01) (49, 4, 5.00000000000000000000e-01) (49, 4, 5.00000000000000000000e-01) (49, 4, 5.00000000000000000000e-01) (49, 4, 5.00000000000000000000e-01) (49, 4, 5.00000000000000000000e-01) (49, 4, 5.00000000000000000000e-01) (49, 4, 5.00000000000000000000e-01) (49, 4, 5.00000000000000000000e-01) (49, 4, 5.00000000000000000000e-01) (49, 4, 5.00000000000000000000e-01) (49, 4, 5.00000000000000000000e-01) (49, 4, 5.00000000000000000000e-01) (49, 4, 5.00000000000000000000e-01) (49, 4, 5.00000000000000000000e-01) (49, 4, 5.00000000000000000000e-01) (49, 4, 5.00000000000000000000e-01) (49, 4, 5.00000000000000000000e-01) (49, 4, 5.00000000000000000000e-01) (49, 4, 5.00000000000000000000e-01) (49, 4, 5.00000000000000000000e-01) (49, 4, 5.00000000000000000000e-01) (49, 4, 5.00000000000000000000e-01) (49, 4, 5.00000000000000000000e-01) (49, 4, 5.00000000000000000000e-01) (49, 4, 5.00000000000000000000e-01) (49, 4, 5.00000000000000000000e-01) (49, 4, 5.00000000000000000000e-01) (49, 4, 5.00000000000000000000e-01) (49, 4, 5.00000000000000000000e-01) (49, 4, 5.00000000000000000000e-01) (49, 4, 5.00000000000000000000e-01) (49, 4, 5.00000000000000000000e-01) (49, 4, 5.00000000000000000000e-01) (49, 4, 5.00000000000000000000e-01) (49, 4, 5.00000000000000000000e-01) (49, 4, 5.00000000000000000000e-01) (49, 4, 5.00000000000000000000e-01) (49, 4, 5.00000000000000000000e-01) (49, 4, 5.00000000000000000000e-01) (49, 4, 5.00000000000000000000e-01) (49, 4, 5.00000000000000000000e-01) (49, 4, 5.00000000000000000000e-01) (49, 4, 5.00000000000000000000e-01) (49, 4, 5.00000000000000000000e-01) (49, 4, 5.00000000000000000000e-01) (49, 4, 5.00000000000000000000e-01) (49, 4, 5.00000000000000000000e-01) (49, 4, 5.00000000000000000000e-01) (49, 4, 5.00000000000000000000e-01) (49, 4, 5.00000000000000000000e-01) (49, 4, 5.00000000000000000000e-01) (49, 4, 5.00000000000000000000e-01) (49, 4, 5.00000000000000000000e-01) (49, 4, 5.00000000000000000000e-01) (49, 4, 5.00000000000000000000e-01) (49, 4, 5.00000000000000000000e-01) (49, 4, 5.00000000000000000000e-01) (49, 4, 5.00000000000000000000e-01) (49, 4, 5.00000000000000000000e-01) (49, 4, 5.00000000000000000000e-01) (49, 4, 5.00000000000000000000e-01) (49, 4, 5.00000000000000000000e-01) (49, 4, 5.00000000000000000000e-01) (49, 4, 5.00000000000000000000e-01) (49, 4, 5.00000000000000000000e-01) (49, 4, 5.00000000000000000000e-01) (49, 4, 5.00000000000000000000e-01) (49, 4, 5.00000000000000000000e-01) (49, 4, 5.00000000000000000000e-01) (49, 4, 5.00000000000000000000e-01) (49, 4, 5.00000000000000000000e-01) (49, 4, 5.00000000000000000000e-01) (49, 4, 5.00000000000000000000e-01) (49, 4, 5.00000000000000000000e-01) (49, 4, 5.00000000000000000000e-01) (49, 4, 5.00000000000000000000e-01) (49, 4, 5.00000000000000000000e-01) (49, 4, 5.00000000000000000000e-01) (49, 4, 5.00000000000000000000e-01) (49, 4, 5.00000000000000000000e-01) (49, 4, 5.00000000000000000000e-01) (49, 4, 5.00000000000000000000e-01) (49, 4, 5.00000000000000000000e-01) (49, 4, 5.00000000000000000000e-01) (49, 4, 5.00000000000000000000e-01) (49, 4, 5.00000000000000000000e-01) (49, 4, 5.00000000000000000000e-01) (49, 4, 5.00000000000000000000e-01) (49, 4, 5.00000000000000000000e-01) (49, 4, 5.00000000000000000000e-01) (49, 4, 5.00000000000000000000e-01) (49, 4, 5.00000000000000000000e-01) (49, 4, 5.00000000000000000000e-01) (0, 0, 0.00000000000000000000e+00) (97, 4, 5.00000000000000000000e-01) (97, 4, 5.00000000000000000000e-01) (97, 4, 5.00000000000000000000e-01) (97, 4, 5.00000000000000000000e-01) (97, 4, 5.00000000000000000000e-01) (97, 4, 5.00000000000000000000e-01) (97, 4, 5.00000000000000000000e-01) (97, 4, 5.00000000000000000000e-01) (97, 4, 5.00000000000000000000e-01) (97, 4, 5.00000000000000000000e-01) (97, 4, 5.00000000000000000000e-01) (97, 4, 5.00000000000000000000e-01) (97, 4, 5.00000000000000000000e-01) (97, 4, 5.00000000000000000000e-01) (97, 4, 5.00000000000000000000e-01) (97, 4, 5.00000000000000000000e-01) (97, 4, 5.00000000000000000000e-01) (97, 4, 5.00000000000000000000e-01) (97, 4, 5.00000000000000000000e-01) (97, 4, 5.00000000000000000000e-01) (97, 4, 5.00000000000000000000e-01) (97, 4, 5.00000000000000000000e-01) (97, 4, 5.00000000000000000000e-01) (97, 4, 5.00000000000000000000e-01) (97, 4, 5.00000000000000000000e-01) (97, 4, 5.00000000000000000000e-01) (97, 4, 5.00000000000000000000e-01) (97, 4, 5.00000000000000000000e-01) (97, 4, 5.00000000000000000000e-01) (97, 4, 5.00000000000000000000e-01) (97, 4, 5.00000000000000000000e-01) (97, 4, 5.00000000000000000000e-01) (97, 4, 5.00000000000000000000e-01) (97, 4, 5.00000000000000000000e-01) (97, 4, 5.00000000000000000000e-01) (97, 4, 5.00000000000000000000e-01) (97, 4, 5.00000000000000000000e-01) (97, 4, 5.00000000000000000000e-01) (97, 4, 5.00000000000000000000e-01) (97, 4, 5.00000000000000000000e-01) (97, 4, 5.00000000000000000000e-01) (97, 4, 5.00000000000000000000e-01) (97, 4, 5.00000000000000000000e-01) (97, 4, 5.00000000000000000000e-01) (97, 4, 5.00000000000000000000e-01) (97, 4, 5.00000000000000000000e-01) (97, 4, 5.00000000000000000000e-01) (97, 4, 5.00000000000000000000e-01) (97, 4, 5.00000000000000000000e-01) (97, 4, 5.00000000000000000000e-01) (97, 4, 5.00000000000000000000e-01) (97, 4, 5.00000000000000000000e-01) (97, 4, 5.00000000000000000000e-01) (97, 4, 5.00000000000000000000e-01) (97, 4, 5.00000000000000000000e-01) (97, 4, 5.00000000000000000000e-01) (97, 4, 5.00000000000000000000e-01) (97, 4, 5.00000000000000000000e-01) (97, 4, 5.00000000000000000000e-01) (97, 4, 5.00000000000000000000e-01) (97, 4, 5.00000000000000000000e-01) (97, 4, 5.00000000000000000000e-01) (97, 4, 5.00000000000000000000e-01) (97, 4, 5.00000000000000000000e-01) (97, 4, 5.00000000000000000000e-01) (97, 4, 5.00000000000000000000e-01) (97, 4, 5.00000000000000000000e-01) (97, 4, 5.00000000000000000000e-01) (97, 4, 5.00000000000000000000e-01) (97, 4, 5.00000000000000000000e-01) (97, 4, 5.00000000000000000000e-01) (97, 4, 5.00000000000000000000e-01) (97, 4, 5.00000000000000000000e-01) (97, 4, 5.00000000000000000000e-01) (97, 4, 5.00000000000000000000e-01) (97, 4, 5.00000000000000000000e-01) (97, 4, 5.00000000000000000000e-01) (97, 4, 5.00000000000000000000e-01) (97, 4, 5.00000000000000000000e-01) (97, 4, 5.00000000000000000000e-01) (97, 4, 5.00000000000000000000e-01) (97, 4, 5.00000000000000000000e-01) (97, 4, 5.00000000000000000000e-01) (97, 4, 5.00000000000000000000e-01) (97, 4, 5.00000000000000000000e-01) (97, 4, 5.00000000000000000000e-01) (97, 4, 5.00000000000000000000e-01) (97, 4, 5.00000000000000000000e-01) (97, 4, 5.00000000000000000000e-01) (97, 4, 5.00000000000000000000e-01) (97, 4, 5.00000000000000000000e-01) (97, 4, 5.00000000000000000000e-01) (97, 4, 5.00000000000000000000e-01) (97, 4, 5.00000000000000000000e-01) (97, 4, 5.00000000000000000000e-01) (97, 4, 5.00000000000000000000e-01) (0, 0, 0.00000000000000000000e+00) (97, 4, 5.00000000000000000000e-01) (97, 4, 5.00000000000000000000e-01) (97, 4, 5.00000000000000000000e-01) (0, 0, 0.00000000000000000000e+00) 
connections (connected_to_neuron, weight)=(0, 4.72269356250762939453e-01) (1, 7.80334651470184326172e-01) (2, 3.08225452899932861328e-01) (3, 9.59403872489929199219e-01) (4, 4.97283011674880981445e-01) (5, 6.81900918483734130859e-01) (6, -4.26557332277297973633e-01) (7, 3.06052505970001220703e-01) (8, 5.40969312191009521484e-01) (9, 5.79844236373901367188e-01) (10, 5.48266954720020294189e-02) (11, -2.34913706779479980469e-01) (12, 1.06880855560302734375e+00) (13, 9.75101590156555175781e-01) (14, 8.08314561843872070312e-01) (15, 2.46654704213142395020e-01) (16, -1.62159055471420288086e-01) (17, -9.43692505359649658203e-01) (18, -5.09407043457031250000e-01) (19, 6.63479089736938476562e-01) (20, -6.77670955657958984375e-01) (21, 7.17486143112182617188e-01) (22, 7.86546543240547180176e-02) (23, 6.14491164684295654297e-01) (24, -1.35072600841522216797e+00) (25, -7.96604394912719726562e-01) (26, -7.30694115161895751953e-01) (27, -3.73368233442306518555e-01) (28, 3.27103555202484130859e-01) (29, 1.96539118885993957520e-01) (30, 7.90371477603912353516e-01) (31, 3.58101755380630493164e-01) (32, -2.50056743621826171875e-01) (33, -1.52833139896392822266e+00) (34, -9.36245620250701904297e-01) (35, -1.60392808914184570312e+00) (36, -1.54021370410919189453e+00) (37, -1.23868118971586227417e-02) (38, 6.49960815906524658203e-01) (39, 1.11913406848907470703e+00) (40, -6.41632318496704101562e-01) (41, -7.67792344093322753906e-01) (42, -1.34203386306762695312e+00) (43, -1.60781574249267578125e+00) (44, -8.04445207118988037109e-01) (45, -1.04337382316589355469e+00) (46, 1.24522157013416290283e-01) (47, 1.60829555988311767578e+00) (48, -1.73748886585235595703e+00) (0, -6.53153285384178161621e-02) (1, 1.42599061131477355957e-01) (2, 9.38058868050575256348e-02) (3, -1.43257468938827514648e-01) (4, -1.82743489742279052734e-01) (5, 5.78838586807250976562e-02) (6, -9.70126762986183166504e-02) (7, -1.87886893749237060547e-01) (8, 7.03484341502189636230e-02) (9, -5.02661289647221565247e-03) (10, -1.72689288854598999023e-01) (11, -1.17139540612697601318e-01) (12, -1.87044262886047363281e-01) (13, -7.53925666213035583496e-02) (14, -5.02906404435634613037e-02) (15, 1.11896641552448272705e-01) (16, -1.59311994910240173340e-01) (17, -1.06918111443519592285e-01) (18, -1.95053711533546447754e-01) (19, 7.30607062578201293945e-02) (20, -4.35895860195159912109e-01) (21, -4.43020284175872802734e-01) (22, -5.43347299098968505859e-01) (23, -5.21775662899017333984e-01) (24, -1.32551677525043487549e-02) (25, -4.13004934787750244141e-01) (26, -1.65832728147506713867e-01) (27, -8.61192867159843444824e-02) (28, -3.43961238861083984375e-01) (29, -4.58010822534561157227e-01) (30, -5.77134490013122558594e-01) (31, -6.25122547149658203125e-01) (32, -3.09452325105667114258e-01) (33, -4.64709013700485229492e-01) (34, -3.42858642339706420898e-01) (35, -3.58767658472061157227e-01) (36, -3.11885774135589599609e-01) (37, -2.43324354290962219238e-01) (38, -3.90335381031036376953e-01) (39, -2.77489097788929939270e-03) (40, -1.23706378042697906494e-01) (41, -3.68928521871566772461e-01) (42, -3.08657944202423095703e-01) (43, -3.87493252754211425781e-01) (44, -3.53314012289047241211e-01) (45, -2.84579753875732421875e-01) (46, -1.06418579816818237305e-01) (47, 1.04498200118541717529e-01) (48, -4.53555494546890258789e-01) (0, 1.42387226223945617676e-02) (1, -9.97233092784881591797e-02) (2, -3.83777767419815063477e-01) (3, -2.08880111575126647949e-01) (4, -2.03582793474197387695e-01) (5, 6.29097819328308105469e-02) (6, 2.64471232891082763672e-01) (7, 1.70895144343376159668e-01) (8, -7.71408081054687500000e-02) (9, -3.61279547214508056641e-01) (10, -1.79485231637954711914e-01) (11, -1.41928836703300476074e-01) (12, 5.77628649771213531494e-02) (13, 2.16509312391281127930e-01) (14, 1.80183857679367065430e-01) (15, 2.71244078874588012695e-01) (16, -6.82266712188720703125e-01) (17, -3.53764444589614868164e-01) (18, -1.32279783487319946289e-01) (19, -1.16856940090656280518e-01) (20, -3.04721370339393615723e-02) (21, -2.04412266612052917480e-01) (22, -3.18654984235763549805e-01) (23, -6.30919635295867919922e-01) (24, -6.88940107822418212891e-01) (25, -4.25562888383865356445e-01) (26, -5.70097446441650390625e-01) (27, -2.20977932214736938477e-01) (28, -2.53719151020050048828e-01) (29, -8.52333828806877136230e-02) (30, -5.13815402984619140625e-01) (31, -5.06160318851470947266e-01) (32, -4.89716567099094390869e-02) (33, -4.74396854639053344727e-01) (34, -5.74138045310974121094e-01) (35, -5.37583112716674804688e-01) (36, -1.57473295927047729492e-01) (37, -3.98064136505126953125e-01) (38, -4.70357775688171386719e-01) (39, 7.86313228309154510498e-03) (40, 3.07311445474624633789e-01) (41, -2.66225069761276245117e-01) (42, 1.81286588311195373535e-01) (43, -6.84721708297729492188e-01) (44, -2.32318595051765441895e-01) (45, -3.88227283954620361328e-01) (46, -5.27518987655639648438e-02) (47, 1.29969462752342224121e-01) (48, -4.46578621864318847656e-01) (0, 1.37879818677902221680e-01) (1, 7.86664560437202453613e-02) (2, -2.85353139042854309082e-02) (3, 2.84014251083135604858e-02) (4, -1.62717983126640319824e-01) (5, -4.26108539104461669922e-02) (6, -6.43474562093615531921e-03) (7, -2.03406020998954772949e-01) (8, 1.45114302635192871094e-01) (9, -1.00601308047771453857e-01) (10, -1.77479535341262817383e-01) (11, -1.89057871699333190918e-01) (12, 1.03648677468299865723e-01) (13, 3.12218498438596725464e-02) (14, 1.05706989765167236328e-01) (15, 2.27900035679340362549e-03) (16, -7.51388147473335266113e-02) (17, -3.76157090067863464355e-02) (18, -1.99046745896339416504e-01) (19, -5.55854812264442443848e-02) (20, -7.84484595060348510742e-02) (21, -2.87812769412994384766e-01) (22, -3.38870108127593994141e-01) (23, -4.42119091749191284180e-01) (24, -1.90536290407180786133e-01) (25, -2.90445536375045776367e-01) (26, -1.07358522713184356689e-01) (27, -1.68498724699020385742e-01) (28, -4.92154024541378021240e-02) (29, -3.40372771024703979492e-01) (30, -2.52243101596832275391e-01) (31, -3.42304676771163940430e-01) (32, -9.39408466219902038574e-02) (33, -3.18699806928634643555e-01) (34, -2.75993257761001586914e-01) (35, -3.09791445732116699219e-01) (36, -2.16710418462753295898e-01) (37, -2.93599218130111694336e-01) (38, -4.65498924255371093750e-01) (39, 8.82170498371124267578e-02) (40, -1.27730250358581542969e-01) (41, -1.82179972529411315918e-01) (42, -2.14702919125556945801e-01) (43, -2.96885341405868530273e-01) (44, -1.89712315797805786133e-01) (45, -1.30447447299957275391e-01) (46, 6.56726360321044921875e-02) (47, 1.40834763646125793457e-01) (48, -5.37726998329162597656e-01) (0, 1.01076759397983551025e-01) (1, 9.28729996085166931152e-02) (2, -1.80959999561309814453e-01) (3, -1.94838032126426696777e-01) (4, -2.38704979419708251953e-01) (5, 9.62165594100952148438e-02) (6, 8.74037370085716247559e-02) (7, -4.55389060080051422119e-02) (8, 5.60318902134895324707e-02) (9, -1.34455293416976928711e-01) (10, -3.47684085369110107422e-01) (11, -1.38821899890899658203e-01) (12, 1.13809213042259216309e-01) (13, 4.33689132332801818848e-02) (14, 1.29597753286361694336e-01) (15, 3.25989127159118652344e-01) (16, -2.85299360752105712891e-01) (17, -3.61079365015029907227e-01) (18, -3.27072948217391967773e-01) (19, -4.23493497073650360107e-02) (20, -1.43955066800117492676e-01) (21, -3.83165657520294189453e-01) (22, -4.93021756410598754883e-01) (23, -6.41994714736938476562e-01) (24, -4.43973422050476074219e-01) (25, -3.86939287185668945312e-01) (26, -4.35771673917770385742e-01) (27, -1.34268596768379211426e-01) (28, -2.47985765337944030762e-01) (29, -2.83845514059066772461e-01) (30, -6.06990337371826171875e-01) (31, -6.33518517017364501953e-01) (32, -1.98777809739112854004e-01) (33, -5.18772184848785400391e-01) (34, -5.10191619396209716797e-01) (35, -6.11730277538299560547e-01) (36, -1.97933584451675415039e-01) (37, -2.78281152248382568359e-01) (38, -5.99760055541992187500e-01) (39, 1.34098976850509643555e-01) (40, 4.73142229020595550537e-02) (41, -2.79020786285400390625e-01) (42, -2.31975585222244262695e-01) (43, -5.38231611251831054688e-01) (44, -2.66088932752609252930e-01) (45, -2.92000472545623779297e-01) (46, 8.42115469276905059814e-03) (47, 1.35746076703071594238e-01) (48, -4.39153403043746948242e-01) (0, 1.46139696240425109863e-01) (1, 1.58408164978027343750e-01) (2, -4.19368296861648559570e-02) (3, -1.18430860340595245361e-01) (4, -1.95694953203201293945e-01) (5, 1.00252397358417510986e-01) (6, -1.01193052250891923904e-03) (7, -6.06695190072059631348e-02) (8, 2.83793032169342041016e-01) (9, -1.16867013275623321533e-02) (10, -2.79378861188888549805e-01) (11, -1.70829400420188903809e-01) (12, 5.79869933426380157471e-02) (13, 1.35919302701950073242e-01) (14, 1.04792632162570953369e-01) (15, 1.35706707835197448730e-01) (16, -2.08668828010559082031e-01) (17, -1.42912700772285461426e-01) (18, -3.90735775232315063477e-01) (19, -1.37815505266189575195e-01) (20, -3.23134846985340118408e-02) (21, -2.35733732581138610840e-01) (22, -3.63036334514617919922e-01) (23, -6.00532412528991699219e-01) (24, -1.86460420489311218262e-01) (25, -4.11773979663848876953e-01) (26, -2.28177785873413085938e-01) (27, -2.54420608282089233398e-01) (28, -2.57119864225387573242e-01) (29, -2.24613398313522338867e-01) (30, -4.39505189657211303711e-01) (31, -4.47410374879837036133e-01) (32, -1.53772607445716857910e-01) (33, -3.42656552791595458984e-01) (34, -5.47290086746215820312e-01) (35, -6.57981395721435546875e-01) (36, -2.60024636983871459961e-01) (37, -2.87262707948684692383e-01) (38, -3.34944456815719604492e-01) (39, 3.45611162483692169189e-02) (40, -1.11666649580001831055e-01) (41, -3.24520975351333618164e-01) (42, -3.14090609550476074219e-01) (43, -5.17711579799652099609e-01) (44, -2.86580264568328857422e-01) (45, -1.10590152442455291748e-01) (46, 6.77254721522331237793e-02) (47, 2.98449784517288208008e-01) (48, -4.57777500152587890625e-01) (0, 2.28935018181800842285e-01) (1, -2.43901059031486511230e-01) (2, -1.36488258838653564453e-01) (3, -5.42615465819835662842e-02) (4, -5.08233867585659027100e-02) (5, 3.03392186760902404785e-02) (6, -1.20747508481144905090e-02) (7, -1.06388017535209655762e-01) (8, 2.14778065681457519531e-01) (9, -3.80304127931594848633e-01) (10, -1.68978422880172729492e-01) (11, -1.39419764280319213867e-01) (12, 2.29795631021261215210e-02) (13, -8.41101855039596557617e-02) (14, 1.89093396067619323730e-01) (15, -3.14329825341701507568e-02) (16, -2.74258196353912353516e-01) (17, -7.26012587547302246094e-01) (18, -3.33223432302474975586e-01) (19, -2.34074056148529052734e-01) (20, -1.66317060589790344238e-01) (21, -4.03957277536392211914e-01) (22, -3.64206850528717041016e-01) (23, -1.82090669870376586914e-01) (24, -5.16690850257873535156e-01) (25, -6.78247809410095214844e-01) (26, -5.54584264755249023438e-01) (27, -3.25670301914215087891e-01) (28, -3.69642138481140136719e-01) (29, -3.47977727651596069336e-01) (30, -1.30633994936943054199e-01) (31, -1.30529746413230895996e-01) (32, -4.92810457944869995117e-02) (33, -7.00795769691467285156e-01) (34, -4.75193411111831665039e-01) (35, -4.51344817876815795898e-01) (36, -4.76680457592010498047e-01) (37, -2.93952971696853637695e-01) (38, -2.24734142422676086426e-01) (39, 1.89123421907424926758e-01) (40, 1.87909841537475585938e-01) (41, -3.66773575544357299805e-01) (42, -4.48208808898925781250e-01) (43, -3.54220449924468994141e-01) (44, -4.47084069252014160156e-01) (45, -1.76747113466262817383e-01) (46, -1.02341463789343833923e-02) (47, 2.46333688497543334961e-01) (48, -6.44479215145111083984e-01) (0, 2.80287921428680419922e-01) (1, 2.49851018190383911133e-01) (2, 1.30845800042152404785e-01) (3, 1.90677359700202941895e-01) (4, -4.34206992387771606445e-01) (5, -1.59857586026191711426e-01) (6, -3.00506800413131713867e-01) (7, -1.80293932557106018066e-01) (8, 9.97109293937683105469e-01) (9, 1.49511918425559997559e-01) (10, -6.68143630027770996094e-02) (11, -2.49838396906852722168e-01) (12, -6.45697414875030517578e-01) (13, 2.21605300903320312500e-01) (14, 2.70624309778213500977e-01) (15, -9.57812964916229248047e-01) (16, 8.56111705303192138672e-01) (17, 2.49561935663223266602e-01) (18, -3.94552826881408691406e-01) (19, -2.51607596874237060547e-01) (20, -9.81755971908569335938e-01) (21, -9.83168259263038635254e-02) (22, -3.89711916446685791016e-01) (23, -5.98399490118026733398e-02) (24, 6.51626765727996826172e-01) (25, 5.22791087627410888672e-01) (26, 3.39600771665573120117e-01) (27, 3.66427749395370483398e-01) (28, 1.29758864641189575195e-02) (29, -1.62111669778823852539e-01) (30, -4.67534244060516357422e-01) (31, -3.14674139022827148438e-01) (32, -3.69270294904708862305e-01) (33, 1.01838916540145874023e-01) (34, 2.95376451686024665833e-03) (35, -3.58353525400161743164e-01) (36, -2.37254858016967773438e-01) (37, -9.14606302976608276367e-02) (38, -2.68180340528488159180e-01) (39, 3.32519821822643280029e-02) (40, -4.20979678630828857422e-01) (41, -5.08384644985198974609e-01) (42, -2.36423343420028686523e-01) (43, -1.53526231646537780762e-01) (44, 4.88700956106185913086e-01) (45, 8.77930372953414916992e-02) (46, 4.14181709289550781250e-01) (47, 2.92421519756317138672e-01) (48, -2.68864274024963378906e-01) (0, 5.72298243641853332520e-02) (1, 9.53165963292121887207e-02) (2, 4.98140715062618255615e-02) (3, -7.28930830955505371094e-02) (4, -5.44006936252117156982e-02) (5, 2.82751899212598800659e-02) (6, 4.60282899439334869385e-02) (7, -1.25311657786369323730e-01) (8, 1.49500191211700439453e-01) (9, -8.74549522995948791504e-02) (10, -1.20768286287784576416e-01) (11, -1.78445935249328613281e-01) (12, 3.84502038359642028809e-02) (13, -1.57343789935111999512e-01) (14, -3.52744641713798046112e-03) (15, 7.50750377774238586426e-02) (16, -1.85976698994636535645e-01) (17, -1.83820202946662902832e-01) (18, -3.10018032789230346680e-01) (19, 6.61923587322235107422e-02) (20, -2.61065453290939331055e-01) (21, -2.53500223159790039062e-01) (22, -4.02106463909149169922e-01) (23, -4.61405843496322631836e-01) (24, 1.68315172195434570312e-02) (25, -3.35316121578216552734e-01) (26, -2.36394405364990234375e-01) (27, -3.35755571722984313965e-02) (28, -1.44811332225799560547e-01) (29, -2.94135898351669311523e-01) (30, -3.82074147462844848633e-01) (31, -6.09293878078460693359e-01) (32, -3.68143767118453979492e-01) (33, -3.73941928148269653320e-01) (34, -3.08145910501480102539e-01) (35, -4.69382256269454956055e-01) (36, -1.86587765812873840332e-01) (37, -2.64214575290679931641e-01) (38, -4.66762572526931762695e-01) (39, 1.70403998345136642456e-02) (40, -3.08907568454742431641e-01) (41, -4.62989628314971923828e-01) (42, -3.14985603094100952148e-01) (43, -3.03246498107910156250e-01) (44, -2.68096208572387695312e-01) (45, -1.97023332118988037109e-01) (46, -4.49350960552692413330e-02) (47, 1.17820307612419128418e-01) (48, -4.89267140626907348633e-01) (0, -8.82856845855712890625e-02) (1, -4.26798075437545776367e-01) (2, -6.82073712348937988281e-01) (3, -2.74748593568801879883e-01) (4, -1.02625787258148193359e+00) (5, -4.44270014762878417969e-01) (6, 7.61698335409164428711e-02) (7, 5.55964887142181396484e-01) (8, 9.60070267319679260254e-02) (9, -7.27166593074798583984e-01) (10, -6.45524382591247558594e-01) (11, -1.33355677127838134766e-01) (12, -8.38834464550018310547e-01) (13, 4.36005204916000366211e-01) (14, 5.42810082435607910156e-01) (15, 4.14618253707885742188e-01) (16, -1.03023695945739746094e+00) (17, -1.01436817646026611328e+00) (18, -4.04394924640655517578e-01) (19, -5.45247077941894531250e-01) (20, -2.92353052645921707153e-02) (21, 4.04558628797531127930e-01) (22, 4.16800171136856079102e-01) (23, -8.76796543598175048828e-01) (24, -9.22653973102569580078e-01) (25, -4.97303098440170288086e-01) (26, -1.17037081718444824219e+00) (27, -8.14157485961914062500e-01) (28, 2.80202656984329223633e-01) (29, -1.07328377664089202881e-01) (30, -3.45145434141159057617e-01) (31, -7.10806787014007568359e-01) (32, -2.80855059623718261719e-01) (33, -1.19041776657104492188e+00) (34, -1.11689424514770507812e+00) (35, -6.95750951766967773438e-01) (36, 1.79194509983062744141e-01) (37, -1.78364440798759460449e-01) (38, 6.31066262722015380859e-02) (39, -2.94453561305999755859e-01) (40, 3.34525465965270996094e-01) (41, -7.10447072982788085938e-01) (42, 7.09144592285156250000e-01) (43, -1.50993442535400390625e+00) (44, -2.61845476925373077393e-02) (45, -9.37171205878257751465e-02) (46, 1.86380714178085327148e-01) (47, -3.89642752707004547119e-02) (48, -5.50475537776947021484e-01) (0, 4.70917373895645141602e-01) (1, 7.35641837120056152344e-01) (2, 3.90839040279388427734e-01) (3, -2.77930378913879394531e-01) (4, -1.15890467166900634766e+00) (5, -9.24863696098327636719e-01) (6, -6.24316930770874023438e-01) (7, -6.14644646644592285156e-01) (8, 1.04501080513000488281e+00) (9, 1.05405783653259277344e+00) (10, 1.64634078741073608398e-01) (11, 2.01860412955284118652e-01) (12, -1.24049222469329833984e+00) (13, -1.39253842830657958984e+00) (14, -8.14646601676940917969e-01) (15, -1.20083403587341308594e+00) (16, 1.08981847763061523438e+00) (17, 5.75415849685668945312e-01) (18, -2.64432579278945922852e-01) (19, -4.48372364044189453125e-01) (20, -5.98854541778564453125e-01) (21, -3.59667271375656127930e-01) (22, -2.99995869398117065430e-01) (23, -1.48649847507476806641e+00) (24, 1.08510494232177734375e+00) (25, 9.79270935058593750000e-01) (26, 6.04842603206634521484e-01) (27, 4.62142437696456909180e-01) (28, 8.43626260757446289062e-01) (29, -9.18134212493896484375e-01) (30, -4.62523847818374633789e-01) (31, -1.44801461696624755859e+00) (32, -1.47936069965362548828e+00) (33, 3.55721712112426757812e-01) (34, -1.70976072549819946289e-01) (35, -2.17054020613431930542e-02) (36, -5.15701353549957275391e-01) (37, -4.31881338357925415039e-01) (38, -1.57614529132843017578e-01) (39, -5.96616625785827636719e-01) (40, -1.10577261447906494141e+00) (41, -6.40218853950500488281e-01) (42, -1.33224740624427795410e-01) (43, 1.13377608358860015869e-01) (44, -6.26931846141815185547e-01) (45, 8.69349002838134765625e-01) (46, 4.41423654556274414062e-01) (47, 1.17955364286899566650e-01) (48, -3.88550937175750732422e-01) (0, 6.83087185025215148926e-02) (1, 1.97182357311248779297e-01) (2, 1.48723386228084564209e-02) (3, -1.43723130226135253906e-01) (4, -2.66699522733688354492e-01) (5, -1.94326817989349365234e-01) (6, -1.54059290885925292969e-01) (7, -1.55891880393028259277e-01) (8, 2.17307880520820617676e-01) (9, -2.37948130816221237183e-02) (10, -1.61407172679901123047e-01) (11, -1.26771837472915649414e-01) (12, -2.19170883297920227051e-01) (13, -1.38580650091171264648e-01) (14, -8.87203589081764221191e-02) (15, -2.95176833868026733398e-01) (16, 1.13898307085037231445e-01) (17, -5.39070256054401397705e-02) (18, -1.28703162074089050293e-01) (19, -1.77513789385557174683e-02) (20, -3.20555716753005981445e-01) (21, -2.67103254795074462891e-01) (22, -3.79696398973464965820e-01) (23, -2.79341399669647216797e-01) (24, 1.07861742377281188965e-01) (25, -1.24306336045265197754e-01) (26, -3.21545936167240142822e-02) (27, 2.68094260245561599731e-02) (28, -1.14247746765613555908e-01) (29, -3.30650657415390014648e-01) (30, -3.71314257383346557617e-01) (31, -1.83636948466300964355e-01) (32, -6.21343813836574554443e-02) (33, -1.26795977354049682617e-01) (34, -9.81151536107063293457e-02) (35, -3.12348872423171997070e-01) (36, -3.06326508522033691406e-01) (37, -3.73631785623729228973e-03) (38, -3.39286506175994873047e-01) (39, 3.48557569086551666260e-02) (40, -2.12796539068222045898e-01) (41, -1.41561344265937805176e-01) (42, -4.40342754125595092773e-01) (43, -9.66807901859283447266e-02) (44, -5.45382648706436157227e-02) (45, -1.84727832674980163574e-01) (46, -5.23671060800552368164e-02) (47, 7.39678964018821716309e-02) (48, -4.42551851272583007812e-01) (0, 2.83460821956396102905e-02) (1, -3.78755703568458557129e-02) (2, -1.88516959547996520996e-01) (3, -4.00259420275688171387e-02) (4, -2.30263337492942810059e-01) (5, -3.15848588943481445312e-02) (6, -6.88727572560310363770e-02) (7, 6.55328622087836265564e-03) (8, 1.43995061516761779785e-01) (9, -1.64741203188896179199e-01) (10, -8.92095640301704406738e-02) (11, -2.20524221658706665039e-02) (12, -3.33647370338439941406e-01) (13, 1.11659675836563110352e-01) (14, 5.59552758932113647461e-02) (15, -1.46991461515426635742e-01) (16, -3.07823508977890014648e-01) (17, -2.90904015302658081055e-01) (18, -2.36829861998558044434e-01) (19, -1.31031960248947143555e-01) (20, -1.95518255233764648438e-01) (21, -3.08662146329879760742e-01) (22, -4.56883668899536132812e-01) (23, -1.76544591784477233887e-01) (24, -4.32446390390396118164e-01) (25, -1.50519534945487976074e-01) (26, -3.20460647344589233398e-01) (27, -3.13322007656097412109e-01) (28, -3.58533412218093872070e-01) (29, -1.90952837467193603516e-01) (30, -2.45496943593025207520e-01) (31, -7.56662935018539428711e-02) (32, 1.05646349489688873291e-01) (33, -3.22584748268127441406e-01) (34, -4.43741530179977416992e-01) (35, -5.51936984062194824219e-01) (36, -1.77521869540214538574e-01) (37, -2.56067961454391479492e-01) (38, -1.75109848380088806152e-01) (39, -2.23353970795869827271e-02) (40, 2.40694165229797363281e-01) (41, -8.60971957445144653320e-02) (42, -2.54307299852371215820e-01) (43, -4.52500969171524047852e-01) (44, -2.15273082256317138672e-01) (45, -2.92549967765808105469e-01) (46, 9.50469672679901123047e-02) (47, 7.52701461315155029297e-02) (48, -4.59377378225326538086e-01) (0, 2.10791692137718200684e-01) (1, -2.95102093368768692017e-02) (2, -7.89079740643501281738e-02) (3, -1.16248838603496551514e-02) (4, -2.05466505140066146851e-02) (5, -1.24559374526143074036e-02) (6, -1.61443441174924373627e-03) (7, -1.91390123218297958374e-02) (8, 9.34939533472061157227e-02) (9, -1.95739179849624633789e-01) (10, -9.85292717814445495605e-02) (11, -1.76815584301948547363e-01) (12, 1.22325919568538665771e-01) (13, -3.07353883981704711914e-02) (14, 9.33702960610389709473e-02) (15, 8.32945108413696289062e-02) (16, -3.78701299428939819336e-01) (17, -4.72415179014205932617e-01) (18, -2.36980751156806945801e-01) (19, -1.78629532456398010254e-01) (20, -4.52265562489628791809e-03) (21, -4.72645282745361328125e-01) (22, -5.62660455703735351562e-01) (23, -3.15292209386825561523e-01) (24, -5.85729479789733886719e-01) (25, -4.67532515525817871094e-01) (26, -4.06374454498291015625e-01) (27, -4.59608197212219238281e-01) (28, -1.82931542396545410156e-01) (29, -3.47564220428466796875e-01) (30, -3.00541996955871582031e-01) (31, -2.82902777194976806641e-01) (32, -3.33773106336593627930e-01) (33, -5.94953656196594238281e-01) (34, -6.56467318534851074219e-01) (35, -7.09017395973205566406e-01) (36, -3.36446106433868408203e-01) (37, -2.88215428590774536133e-01) (38, -3.26871454715728759766e-01) (39, 2.09572494029998779297e-01) (40, -5.34319244325160980225e-02) (41, -2.75634467601776123047e-01) (42, -3.70300382375717163086e-01) (43, -4.89245593547821044922e-01) (44, -4.85777020454406738281e-01) (45, -2.13142678141593933105e-01) (46, 9.19659882783889770508e-02) (47, 1.92570164799690246582e-01) (48, -5.71644067764282226562e-01) (0, 1.47508263587951660156e-01) (1, -3.99103835225105285645e-02) (2, 1.32743595167994499207e-02) (3, -1.98177248239517211914e-02) (4, -2.87441462278366088867e-01) (5, -2.15401407331228256226e-02) (6, 1.92449018359184265137e-01) (7, 1.65334478020668029785e-01) (8, -2.08874214440584182739e-02) (9, 2.51784790307283401489e-02) (10, -6.37856721878051757812e-02) (11, -3.11745285987854003906e-01) (12, -1.09441615641117095947e-01) (13, 2.87411928176879882812e-01) (14, 2.57336974143981933594e-01) (15, -1.22853808104991912842e-01) (16, -7.19956338405609130859e-01) (17, -3.31222325563430786133e-01) (18, -3.95651953294873237610e-03) (19, -4.40536558628082275391e-01) (20, -1.40704751014709472656e-01) (21, -1.19114719331264495850e-01) (22, -4.07641500234603881836e-01) (23, -3.77640068531036376953e-01) (24, -9.47140336036682128906e-01) (25, -1.84169799089431762695e-01) (26, -3.57600450515747070312e-01) (27, -6.69474840164184570312e-01) (28, -3.67318183183670043945e-01) (29, -1.55417934060096740723e-01) (30, -3.79726707935333251953e-01) (31, -5.30312471091747283936e-02) (32, -5.46905338764190673828e-01) (33, -3.77580314874649047852e-01) (34, -3.54709327220916748047e-01) (35, -7.54334568977355957031e-01) (36, -2.96499133110046386719e-01) (37, -2.88928031921386718750e-01) (38, -3.23222249746322631836e-01) (39, 6.31921738386154174805e-02) (40, -9.72892120480537414551e-02) (41, -3.13431888818740844727e-01) (42, 6.56201615929603576660e-02) (43, -1.04913902282714843750e+00) (44, -2.04532429575920104980e-01) (45, -1.63376152515411376953e-01) (46, 1.00541330873966217041e-01) (47, 2.47883856296539306641e-01) (48, -5.00817716121673583984e-01) (0, 1.57679259777069091797e-01) (1, -9.86511632800102233887e-02) (2, 2.87294890731573104858e-02) (3, -1.03574730455875396729e-01) (4, -2.25977152585983276367e-02) (5, -1.23076930642127990723e-01) (6, -6.98428899049758911133e-02) (7, -1.01655848324298858643e-01) (8, 2.71592050790786743164e-01) (9, -6.35559186339378356934e-02) (10, -2.08826810121536254883e-02) (11, -1.98889791965484619141e-01) (12, -1.48558700457215309143e-02) (13, 8.57148543000221252441e-02) (14, -1.22981471940875053406e-02) (15, -2.76439398527145385742e-01) (16, -9.68774408102035522461e-02) (17, -2.53504097461700439453e-01) (18, -1.56232312321662902832e-01) (19, -1.44482240080833435059e-01) (20, -1.28829702734947204590e-01) (21, -2.99268990755081176758e-01) (22, -4.83392745256423950195e-01) (23, -3.16413044929504394531e-01) (24, -3.12007397413253784180e-01) (25, -3.90910476446151733398e-01) (26, -4.10304933786392211914e-01) (27, -2.15525731444358825684e-01) (28, -2.33509883284568786621e-01) (29, -3.39083999395370483398e-01) (30, -3.11511486768722534180e-01) (31, -6.79643526673316955566e-02) (32, 1.09550818800926208496e-01) (33, -3.59881162643432617188e-01) (34, -4.42183405160903930664e-01) (35, -3.14168572425842285156e-01) (36, -4.03552949428558349609e-01) (37, -2.48279452323913574219e-01) (38, -3.55901092290878295898e-01) (39, 1.89034968614578247070e-01) (40, 2.86101013422012329102e-01) (41, -1.31082758307456970215e-01) (42, -2.48352512717247009277e-01) (43, -1.32839426398277282715e-01) (44, -2.84831196069717407227e-01) (45, -1.30310282111167907715e-01) (46, 8.39980766177177429199e-02) (47, 3.72058153152465820312e-01) (48, -4.64396297931671142578e-01) (0, -4.93728183209896087646e-02) (1, -9.81555730104446411133e-02) (2, -3.45811873674392700195e-01) (3, -2.17392981052398681641e-01) (4, -5.07814586162567138672e-01) (5, 6.03376105427742004395e-02) (6, 2.81541347503662109375e-01) (7, 6.45802319049835205078e-02) (8, 9.59007069468498229980e-02) (9, -2.74102509021759033203e-01) (10, -2.77595788240432739258e-01) (11, -2.11594089865684509277e-01) (12, -9.92090851068496704102e-02) (13, 4.11050111055374145508e-01) (14, 1.93004623055458068848e-01) (15, 2.90618449449539184570e-01) (16, -6.65375769138336181641e-01) (17, -5.01408636569976806641e-01) (18, -1.27123370766639709473e-01) (19, -4.57421481609344482422e-01) (20, 2.77948211878538131714e-02) (21, -5.91246858239173889160e-02) (22, -4.33288246393203735352e-01) (23, -8.67402017116546630859e-01) (24, -7.10096180438995361328e-01) (25, -3.57307285070419311523e-01) (26, -6.30926728248596191406e-01) (27, -5.38763046264648437500e-01) (28, -1.16265542805194854736e-01) (29, -1.34709596633911132812e-01) (30, -6.12601637840270996094e-01) (31, -6.82567238807678222656e-01) (32, -1.39686241745948791504e-01) (33, -6.42276406288146972656e-01) (34, -7.30810821056365966797e-01) (35, -8.99109065532684326172e-01) (36, 1.41457812860608100891e-02) (37, -4.86296027898788452148e-01) (38, -4.67932879924774169922e-01) (39, 3.77218686044216156006e-02) (40, 3.41610550880432128906e-01) (41, -4.43124353885650634766e-01) (42, 1.28014191985130310059e-01) (43, -1.18751764297485351562e+00) (44, -1.27460345625877380371e-01) (45, -3.42840731143951416016e-01) (46, 5.12295700609683990479e-02) (47, 1.46282151341438293457e-01) (48, -4.96556639671325683594e-01) (0, 1.57367205247282981873e-03) (1, -2.21101809293031692505e-02) (2, -2.71667957305908203125e-01) (3, -2.22351178526878356934e-01) (4, -2.05996572971343994141e-01) (5, 1.68402045965194702148e-01) (6, 2.54582583904266357422e-01) (7, -3.75353917479515075684e-02) (8, 1.85333490371704101562e-02) (9, -2.58660405874252319336e-01) (10, -2.11065918207168579102e-01) (11, -7.08099827170372009277e-02) (12, 2.26058214902877807617e-02) (13, 1.23510248959064483643e-01) (14, 2.03135639429092407227e-01) (15, 2.62417018413543701172e-01) (16, -4.11891192197799682617e-01) (17, -2.48595237731933593750e-01) (18, -2.90651082992553710938e-01) (19, -1.13984867930412292480e-01) (20, -1.01177655160427093506e-01) (21, -3.82147192955017089844e-01) (22, -3.80896687507629394531e-01) (23, -7.51875102519989013672e-01) (24, -5.71804702281951904297e-01) (25, -3.34407180547714233398e-01) (26, -5.25909364223480224609e-01) (27, -1.86762914061546325684e-01) (28, -3.63885581493377685547e-01) (29, -1.90359458327293395996e-01) (30, -5.65604090690612792969e-01) (31, -5.28071165084838867188e-01) (32, -1.60539776086807250977e-01) (33, -4.06002819538116455078e-01) (34, -6.64934277534484863281e-01) (35, -5.92824637889862060547e-01) (36, -2.14321076869964599609e-01) (37, -3.33469510078430175781e-01) (38, -6.12618803977966308594e-01) (39, 9.66627001762390136719e-02) (40, 1.02691933512687683105e-01) (41, -2.97978848218917846680e-01) (42, -4.33328859508037567139e-02) (43, -7.76951968669891357422e-01) (44, -3.27167451381683349609e-01) (45, -4.02303248643875122070e-01) (46, -3.91801893711090087891e-02) (47, 2.33820736408233642578e-01) (48, -4.61518615484237670898e-01) (0, 1.56853690743446350098e-01) (1, 2.37422641366720199585e-02) (2, -2.07931831479072570801e-01) (3, -2.17414069920778274536e-02) (4, -1.81784570217132568359e-01) (5, 6.34505152702331542969e-02) (6, 2.01917570084333419800e-02) (7, 2.80329231172800064087e-02) (8, 1.82153016328811645508e-01) (9, 3.14944051206111907959e-02) (10, -2.40088358521461486816e-01) (11, -1.22855044901371002197e-01) (12, 2.11661513894796371460e-02) (13, -1.68285444378852844238e-02) (14, 8.32953378558158874512e-02) (15, -2.73936148732900619507e-02) (16, -2.68628388643264770508e-01) (17, -2.04836562275886535645e-01) (18, -1.74002081155776977539e-01) (19, -1.96931198239326477051e-01) (20, -7.86637589335441589355e-02) (21, -2.32946977019309997559e-01) (22, -4.63348627090454101562e-01) (23, -5.13272821903228759766e-01) (24, -3.97784829139709472656e-01) (25, -2.87557393312454223633e-01) (26, -2.84074634313583374023e-01) (27, -2.62808948755264282227e-01) (28, -9.18810069561004638672e-02) (29, -2.33120799064636230469e-01) (30, -4.94839340448379516602e-01) (31, -2.80933886766433715820e-01) (32, -1.74682930111885070801e-01) (33, -3.88983935117721557617e-01) (34, -3.04160386323928833008e-01) (35, -5.11228084564208984375e-01) (36, -1.61249607801437377930e-01) (37, -1.38158649206161499023e-01) (38, -4.09742772579193115234e-01) (39, -2.55503654479980468750e-02) (40, 1.78495839238166809082e-01) (41, -1.33508071303367614746e-01) (42, -1.33104398846626281738e-01) (43, -3.94155591726303100586e-01) (44, -1.36676892638206481934e-01) (45, -2.58910626173019409180e-01) (46, -3.09149920940399169922e-03) (47, 1.24987307935953140259e-02) (48, -5.00389039516448974609e-01) (0, -8.56148526072502136230e-02) (1, -8.93707349896430969238e-02) (2, 1.22675783932209014893e-01) (3, -9.88846868276596069336e-02) (4, -3.31627994775772094727e-01) (5, -2.78869390487670898438e-01) (6, -2.17494264245033264160e-01) (7, -2.47667670249938964844e-01) (8, 4.40452992916107177734e-01) (9, -7.73493051528930664062e-02) (10, 3.18144522607326507568e-02) (11, -1.85846686363220214844e-01) (12, -2.20275714993476867676e-01) (13, -4.87603634595870971680e-01) (14, -1.45144551992416381836e-01) (15, 6.74595907330513000488e-02) (16, 1.13297954201698303223e-01) (17, 4.65821549296379089355e-02) (18, -2.40595430135726928711e-01) (19, -1.14687949419021606445e-01) (20, -1.38697832822799682617e-01) (21, -2.80111998319625854492e-01) (22, -1.41508519649505615234e-01) (23, -3.38400274515151977539e-01) (24, 3.42962473630905151367e-01) (25, -2.27098733186721801758e-01) (26, 1.66395623236894607544e-02) (27, -1.80417239665985107422e-01) (28, -2.01445087790489196777e-01) (29, -6.25476777553558349609e-01) (30, -4.14437413215637207031e-01) (31, -4.10338759422302246094e-01) (32, -4.52136933803558349609e-01) (33, -8.79688784480094909668e-02) (34, -3.12352567911148071289e-01) (35, -3.89578878879547119141e-01) (36, -2.53683507442474365234e-01) (37, -3.59289944171905517578e-01) (38, -3.56093466281890869141e-01) (39, -2.71402560174465179443e-02) (40, -4.66149866580963134766e-01) (41, -5.20759224891662597656e-01) (42, -3.64968627691268920898e-01) (43, -4.08980458974838256836e-01) (44, -3.04516375064849853516e-01) (45, -4.66440916061401367188e-01) (46, -6.22246786952018737793e-03) (47, 9.78725478053092956543e-02) (48, -4.43340539932250976562e-01) (0, 2.57361680269241333008e-02) (1, -8.46093147993087768555e-03) (2, -1.92712657153606414795e-02) (3, -1.83518156409263610840e-01) (4, -2.02022969722747802734e-01) (5, 4.95141595602035522461e-02) (6, -1.51502275839447975159e-02) (7, -1.89441323280334472656e-01) (8, 1.50628581643104553223e-01) (9, -3.19257527589797973633e-02) (10, -1.82791784405708312988e-01) (11, 3.14526930451393127441e-02) (12, -4.49481606483459472656e-02) (13, 3.42224910855293273926e-02) (14, 4.99697364866733551025e-02) (15, 1.22633151710033416748e-01) (16, -2.32546359300613403320e-01) (17, -2.05805376172065734863e-01) (18, -3.42646062374114990234e-01) (19, 3.83644029498100280762e-02) (20, -2.32456758618354797363e-01) (21, -3.02496552467346191406e-01) (22, -4.70757126808166503906e-01) (23, -5.72824954986572265625e-01) (24, -1.47935122251510620117e-01) (25, -2.55973994731903076172e-01) (26, -3.19583088159561157227e-01) (27, -6.67531490325927734375e-02) (28, -3.37792873382568359375e-01) (29, -4.23216432332992553711e-01) (30, -5.63764512538909912109e-01) (31, -7.02435016632080078125e-01) (32, -2.28487640619277954102e-01) (33, -2.80886560678482055664e-01) (34, -4.29378241300582885742e-01) (35, -3.82508963346481323242e-01) (36, -4.10006523132324218750e-01) (37, -3.22870045900344848633e-01) (38, -4.39987391233444213867e-01) (39, 1.61615870893001556396e-02) (40, -1.37274876236915588379e-01) (41, -2.15660646557807922363e-01) (42, -1.96946337819099426270e-01) (43, -3.60435545444488525391e-01) (44, -3.07915896177291870117e-01) (45, -3.15878450870513916016e-01) (46, -2.54813786596059799194e-02) (47, 1.01515844464302062988e-01) (48, -4.74240094423294067383e-01) (0, 3.43002170324325561523e-01) (1, 3.85120213031768798828e-01) (2, 5.44716119766235351562e-01) (3, 5.26331543922424316406e-01) (4, -4.08960729837417602539e-01) (5, -3.03557008504867553711e-01) (6, -3.57385843992233276367e-01) (7, -1.81375488638877868652e-01) (8, 8.86668264865875244141e-01) (9, 6.18527084589004516602e-03) (10, 4.82010506093502044678e-02) (11, -2.57664988748729228973e-03) (12, 2.49386295676231384277e-01) (13, 3.11823301017284393311e-02) (14, 1.54747173190116882324e-01) (15, -2.39086106419563293457e-01) (16, 2.32025697827339172363e-01) (17, 9.46872383356094360352e-02) (18, -4.42016452550888061523e-01) (19, 7.38665536046028137207e-02) (20, 8.51277634501457214355e-03) (21, 6.08749734237790107727e-03) (22, 2.00653195381164550781e-01) (23, -2.04621225595474243164e-01) (24, 2.00227916240692138672e-01) (25, -5.75645804405212402344e-01) (26, 4.16608601808547973633e-01) (27, 1.97121813893318176270e-01) (28, 5.09436547756195068359e-01) (29, -2.56313771009445190430e-01) (30, -4.15702372789382934570e-01) (31, -1.49255588650703430176e-01) (32, -5.79815387725830078125e-01) (33, -5.73335945606231689453e-01) (34, -7.96361684799194335938e-01) (35, -5.56081116199493408203e-01) (36, 3.74207794666290283203e-02) (37, -1.85003340244293212891e-01) (38, 1.03139139711856842041e-01) (39, 2.38885655999183654785e-01) (40, -7.26642489433288574219e-01) (41, -9.98781800270080566406e-01) (42, -4.03366833925247192383e-01) (43, -1.02791774272918701172e+00) (44, -8.47488939762115478516e-02) (45, 3.91854256391525268555e-01) (46, 6.54282271862030029297e-01) (47, 3.65537941455841064453e-01) (48, -1.02558755874633789062e+00) (0, -1.04554131627082824707e-01) (1, 2.64997035264968872070e-02) (2, -6.36479109525680541992e-02) (3, -7.61830960982479155064e-05) (4, -3.03166270256042480469e-01) (5, 3.04368436336517333984e-02) (6, -3.97112779319286346436e-02) (7, -1.16476781666278839111e-01) (8, 1.85644179582595825195e-01) (9, -2.26587858051061630249e-02) (10, -3.19956034421920776367e-01) (11, -2.20079738646745681763e-02) (12, -2.04172506928443908691e-01) (13, 1.59517318010330200195e-01) (14, -8.76924488693475723267e-03) (15, 2.82110601663589477539e-01) (16, -3.84814739227294921875e-01) (17, -8.28210562467575073242e-02) (18, -1.10009148716926574707e-01) (19, 1.99657902121543884277e-02) (20, -3.96216571331024169922e-01) (21, -3.88703823089599609375e-01) (22, -5.63681900501251220703e-01) (23, -9.52725112438201904297e-01) (24, -2.68511325120925903320e-01) (25, -3.43314409255981445312e-01) (26, -3.36997479200363159180e-01) (27, -2.41475790739059448242e-01) (28, -5.88405311107635498047e-01) (29, -3.37789595127105712891e-01) (30, -7.88679361343383789062e-01) (31, -7.17237472534179687500e-01) (32, 4.10248301923274993896e-02) (33, -2.85804241895675659180e-01) (34, -5.51156520843505859375e-01) (35, -5.77660799026489257812e-01) (36, -6.59752666950225830078e-01) (37, -4.14720118045806884766e-01) (38, -6.35416150093078613281e-01) (39, 2.61131376028060913086e-02) (40, 2.15639010071754455566e-01) (41, -2.83957213163375854492e-01) (42, -1.43992409110069274902e-01) (43, -8.08100163936614990234e-01) (44, -6.27304971218109130859e-01) (45, -2.63202756643295288086e-01) (46, 1.66859347373247146606e-02) (47, 1.29540756344795227051e-01) (48, -5.34543395042419433594e-01) (0, 3.13105583190917968750e-01) (1, -3.29943038523197174072e-02) (2, -1.15455508232116699219e-01) (3, 5.92041872441768646240e-02) (4, -8.81917029619216918945e-02) (5, -2.05618664622306823730e-02) (6, 1.19774765335023403168e-03) (7, 1.75921954214572906494e-02) (8, 3.28072667121887207031e-01) (9, -5.14631345868110656738e-03) (10, -1.74562051892280578613e-01) (11, -1.05146989226341247559e-01) (12, -1.27331987023353576660e-01) (13, 2.77747362852096557617e-01) (14, 1.29460752010345458984e-01) (15, -2.76683688163757324219e-01) (16, -3.76810245215892791748e-02) (17, -2.13553622364997863770e-01) (18, -1.59842878580093383789e-01) (19, -1.13352783024311065674e-01) (20, -3.63251835107803344727e-01) (21, -2.53345847129821777344e-01) (22, -4.57570761442184448242e-01) (23, -1.45628705620765686035e-01) (24, -2.51815795898437500000e-01) (25, -1.29003390669822692871e-01) (26, -9.20927152037620544434e-02) (27, -2.02034026384353637695e-01) (28, -2.59555488824844360352e-01) (29, -2.86662220954895019531e-01) (30, -1.58715873956680297852e-01) (31, -1.07531294226646423340e-01) (32, 1.00121378898620605469e-01) (33, -2.23301738500595092773e-01) (34, -2.33274862170219421387e-01) (35, -1.81389659643173217773e-01) (36, -1.78483799099922180176e-01) (37, -1.92141771316528320312e-01) (38, -2.53606706857681274414e-01) (39, 1.33882224559783935547e-01) (40, 7.44960010051727294922e-02) (41, -1.03689543902873992920e-01) (42, -2.33229383826255798340e-01) (43, -1.22907765209674835205e-01) (44, -5.59813156723976135254e-02) (45, -1.38343200087547302246e-01) (46, -7.42007791996002197266e-02) (47, 1.70788653194904327393e-02) (48, -5.22321999073028564453e-01) (0, 1.10530905425548553467e-01) (1, 9.14905220270156860352e-02) (2, -1.33629187941551208496e-01) (3, -1.27055943012237548828e-01) (4, -3.05968314409255981445e-01) (5, 1.58200755715370178223e-01) (6, 6.35558813810348510742e-02) (7, -4.44711446762084960938e-02) (8, 1.44912481307983398438e-01) (9, -7.73737281560897827148e-02) (10, -3.28456908464431762695e-01) (11, -1.13110683858394622803e-01) (12, -3.17259058356285095215e-02) (13, 9.45422574877738952637e-02) (14, 1.50573879480361938477e-01) (15, 2.72258460521697998047e-01) (16, -1.87477946281433105469e-01) (17, -1.38474732637405395508e-01) (18, -2.52851814031600952148e-01) (19, -1.17462508380413055420e-01) (20, -1.88581854104995727539e-01) (21, -3.97979468107223510742e-01) (22, -4.73408073186874389648e-01) (23, -6.84885561466217041016e-01) (24, -2.39406779408454895020e-01) (25, -3.98888409137725830078e-01) (26, -3.32356691360473632812e-01) (27, -1.80060759186744689941e-01) (28, -3.09364050626754760742e-01) (29, -2.56549894809722900391e-01) (30, -5.41399121284484863281e-01) (31, -6.13038182258605957031e-01) (32, -1.12128391861915588379e-01) (33, -3.62587839365005493164e-01) (34, -5.73208153247833251953e-01) (35, -5.74277758598327636719e-01) (36, -3.11149209737777709961e-01) (37, -3.48293572664260864258e-01) (38, -5.05384087562561035156e-01) (39, -2.43799332529306411743e-02) (40, -3.88199053704738616943e-02) (41, -1.73458158969879150391e-01) (42, -1.78443253040313720703e-01) (43, -6.50837182998657226562e-01) (44, -3.39058250188827514648e-01) (45, -2.71320432424545288086e-01) (46, 5.08469752967357635498e-02) (47, 1.75183206796646118164e-01) (48, -4.86404508352279663086e-01) (0, -1.68598536401987075806e-02) (1, 6.03904016315937042236e-02) (2, -8.35322663187980651855e-02) (3, -9.05500799417495727539e-02) (4, -1.50012165307998657227e-01) (5, 7.99194723367691040039e-02) (6, 9.99587029218673706055e-02) (7, -2.01135668903589248657e-02) (8, 1.42866009846329689026e-02) (9, -1.64375111460685729980e-01) (10, -2.35274866223335266113e-01) (11, -2.00417608022689819336e-01) (12, 5.57109415531158447266e-02) (13, 1.04362048208713531494e-01) (14, 9.92731153964996337891e-02) (15, 1.18265211582183837891e-01) (16, -1.82037562131881713867e-01) (17, -1.29207521677017211914e-01) (18, -2.70513832569122314453e-01) (19, -1.07837244868278503418e-01) (20, 2.77653690427541732788e-02) (21, -3.62148582935333251953e-01) (22, -3.67986977100372314453e-01) (23, -4.90016728639602661133e-01) (24, -2.99720764160156250000e-01) (25, -2.09737509489059448242e-01) (26, -3.26577514410018920898e-01) (27, -2.32040509581565856934e-01) (28, -1.93295568227767944336e-01) (29, -2.01681867241859436035e-01) (30, -4.50388044118881225586e-01) (31, -5.02023935317993164062e-01) (32, -2.39671375602483749390e-02) (33, -3.80088508129119873047e-01) (34, -4.47815924882888793945e-01) (35, -5.02682566642761230469e-01) (36, -1.61553472280502319336e-01) (37, -2.59293049573898315430e-01) (38, -3.39903354644775390625e-01) (39, 1.02195680141448974609e-01) (40, 1.69859051704406738281e-01) (41, -1.48126929998397827148e-01) (42, -7.23502412438392639160e-02) (43, -3.91328632831573486328e-01) (44, -2.96615064144134521484e-01) (45, -2.51749545335769653320e-01) (46, -3.96884717047214508057e-02) (47, -9.81320813298225402832e-03) (48, -5.60387253761291503906e-01) (0, 2.59104836732149124146e-02) (1, 2.57831271737813949585e-02) (2, 8.15820414572954177856e-03) (3, -4.00999151170253753662e-02) (4, -1.97297528386116027832e-01) (5, 1.31251424551010131836e-01) (6, 9.89881753921508789062e-02) (7, 1.12878996878862380981e-02) (8, -1.12106697633862495422e-02) (9, -9.44266747683286666870e-03) (10, -2.13832199573516845703e-01) (11, -5.02401702105998992920e-02) (12, -4.29455526173114776611e-02) (13, 6.64024502038955688477e-02) (14, 6.10854029655456542969e-02) (15, 1.62352964282035827637e-01) (16, -1.95402532815933227539e-01) (17, -1.03709861636161804199e-01) (18, -3.03631752729415893555e-01) (19, -7.24307000637054443359e-02) (20, -2.08922788500785827637e-01) (21, -4.11783248186111450195e-01) (22, -4.43810224533081054688e-01) (23, -5.63632607460021972656e-01) (24, -1.68674156069755554199e-01) (25, -2.51954138278961181641e-01) (26, -2.90317714214324951172e-01) (27, -1.53954327106475830078e-01) (28, -2.89676964282989501953e-01) (29, -2.45511427521705627441e-01) (30, -4.62432175874710083008e-01) (31, -4.98365640640258789062e-01) (32, -1.10271982848644256592e-01) (33, -3.20654392242431640625e-01) (34, -4.25457894802093505859e-01) (35, -4.82770085334777832031e-01) (36, -3.47465306520462036133e-01) (37, -4.08519238233566284180e-01) (38, -4.68907833099365234375e-01) (39, -2.18496583402156829834e-02) (40, 1.49932011961936950684e-01) (41, -2.29964867234230041504e-01) (42, -3.07823210954666137695e-01) (43, -5.29085159301757812500e-01) (44, -2.33569622039794921875e-01) (45, -3.06084036827087402344e-01) (46, -1.19373306632041931152e-01) (47, 1.31188377737998962402e-01) (48, -5.18554747104644775391e-01) (0, 8.65467190742492675781e-02) (1, -4.31933850049972534180e-02) (2, -1.08524188399314880371e-01) (3, -9.09232422709465026855e-02) (4, -7.57402926683425903320e-02) (5, 8.87984782457351684570e-02) (6, 4.51512970030307769775e-02) (7, -1.01615771651268005371e-01) (8, 1.00099653005599975586e-01) (9, -1.60549208521842956543e-01) (10, -2.45494991540908813477e-01) (11, -1.84786751866340637207e-01) (12, -6.30899071693420410156e-02) (13, 2.85419113934040069580e-02) (14, 7.21111521124839782715e-02) (15, -1.42678126692771911621e-01) (16, -6.48912414908409118652e-03) (17, -8.76271128654479980469e-02) (18, -2.45331764221191406250e-01) (19, -2.43470177054405212402e-01) (20, -2.17719882726669311523e-01) (21, -2.17980653047561645508e-01) (22, -2.96287715435028076172e-01) (23, -3.35872769355773925781e-01) (24, -1.31416290998458862305e-01) (25, -1.18021644651889801025e-01) (26, -2.71556794643402099609e-01) (27, -1.90336868166923522949e-01) (28, -2.29090586304664611816e-01) (29, -1.96386292576789855957e-01) (30, -3.42944651842117309570e-01) (31, -1.76509886980056762695e-01) (32, -1.53793558478355407715e-01) (33, -2.68680572509765625000e-01) (34, -2.67599254846572875977e-01) (35, -3.28725963830947875977e-01) (36, -2.58480757474899291992e-01) (37, -1.34955629706382751465e-01) (38, -4.21108156442642211914e-01) (39, 5.75898140668869018555e-02) (40, 1.17798164486885070801e-01) (41, -2.04033255577087402344e-01) (42, -1.46001994609832763672e-01) (43, -2.35459282994270324707e-01) (44, -9.07229632139205932617e-02) (45, -2.30593547224998474121e-01) (46, -1.35456640273332595825e-02) (47, 9.72975343465805053711e-02) (48, -5.62983512878417968750e-01) (0, 6.57377243041992187500e-02) (1, 5.83804436028003692627e-02) (2, -6.87590017914772033691e-02) (3, -6.08890578150749206543e-02) (4, -1.11830286681652069092e-01) (5, 1.62109564989805221558e-02) (6, -1.58086158335208892822e-02) (7, -4.73814494907855987549e-02) (8, 1.51576370000839233398e-01) (9, -2.08509042859077453613e-02) (10, -2.77315694838762283325e-02) (11, -1.12607546150684356689e-01) (12, -1.74421146512031555176e-01) (13, -2.95168217271566390991e-02) (14, 4.11282926797866821289e-02) (15, 7.49295800924301147461e-02) (16, -2.74874806404113769531e-01) (17, -9.45555940270423889160e-02) (18, -4.66891303658485412598e-02) (19, -1.79013714194297790527e-01) (20, -1.82795688509941101074e-01) (21, -2.50171303749084472656e-01) (22, -2.27150529623031616211e-01) (23, -3.03446620702743530273e-01) (24, -2.02923387289047241211e-01) (25, -2.18785047531127929688e-01) (26, -2.44420066475868225098e-01) (27, -1.77363559603691101074e-01) (28, -3.44700455665588378906e-01) (29, -3.49542915821075439453e-01) (30, -3.52454245090484619141e-01) (31, -3.36385220289230346680e-01) (32, -1.15528762340545654297e-01) (33, -3.40283781290054321289e-01) (34, -2.54564583301544189453e-01) (35, -3.81567150354385375977e-01) (36, -2.23711892962455749512e-01) (37, -3.10566991567611694336e-01) (38, -3.03913027048110961914e-01) (39, 3.58173213899135589600e-02) (40, 1.64722234010696411133e-01) (41, -1.61625280976295471191e-01) (42, -2.96673327684402465820e-01) (43, -2.72900760173797607422e-01) (44, -3.51918756961822509766e-01) (45, -2.42295831441879272461e-01) (46, -5.10936528444290161133e-02) (47, 2.44906474836170673370e-03) (48, -5.50525844097137451172e-01) (0, -1.80139299482107162476e-02) (1, -6.78852498531341552734e-02) (2, -9.67995822429656982422e-02) (3, -1.95912033319473266602e-01) (4, -2.27278083562850952148e-01) (5, -7.64393880963325500488e-02) (6, 3.08911856263875961304e-02) (7, -2.93162409216165542603e-02) (8, 1.07457198202610015869e-01) (9, -1.32150366902351379395e-01) (10, -1.11072525382041931152e-01) (11, -6.58622831106185913086e-02) (12, 2.35603861510753631592e-02) (13, 8.89290589839220046997e-03) (14, 9.85590592026710510254e-02) (15, 1.68729901313781738281e-01) (16, -2.38163501024246215820e-01) (17, -4.10470180213451385498e-02) (18, -1.23766064643859863281e-01) (19, -5.47881722450256347656e-02) (20, -2.56122440099716186523e-01) (21, -3.46658229827880859375e-01) (22, -2.88480997085571289062e-01) (23, -4.61663872003555297852e-01) (24, -3.29081982374191284180e-01) (25, -1.71663179993629455566e-01) (26, -3.31148952245712280273e-01) (27, -3.23538988828659057617e-01) (28, -3.22196334600448608398e-01) (29, -2.70479261875152587891e-01) (30, -4.85318809747695922852e-01) (31, -2.49204561114311218262e-01) (32, 5.85367791354656219482e-02) (33, -2.70221352577209472656e-01) (34, -4.27466422319412231445e-01) (35, -5.35329639911651611328e-01) (36, -2.01051667332649230957e-01) (37, -2.32692360877990722656e-01) (38, -2.46716752648353576660e-01) (39, 5.12179313227534294128e-03) (40, 3.05798873305320739746e-02) (41, -7.71836638450622558594e-02) (42, -2.57487624883651733398e-01) (43, -3.28028708696365356445e-01) (44, -2.91461229324340820312e-01) (45, -3.74047875404357910156e-01) (46, -3.96107360720634460449e-02) (47, -2.60757785290479660034e-02) (48, -4.90833789110183715820e-01) (0, -3.48175992257893085480e-03) (1, 6.46197125315666198730e-02) (2, -2.07508169114589691162e-02) (3, -1.20008789002895355225e-01) (4, -9.66850295662879943848e-02) (5, 7.88244232535362243652e-03) (6, 1.47282883524894714355e-01) (7, -1.42198219895362854004e-01) (8, 1.15603916347026824951e-01) (9, -2.44583562016487121582e-02) (10, -2.19976678490638732910e-01) (11, -1.96326434612274169922e-01) (12, 1.24419361352920532227e-01) (13, -9.07394755631685256958e-03) (14, 2.32008956372737884521e-02) (15, 1.29899933934211730957e-01) (16, -2.01203316450119018555e-01) (17, -2.31841251254081726074e-01) (18, -3.06434959173202514648e-01) (19, -1.56420722603797912598e-01) (20, -3.55573520064353942871e-02) (21, -2.84227728843688964844e-01) (22, -4.09871131181716918945e-01) (23, -4.81355786323547363281e-01) (24, -1.79061606526374816895e-01) (25, -3.57660055160522460938e-01) (26, -1.85707136988639831543e-01) (27, -2.67548292875289916992e-01) (28, -2.81320691108703613281e-01) (29, -2.04072013497352600098e-01) (30, -3.54595869779586791992e-01) (31, -4.35614973306655883789e-01) (32, -7.43865147233009338379e-02) (33, -2.98649728298187255859e-01) (34, -4.44432824850082397461e-01) (35, -5.20696580410003662109e-01) (36, -1.54634103178977966309e-01) (37, -3.87266695499420166016e-01) (38, -4.23313260078430175781e-01) (39, 2.08843220025300979614e-02) (40, 9.14081558585166931152e-02) (41, -2.50877678394317626953e-01) (42, -2.22170248627662658691e-01) (43, -3.32358866930007934570e-01) (44, -2.02282667160034179688e-01) (45, -2.22942620515823364258e-01) (46, -1.21509030461311340332e-01) (47, 3.13144586980342864990e-02) (48, -4.77837890386581420898e-01) (0, -3.72554995119571685791e-02) (1, -6.19717799127101898193e-02) (2, -2.69847124814987182617e-01) (3, -2.67637670040130615234e-01) (4, -2.10217982530593872070e-01) (5, -2.92534772306680679321e-02) (6, 2.74792790412902832031e-01) (7, 5.77221475541591644287e-02) (8, -1.13710865378379821777e-01) (9, -9.71110686659812927246e-02) (10, -2.30095222592353820801e-01) (11, -2.29558534920215606689e-02) (12, 3.48338857293128967285e-02) (13, 3.96259874105453491211e-01) (14, 2.14352756738662719727e-01) (15, 2.26545289158821105957e-01) (16, -7.19346046447753906250e-01) (17, -1.61070376634597778320e-01) (18, -4.65159565210342407227e-02) (19, -2.48591184616088867188e-01) (20, 9.82911959290504455566e-02) (21, 4.84178662300109863281e-02) (22, -1.93842262029647827148e-01) (23, -6.58487021923065185547e-01) (24, -6.91715955734252929688e-01) (25, -1.96986749768257141113e-01) (26, -5.26299476623535156250e-01) (27, -4.32163000106811523438e-01) (28, -1.81298702955245971680e-01) (29, -5.89871369302272796631e-02) (30, -4.83257234096527099609e-01) (31, -4.76654440164566040039e-01) (32, -1.46732525900006294250e-02) (33, -4.40971463918685913086e-01) (34, -5.21093666553497314453e-01) (35, -4.17589277029037475586e-01) (36, -7.32694417238235473633e-02) (37, -3.11138212680816650391e-01) (38, -4.04840975999832153320e-01) (39, 2.84507442265748977661e-02) (40, 2.95724570751190185547e-01) (41, -2.20720738172531127930e-01) (42, 2.38045766949653625488e-01) (43, -7.92898356914520263672e-01) (44, -3.19400966167449951172e-01) (45, -4.23734366893768310547e-01) (46, 3.19330440834164619446e-03) (47, 1.16159386932849884033e-01) (48, -4.80752736330032348633e-01) (0, -1.54721453785896301270e-01) (1, 1.57004952430725097656e-01) (2, 2.62288004159927368164e-01) (3, 3.74744296073913574219e-01) (4, -5.65244674682617187500e-01) (5, 3.03401960991322994232e-03) (6, 9.46797803044319152832e-03) (7, 3.29644791781902313232e-02) (8, 4.47453171014785766602e-01) (9, 2.34842076897621154785e-01) (10, 7.01936334371566772461e-02) (11, -5.20948693156242370605e-02) (12, -5.53173661231994628906e-01) (13, -5.73734976351261138916e-02) (14, -2.92578101158142089844e-01) (15, 3.63225966691970825195e-01) (16, -2.25004106760025024414e-01) (17, 2.29027464985847473145e-01) (18, 7.21907289698719978333e-03) (19, -1.67594954371452331543e-01) (20, -9.91577923297882080078e-01) (21, -7.59342253208160400391e-01) (22, -8.15781235694885253906e-01) (23, -1.23000574111938476562e+00) (24, 1.76420122385025024414e-01) (25, -1.55248820781707763672e-01) (26, -1.02425329387187957764e-01) (27, -3.78177940845489501953e-01) (28, -9.68601465225219726562e-01) (29, -6.16778671741485595703e-01) (30, -1.13335442543029785156e+00) (31, -1.00219964981079101562e+00) (32, 1.96352213621139526367e-01) (33, -2.95838385820388793945e-01) (34, -3.19703578948974609375e-01) (35, -6.30402445793151855469e-01) (36, -1.33557522296905517578e+00) (37, -4.06030207872390747070e-01) (38, -8.58408033847808837891e-01) (39, -1.78471967577934265137e-01) (40, 1.09569326043128967285e-01) (41, -3.64044696092605590820e-01) (42, -6.32227003574371337891e-01) (43, -6.46027088165283203125e-01) (44, -1.26786136627197265625e+00) (45, -5.44613301753997802734e-01) (46, -7.56125897169113159180e-02) (47, -4.40349988639354705811e-02) (48, -3.29547435045242309570e-01) (0, 4.46400754153728485107e-02) (1, -9.04379487037658691406e-02) (2, -2.15732917189598083496e-01) (3, -1.21316097676753997803e-01) (4, -9.06696096062660217285e-02) (5, 8.18480178713798522949e-02) (6, 6.89121782779693603516e-02) (7, -9.16538760066032409668e-02) (8, 3.40043790638446807861e-02) (9, -1.32382109761238098145e-01) (10, -3.31362426280975341797e-01) (11, -1.99803069233894348145e-01) (12, 4.13026697933673858643e-02) (13, 9.15290489792823791504e-02) (14, 1.31905302405357360840e-01) (15, 1.03062674403190612793e-01) (16, -1.61529257893562316895e-01) (17, -2.05299690365791320801e-01) (18, -2.44019001722335815430e-01) (19, -1.47807344794273376465e-01) (20, -4.39954139292240142822e-02) (21, -2.95720875263214111328e-01) (22, -3.27871471643447875977e-01) (23, -5.43782234191894531250e-01) (24, -2.90859878063201904297e-01) (25, -2.63564676046371459961e-01) (26, -3.01898777484893798828e-01) (27, -1.55387505888938903809e-01) (28, -1.28143981099128723145e-01) (29, -2.71424978971481323242e-01) (30, -3.81090521812438964844e-01) (31, -4.48693722486495971680e-01) (32, -6.77915811538696289062e-02) (33, -3.37489902973175048828e-01) (34, -4.83057379722595214844e-01) (35, -5.30530095100402832031e-01) (36, -2.84063905477523803711e-01) (37, -3.00805926322937011719e-01) (38, -4.04291301965713500977e-01) (39, -3.93708562478423118591e-03) (40, 1.11283473670482635498e-01) (41, -1.14496469497680664062e-01) (42, -2.42901220917701721191e-01) (43, -4.27138090133666992188e-01) (44, -2.42384463548660278320e-01) (45, -1.31082534790039062500e-01) (46, -5.30970282852649688721e-02) (47, 6.28266260027885437012e-02) (48, -4.78689968585968017578e-01) (0, -1.29063762724399566650e-02) (1, 1.05762043967843055725e-02) (2, -2.91369855403900146484e-01) (3, -1.53220519423484802246e-01) (4, 1.89410038292407989502e-02) (5, 1.51453003287315368652e-01) (6, 2.15824320912361145020e-01) (7, -3.74158956110477447510e-02) (8, 1.26663208007812500000e-01) (9, -2.55032330751419067383e-02) (10, -2.82618701457977294922e-01) (11, -1.23274065554141998291e-01) (12, 1.49641901254653930664e-01) (13, 1.86084181070327758789e-01) (14, 3.05653601884841918945e-01) (15, 2.07700997591018676758e-01) (16, -1.87549084424972534180e-01) (17, -3.35844933986663818359e-01) (18, -2.85039752721786499023e-01) (19, -2.09134176373481750488e-01) (20, 6.60938918590545654297e-02) (21, -1.99380666017532348633e-01) (22, -5.30868411064147949219e-01) (23, -5.25790393352508544922e-01) (24, -4.28740233182907104492e-01) (25, -3.84046703577041625977e-01) (26, -2.66669809818267822266e-01) (27, -2.57423043251037597656e-01) (28, -1.52463048696517944336e-01) (29, -2.76928544044494628906e-01) (30, -4.34378474950790405273e-01) (31, -5.73582589626312255859e-01) (32, 7.66579285264015197754e-02) (33, -3.73554110527038574219e-01) (34, -3.54162245988845825195e-01) (35, -4.55896645784378051758e-01) (36, -9.58178266882896423340e-02) (37, -4.04065132141113281250e-01) (38, -6.32507145404815673828e-01) (39, 2.91886497288942337036e-02) (40, 7.85007253289222717285e-02) (41, -7.72148892283439636230e-02) (42, -2.99342870712280273438e-01) (43, -2.65220463275909423828e-01) (44, -2.12577968835830688477e-01) (45, -1.71589508652687072754e-01) (46, -1.50875762104988098145e-01) (47, -2.13752221316099166870e-02) (48, -4.22741234302520751953e-01) (0, -4.99713458120822906494e-02) (1, 6.57600611448287963867e-02) (2, 1.46951913833618164062e-01) (3, 1.25660091638565063477e-01) (4, -3.73596638441085815430e-01) (5, -1.30829140543937683105e-01) (6, -2.02623158693313598633e-01) (7, -1.70929878950119018555e-01) (8, 8.57467800378799438477e-02) (9, 1.80375780910253524780e-02) (10, -1.42845347523689270020e-01) (11, -1.54588714241981506348e-01) (12, -4.41559165716171264648e-01) (13, -3.51598083972930908203e-01) (14, -2.33933940529823303223e-01) (15, 1.94492980837821960449e-01) (16, -2.65270918607711791992e-01) (17, 1.84190779924392700195e-01) (18, -5.32170385122299194336e-02) (19, -1.33598923683166503906e-01) (20, -5.95402777194976806641e-01) (21, -5.89086353778839111328e-01) (22, -5.00480651855468750000e-01) (23, -6.89731061458587646484e-01) (24, 6.66334405541419982910e-02) (25, -2.52107560634613037109e-01) (26, -7.24558830261230468750e-02) (27, -3.04652363061904907227e-01) (28, -4.92908179759979248047e-01) (29, -5.83135426044464111328e-01) (30, -7.64319598674774169922e-01) (31, -6.56779944896697998047e-01) (32, 7.52851963043212890625e-02) (33, -4.17933732271194458008e-01) (34, -2.94477254152297973633e-01) (35, -4.84349727630615234375e-01) (36, -6.76167845726013183594e-01) (37, -4.05292838811874389648e-01) (38, -4.38205480575561523438e-01) (39, -1.02693304419517517090e-01) (40, 1.07947349548339843750e-01) (41, -2.85756886005401611328e-01) (42, -4.06676739454269409180e-01) (43, -4.12029653787612915039e-01) (44, -5.77570974826812744141e-01) (45, -4.63296979665756225586e-01) (46, -1.15996971726417541504e-01) (47, -1.45339459180831909180e-01) (48, -6.67733132839202880859e-01) (0, -5.81696406006813049316e-02) (1, -2.08926573395729064941e-02) (2, -8.73903036117553710938e-02) (3, -8.61231908202171325684e-02) (4, -9.38198193907737731934e-02) (5, -1.31610147655010223389e-02) (6, 1.28917649388313293457e-01) (7, -1.26157209277153015137e-01) (8, -1.73639517743140459061e-03) (9, -1.88107445836067199707e-01) (10, -1.16171643137931823730e-01) (11, -1.48583099246025085449e-01) (12, 2.02244166284799575806e-02) (13, 4.99716363847255706787e-02) (14, 1.21801532804965972900e-02) (15, 1.80885702371597290039e-01) (16, -3.41213524341583251953e-01) (17, -9.01907384395599365234e-02) (18, -8.64079892635345458984e-02) (19, -1.38474842533469200134e-02) (20, -1.29095315933227539062e-01) (21, -2.14844360947608947754e-01) (22, -2.64478415250778198242e-01) (23, -5.53171038627624511719e-01) (24, -2.12936028838157653809e-01) (25, -2.65906095504760742188e-01) (26, -3.45266699790954589844e-01) (27, -1.90373286604881286621e-01) (28, -2.63161033391952514648e-01) (29, -3.06796193122863769531e-01) (30, -4.24935370683670043945e-01) (31, -4.13395345211029052734e-01) (32, -1.01326063275337219238e-01) (33, -4.28100407123565673828e-01) (34, -4.42403942346572875977e-01) (35, -4.77133423089981079102e-01) (36, -2.63807296752929687500e-01) (37, -3.71184259653091430664e-01) (38, -3.50386708974838256836e-01) (39, 2.77697993442416191101e-03) (40, 7.40126660093665122986e-03) (41, -2.15701356530189514160e-01) (42, -1.34613603353500366211e-01) (43, -4.38726365566253662109e-01) (44, -3.16803872585296630859e-01) (45, -2.14161962270736694336e-01) (46, -9.24055203795433044434e-02) (47, 4.20060120522975921631e-02) (48, -5.24811923503875732422e-01) (0, -1.07497580349445343018e-01) (1, -4.11531105637550354004e-02) (2, -1.74644559621810913086e-01) (3, -1.47550269961357116699e-01) (4, -1.85889974236488342285e-01) (5, -1.87245123088359832764e-02) (6, 2.66571283340454101562e-01) (7, 8.48324522376060485840e-02) (8, -4.14695963263511657715e-02) (9, -2.15649485588073730469e-01) (10, -1.34735822677612304688e-01) (11, -1.61997765302658081055e-01) (12, -3.65561358630657196045e-02) (13, 2.39756450057029724121e-01) (14, 3.06800246238708496094e-01) (15, 2.26633518934249877930e-01) (16, -5.34540891647338867188e-01) (17, -4.01441663503646850586e-01) (18, -6.80919662117958068848e-02) (19, -3.74843209981918334961e-01) (20, 1.06170542538166046143e-01) (21, -2.21058279275894165039e-01) (22, -4.03157144784927368164e-01) (23, -6.96949124336242675781e-01) (24, -6.33355021476745605469e-01) (25, -4.64834570884704589844e-01) (26, -5.30817151069641113281e-01) (27, -3.31400603055953979492e-01) (28, -2.81614243984222412109e-01) (29, -1.55478477478027343750e-01) (30, -5.84669113159179687500e-01) (31, -4.25960987806320190430e-01) (32, -1.21512584388256072998e-01) (33, -5.94044923782348632812e-01) (34, -5.86178541183471679688e-01) (35, -6.14349365234375000000e-01) (36, -1.97186768054962158203e-01) (37, -4.26447629928588867188e-01) (38, -3.48468095064163208008e-01) (39, 5.49881793558597564697e-02) (40, 3.29927802085876464844e-01) (41, -2.03885719180107116699e-01) (42, 1.56498298048973083496e-01) (43, -7.72629261016845703125e-01) (44, -2.81107544898986816406e-01) (45, -2.38694339990615844727e-01) (46, 3.30479852855205535889e-02) (47, 2.15096212923526763916e-02) (48, -5.31539976596832275391e-01) (0, 8.20912197232246398926e-02) (1, -5.80179989337921142578e-02) (2, -9.79997292160987854004e-02) (3, -9.66500863432884216309e-02) (4, -1.01476080715656280518e-01) (5, 2.48831927776336669922e-01) (6, 2.19460308551788330078e-01) (7, -6.79204016923904418945e-02) (8, 7.18099474906921386719e-02) (9, -1.56004577875137329102e-01) (10, -2.49181494116783142090e-01) (11, -1.82219948619604110718e-02) (12, 9.15587246417999267578e-02) (13, 5.01946546137332916260e-02) (14, 1.56462281942367553711e-01) (15, 2.65753209590911865234e-01) (16, -2.31526896357536315918e-01) (17, -2.70038366317749023438e-01) (18, -3.13473850488662719727e-01) (19, -3.21730412542819976807e-02) (20, -1.51994571089744567871e-01) (21, -4.43948417901992797852e-01) (22, -4.48110818862915039062e-01) (23, -5.98869919776916503906e-01) (24, -4.54377353191375732422e-01) (25, -5.22537887096405029297e-01) (26, -2.95485734939575195312e-01) (27, -5.97219057381153106689e-02) (28, -1.93355798721313476562e-01) (29, -3.90353798866271972656e-01) (30, -5.92516958713531494141e-01) (31, -5.95904052257537841797e-01) (32, -2.06207007169723510742e-01) (33, -4.28524315357208251953e-01) (34, -4.81043338775634765625e-01) (35, -5.17575621604919433594e-01) (36, -1.70429632067680358887e-01) (37, -3.98741960525512695312e-01) (38, -5.84248781204223632812e-01) (39, -3.00719253718852996826e-02) (40, 8.08902233839035034180e-02) (41, -2.89743125438690185547e-01) (42, -1.75182342529296875000e-01) (43, -5.33576369285583496094e-01) (44, -1.99889078736305236816e-01) (45, -3.13350886106491088867e-01) (46, -3.42996679246425628662e-02) (47, 1.36579468846321105957e-01) (48, -3.96978080272674560547e-01) (0, 5.63011504709720611572e-02) (1, 4.42371238023042678833e-03) (2, -3.49826961755752563477e-02) (3, -1.06360435485839843750e-01) (4, -1.39971643686294555664e-01) (5, 1.11985594034194946289e-01) (6, 6.18268772959709167480e-02) (7, -1.64448231458663940430e-01) (8, 1.95182576775550842285e-01) (9, -1.14366449415683746338e-01) (10, -2.93876856565475463867e-01) (11, -3.59562970697879791260e-02) (12, 1.61448195576667785645e-02) (13, 4.55720424652099609375e-02) (14, 2.01217263936996459961e-01) (15, -1.74860227853059768677e-02) (16, -1.77781328558921813965e-01) (17, -2.82779365777969360352e-01) (18, -2.14963570237159729004e-01) (19, -8.77337977290153503418e-02) (20, -4.42378856241703033447e-02) (21, -4.47465330362319946289e-01) (22, -5.00876486301422119141e-01) (23, -3.84649604558944702148e-01) (24, -1.88111960887908935547e-01) (25, -3.39031904935836791992e-01) (26, -2.65493154525756835938e-01) (27, -6.62808865308761596680e-02) (28, 3.38730067014694213867e-02) (29, -2.11155250668525695801e-01) (30, -4.15527403354644775391e-01) (31, -5.12008249759674072266e-01) (32, -2.15495735406875610352e-01) (33, -4.77435022592544555664e-01) (34, -4.11981463432312011719e-01) (35, -5.19801437854766845703e-01) (36, -2.08193793892860412598e-01) (37, -1.34917885065078735352e-01) (38, -4.40246850252151489258e-01) (39, -4.12650369107723236084e-02) (40, -9.53092202544212341309e-02) (41, -2.68175452947616577148e-01) (42, -3.14288794994354248047e-01) (43, -2.75227218866348266602e-01) (44, -2.84029394388198852539e-01) (45, -1.32798016071319580078e-01) (46, 9.75289493799209594727e-02) (47, 1.06215514242649078369e-01) (48, -4.43655788898468017578e-01) (0, 8.18070769309997558594e-02) (1, 7.99603611230850219727e-02) (2, -2.72084981203079223633e-01) (3, -1.22054584324359893799e-01) (4, -1.70113071799278259277e-01) (5, 2.76637226343154907227e-01) (6, 2.47772857546806335449e-01) (7, 6.73515116795897483826e-03) (8, 6.28825351595878601074e-02) (9, -9.27063748240470886230e-02) (10, -2.49408736824989318848e-01) (11, -1.80195510387420654297e-01) (12, 2.37318277359008789062e-01) (13, 2.53628492355346679688e-01) (14, 2.29234516620635986328e-01) (15, 3.30533772706985473633e-01) (16, -4.54585760831832885742e-01) (17, -1.20420068502426147461e-01) (18, -2.13259592652320861816e-01) (19, -2.71533340215682983398e-01) (20, 3.55553515255451202393e-02) (21, -2.04332068562507629395e-01) (22, -4.99399363994598388672e-01) (23, -5.90847373008728027344e-01) (24, -5.78201591968536376953e-01) (25, -2.12604582309722900391e-01) (26, -4.83661592006683349609e-01) (27, -3.31155359745025634766e-01) (28, -1.68900147080421447754e-01) (29, -2.01189145445823669434e-01) (30, -4.42617446184158325195e-01) (31, -5.50479471683502197266e-01) (32, -1.54043942689895629883e-01) (33, -3.26815873384475708008e-01) (34, -4.97289866209030151367e-01) (35, -5.90068995952606201172e-01) (36, -1.13996453583240509033e-01) (37, -2.54276365041732788086e-01) (38, -5.83180248737335205078e-01) (39, -4.63479086756706237793e-02) (40, 1.28608658909797668457e-01) (41, -1.00577250123023986816e-01) (42, -1.05156995356082916260e-01) (43, -5.98770260810852050781e-01) (44, -2.15788081288337707520e-01) (45, -3.76947373151779174805e-01) (46, -1.44302010536193847656e-01) (47, 1.41425043344497680664e-01) (48, -4.55177605152130126953e-01) (0, -3.07379234582185745239e-02) (1, 2.86843013018369674683e-02) (2, -1.44441291689872741699e-01) (3, -7.08004683256149291992e-02) (4, -2.45457127690315246582e-01) (5, -3.57184074819087982178e-02) (6, 5.82993552088737487793e-02) (7, 8.66963341832160949707e-02) (8, 3.55485714972019195557e-02) (9, -4.78314002975821495056e-03) (10, -2.14550375938415527344e-01) (11, -3.02163120359182357788e-02) (12, -1.13983362913131713867e-01) (13, -9.52203273773193359375e-02) (14, 1.45137131214141845703e-01) (15, 2.01471596956253051758e-01) (16, -5.25019884109497070312e-01) (17, 3.33728734403848648071e-03) (18, -2.49035283923149108887e-02) (19, -8.08060616254806518555e-02) (20, -2.63254940509796142578e-01) (21, -5.33572852611541748047e-01) (22, -4.09128457307815551758e-01) (23, -8.91150057315826416016e-01) (24, -4.43339884281158447266e-01) (25, -3.06107968091964721680e-01) (26, -3.91738444566726684570e-01) (27, -3.08038920164108276367e-01) (28, -5.74704885482788085938e-01) (29, -4.31287527084350585938e-01) (30, -7.51355826854705810547e-01) (31, -7.16673314571380615234e-01) (32, 8.58333259820938110352e-02) (33, -2.17438906431198120117e-01) (34, -5.68410575389862060547e-01) (35, -6.87430977821350097656e-01) (36, -5.39055287837982177734e-01) (37, -5.78643679618835449219e-01) (38, -5.40792107582092285156e-01) (39, 1.22620966285467147827e-02) (40, 3.91449570655822753906e-01) (41, -1.01175487041473388672e-01) (42, -1.27329736948013305664e-01) (43, -8.88786375522613525391e-01) (44, -4.29991215467453002930e-01) (45, -5.56592583656311035156e-01) (46, -9.74612385034561157227e-02) (47, 1.83360278606414794922e-02) (48, -5.07111668586730957031e-01) (0, 7.27602541446685791016e-02) (1, -1.34793102741241455078e-01) (2, 7.24096179008483886719e-01) (3, 9.53495264053344726562e-01) (4, -4.59740787744522094727e-01) (5, -6.72316133975982666016e-01) (6, 6.58876815577968955040e-05) (7, 2.41516679525375366211e-01) (8, 3.44079732894897460938e-02) (9, -8.58143508434295654297e-01) (10, 4.62034195661544799805e-01) (11, -1.13922283053398132324e-01) (12, -1.37228325009346008301e-01) (13, 1.52103248983621597290e-02) (14, 6.93701982498168945312e-01) (15, 9.28228646516799926758e-02) (16, -7.43482470512390136719e-01) (17, -1.60608029365539550781e+00) (18, 3.66146057844161987305e-01) (19, -4.92893129587173461914e-01) (20, -5.99020183086395263672e-01) (21, -3.27404320240020751953e-01) (22, 3.30589920282363891602e-01) (23, 4.99273568391799926758e-01) (24, -1.31700229644775390625e+00) (25, -1.27074778079986572266e+00) (26, -8.37608337402343750000e-01) (27, -7.48854696750640869141e-01) (28, -1.05056607723236083984e+00) (29, -6.28551959991455078125e-01) (30, 5.30850648880004882812e-01) (31, 6.94474458694458007812e-01) (32, -9.19612884521484375000e-01) (33, -1.30137681961059570312e+00) (34, -8.08141469955444335938e-01) (35, -6.29755616188049316406e-01) (36, -1.16322565078735351562e+00) (37, 5.15318512916564941406e-02) (38, -5.28176985681056976318e-02) (39, 6.49038553237915039062e-01) (40, -2.77862131595611572266e-01) (41, -1.01495635509490966797e+00) (42, -3.87804418802261352539e-01) (43, -1.31901085376739501953e+00) (44, -7.17857420444488525391e-01) (45, 8.23058634996414184570e-02) (46, 5.54288923740386962891e-01) (47, 5.77654480934143066406e-01) (48, -1.09284669160842895508e-01) (0, 1.59144088625907897949e-01) (1, -5.28486892580986022949e-02) (2, -1.38812765479087829590e-01) (3, -1.53806805610656738281e-01) (4, -6.98830485343933105469e-02) (5, 7.02798319980502128601e-03) (6, 6.70793466269969940186e-03) (7, -1.93005248904228210449e-01) (8, 2.23828658461570739746e-01) (9, -1.06793507933616638184e-01) (10, -2.79252320528030395508e-01) (11, -8.62791985273361206055e-02) (12, -8.54228585958480834961e-02) (13, 7.89820253849029541016e-02) (14, 1.38290718197822570801e-01) (15, -3.98223362863063812256e-02) (16, -2.80940122902393341064e-02) (17, -1.92580327391624450684e-01) (18, -2.62841343879699707031e-01) (19, -1.88111830502748489380e-02) (20, -1.15507796406745910645e-01) (21, -3.76198112964630126953e-01) (22, -5.22036612033843994141e-01) (23, -4.84141707420349121094e-01) (24, -2.19784140586853027344e-01) (25, -3.24965476989746093750e-01) (26, -2.36194431781768798828e-01) (27, -1.33839219808578491211e-01) (28, -2.40239098668098449707e-01) (29, -4.04519796371459960938e-01) (30, -3.50373864173889160156e-01) (31, -4.18119221925735473633e-01) (32, -1.41097173094749450684e-01) (33, -3.84481936693191528320e-01) (34, -4.09507393836975097656e-01) (35, -3.93817454576492309570e-01) (36, -2.85036653280258178711e-01) (37, -2.99216717481613159180e-01) (38, -4.65181201696395874023e-01) (39, 8.10668915510177612305e-02) (40, 7.60676711797714233398e-02) (41, -2.18424633145332336426e-01) (42, -3.42027515172958374023e-01) (43, -1.97293996810913085938e-01) (44, -1.69274210929870605469e-01) (45, -1.49323031306266784668e-01) (46, -3.74765731394290924072e-02) (47, 1.72695472836494445801e-01) (48, -4.57301735877990722656e-01) (0, -6.96604372933506965637e-03) (1, 4.48873825371265411377e-02) (2, 7.03817829489707946777e-02) (3, 9.06506478786468505859e-02) (4, -1.95695430040359497070e-01) (5, -2.81475812196731567383e-01) (6, -1.42368301749229431152e-01) (7, -3.20241451263427734375e-01) (8, 3.74500632286071777344e-01) (9, -6.81587308645248413086e-02) (10, -1.39205694198608398438e-01) (11, -2.76476293802261352539e-01) (12, -2.31630459427833557129e-01) (13, -3.05999338626861572266e-01) (14, -4.45274673402309417725e-02) (15, -3.72358381748199462891e-01) (16, 2.80574858188629150391e-01) (17, -2.42472022771835327148e-01) (18, -2.76942878961563110352e-01) (19, -3.61604273319244384766e-01) (20, -3.02292674779891967773e-01) (21, -2.50934422016143798828e-01) (22, -1.23507402837276458740e-01) (23, -2.64461666345596313477e-01) (24, 4.77735459804534912109e-01) (25, -7.13733881711959838867e-02) (26, 6.97189271450042724609e-02) (27, -2.28090450167655944824e-01) (28, -4.59902882575988769531e-02) (29, -3.94439101219177246094e-01) (30, -4.18696463108062744141e-01) (31, -2.27223858237266540527e-01) (32, -3.78114581108093261719e-01) (33, 1.02682244032621383667e-02) (34, -9.20599922537803649902e-02) (35, -3.01929444074630737305e-01) (36, -4.47451442480087280273e-01) (37, -2.33000278472900390625e-01) (38, -3.30489575862884521484e-01) (39, -1.65750205516815185547e-01) (40, -4.64089721441268920898e-01) (41, -5.28581321239471435547e-01) (42, -2.52320200204849243164e-01) (43, -1.63525387644767761230e-01) (44, -1.41736313700675964355e-01) (45, -1.27284303307533264160e-01) (46, 8.54935050010681152344e-02) (47, 1.19762206450104713440e-02) (48, -4.13908392190933227539e-01) (0, 5.51545135676860809326e-02) (1, 1.19007546454668045044e-02) (2, -2.13794797658920288086e-01) (3, -7.92539864778518676758e-02) (4, -2.81837016344070434570e-01) (5, 1.47228926420211791992e-01) (6, 1.20235949754714965820e-01) (7, 1.27249341458082199097e-02) (8, 1.59735649824142456055e-01) (9, -2.59918510913848876953e-01) (10, -4.59018796682357788086e-01) (11, -2.44272142648696899414e-01) (12, 2.50758796930313110352e-01) (13, 1.37130901217460632324e-01) (14, 3.28215479850769042969e-01) (15, 3.92972707748413085938e-01) (16, -2.91562497615814208984e-01) (17, -5.15137672424316406250e-01) (18, -3.21937888860702514648e-01) (19, -2.79685169458389282227e-01) (20, -1.58428236842155456543e-01) (21, -3.22458535432815551758e-01) (22, -4.99245971441268920898e-01) (23, -7.91684925556182861328e-01) (24, -3.79302561283111572266e-01) (25, -5.95302999019622802734e-01) (26, -4.02776777744293212891e-01) (27, -3.08736085891723632812e-01) (28, -3.59449028968811035156e-01) (29, -3.10260951519012451172e-01) (30, -4.23954546451568603516e-01) (31, -6.76030158996582031250e-01) (32, -1.65875196456909179688e-01) (33, -6.64326250553131103516e-01) (34, -6.61422550678253173828e-01) (35, -7.30853676795959472656e-01) (36, -1.83392256498336791992e-01) (37, -3.36129963397979736328e-01) (38, -4.69161242246627807617e-01) (39, 9.13470163941383361816e-02) (40, -3.41167673468589782715e-02) (41, -2.63222932815551757812e-01) (42, -1.96737170219421386719e-01) (43, -7.39975273609161376953e-01) (44, -3.60523939132690429688e-01) (45, -2.78350114822387695312e-01) (46, 6.30593374371528625488e-02) (47, 4.16719257831573486328e-01) (48, -4.54260110855102539062e-01) (0, 1.07353385537862777710e-02) (1, -1.63985922932624816895e-01) (2, -1.45714238286018371582e-01) (3, -2.15012416243553161621e-01) (4, -2.89290130138397216797e-01) (5, -2.88465358316898345947e-02) (6, 1.02814316749572753906e-01) (7, 1.26680165529251098633e-01) (8, 1.21043585240840911865e-01) (9, -2.13203176856040954590e-01) (10, -4.78276386857032775879e-02) (11, -3.22923734784126281738e-02) (12, -2.27494969964027404785e-01) (13, 8.95597189664840698242e-02) (14, 1.16388015449047088623e-01) (15, 1.06643863022327423096e-01) (16, -4.47718620300292968750e-01) (17, -2.67730265855789184570e-01) (18, -7.18716084957122802734e-02) (19, -2.77681320905685424805e-01) (20, -1.35364264249801635742e-01) (21, -1.19076475501060485840e-01) (22, -3.55221867561340332031e-01) (23, -3.68901997804641723633e-01) (24, -7.23409533500671386719e-01) (25, -3.29867959022521972656e-01) (26, -5.27128815650939941406e-01) (27, -3.94014388322830200195e-01) (28, -2.08465859293937683105e-01) (29, -2.93833822011947631836e-01) (30, -2.60819166898727416992e-01) (31, -2.83159296959638595581e-02) (32, -7.78040140867233276367e-02) (33, -4.43583250045776367188e-01) (34, -3.60656410455703735352e-01) (35, -3.91544312238693237305e-01) (36, -2.71530270576477050781e-01) (37, -1.95673123002052307129e-01) (38, -1.05947606265544891357e-01) (39, 1.42246857285499572754e-01) (40, 2.17494651675224304199e-01) (41, -2.10157841444015502930e-01) (42, 9.59580689668655395508e-02) (43, -5.82163155078887939453e-01) (44, -3.34391713142395019531e-01) (45, -2.84015357494354248047e-01) (46, 7.38949893275275826454e-05) (47, 1.39345973730087280273e-01) (48, -4.72401112318038940430e-01) (0, -5.92700168490409851074e-02) (1, 1.19008440524339675903e-02) (2, -2.89457775652408599854e-02) (3, -1.00307492539286613464e-02) (4, -1.40210196375846862793e-01) (5, -8.43719467520713806152e-02) (6, 8.88417288661003112793e-02) (7, -6.37403130531311035156e-02) (8, 2.19834912568330764771e-02) (9, -1.35980412364006042480e-01) (10, -6.76474124193191528320e-02) (11, -3.82115505635738372803e-02) (12, -3.22732068598270416260e-02) (13, -2.77386531233787536621e-02) (14, 5.36580979824066162109e-02) (15, 1.47293582558631896973e-01) (16, -4.19930577278137207031e-01) (17, 8.77246037125587463379e-02) (18, -9.89515408873558044434e-02) (19, -5.46910837292671203613e-02) (20, -3.04409414529800415039e-01) (21, -4.63187664747238159180e-01) (22, -5.19717693328857421875e-01) (23, -7.71247386932373046875e-01) (24, -4.14190500974655151367e-01) (25, -5.92800639569759368896e-02) (26, -2.98447161912918090820e-01) (27, -2.61749565601348876953e-01) (28, -5.62653899192810058594e-01) (29, -3.79676133394241333008e-01) (30, -7.33985602855682373047e-01) (31, -5.01312553882598876953e-01) (32, 1.23950675129890441895e-01) (33, -3.07597309350967407227e-01) (34, -5.00088691711425781250e-01) (35, -6.08292460441589355469e-01) (36, -4.87648874521255493164e-01) (37, -4.71155196428298950195e-01) (38, -4.15284276008605957031e-01) (39, -2.39595491439104080200e-02) (40, 2.74514526128768920898e-01) (41, -1.76931977272033691406e-01) (42, -1.91847205162048339844e-01) (43, -7.57827281951904296875e-01) (44, -3.89316290616989135742e-01) (45, -5.60941934585571289062e-01) (46, -1.78481310606002807617e-01) (47, 5.49194812774658203125e-02) (48, -5.33641576766967773438e-01) (0, 2.61389821767807006836e-01) (1, 1.98572307825088500977e-01) (2, 1.23817868530750274658e-01) (3, 3.09867411851882934570e-01) (4, -1.19293689727783203125e-01) (5, 1.08872409909963607788e-02) (6, 1.30563691258430480957e-01) (7, -1.82400748133659362793e-01) (8, 2.75098800659179687500e-01) (9, -9.15873721241950988770e-02) (10, -2.96860605478286743164e-01) (11, -1.85094267129898071289e-01) (12, 1.92607641220092773438e-01) (13, 2.14415207505226135254e-01) (14, 3.49204272031784057617e-01) (15, -4.75202649831771850586e-02) (16, -2.86257453262805938721e-02) (17, -4.86599147319793701172e-01) (18, -2.68490046262741088867e-01) (19, -2.62190520763397216797e-01) (20, -1.11652404069900512695e-01) (21, -2.42269918322563171387e-01) (22, -1.94566234946250915527e-01) (23, -2.52543836832046508789e-01) (24, -9.29391607642173767090e-02) (25, -2.17275381088256835938e-01) (26, -2.69366502761840820312e-01) (27, -1.43260210752487182617e-01) (28, -8.46529304981231689453e-02) (29, -2.57253736257553100586e-01) (30, -3.55416715145111083984e-01) (31, -2.05157250165939331055e-01) (32, -2.96270340681076049805e-01) (33, -5.37413895130157470703e-01) (34, -2.91515290737152099609e-01) (35, -6.53784334659576416016e-01) (36, -3.96101057529449462891e-01) (37, -2.06371605396270751953e-01) (38, -4.10890489816665649414e-01) (39, 2.21038162708282470703e-02) (40, -3.19333761930465698242e-01) (41, -4.90190863609313964844e-01) (42, -2.84081935882568359375e-01) (43, -4.78274941444396972656e-01) (44, -1.59269079566001892090e-01) (45, -2.15054452419281005859e-02) (46, 9.63596627116203308105e-02) (47, 1.42526894807815551758e-01) (48, -5.87880074977874755859e-01) (0, 9.90156233310699462891e-02) (1, 1.83777704834938049316e-01) (2, 1.97126135230064392090e-01) (3, 2.69229382276535034180e-01) (4, -3.17293226718902587891e-01) (5, -3.55191051959991455078e-01) (6, -1.38194099068641662598e-01) (7, -1.99214234948158264160e-01) (8, 5.53353726863861083984e-01) (9, -8.47861096262931823730e-02) (10, -6.99154287576675415039e-02) (11, -8.32539498805999755859e-02) (12, 7.74563327431678771973e-02) (13, -1.89110264182090759277e-01) (14, 3.36468927562236785889e-02) (15, -1.46771863102912902832e-01) (16, 9.59046483039855957031e-02) (17, 7.52092972397804260254e-02) (18, -4.52250599861145019531e-01) (19, -7.69187361001968383789e-02) (20, -5.95024824142456054688e-02) (21, -1.19511581957340240479e-01) (22, -7.85658359527587890625e-02) (23, -3.21579873561859130859e-01) (24, 2.60385453701019287109e-01) (25, -3.52071791887283325195e-01) (26, 3.05356293916702270508e-01) (27, 5.38348779082298278809e-02) (28, 2.63522088527679443359e-01) (29, -2.85895973443984985352e-01) (30, -3.91926944255828857422e-01) (31, -1.84308096766471862793e-01) (32, -6.08482182025909423828e-01) (33, -2.81671524047851562500e-01) (34, -4.59549307823181152344e-01) (35, -3.95552635192871093750e-01) (36, 5.80556597560644149780e-03) (37, -2.12690830230712890625e-01) (38, -1.90339952707290649414e-01) (39, 1.04064732789993286133e-01) (40, -5.29377520084381103516e-01) (41, -8.20004463195800781250e-01) (42, -4.48726147413253784180e-01) (43, -5.96825480461120605469e-01) (44, -7.46372640132904052734e-02) (45, 5.84824308753013610840e-02) (46, 4.09566313028335571289e-01) (47, 2.99454122781753540039e-01) (48, -4.94357943534851074219e-01) (0, -4.65658046305179595947e-02) (1, 1.46337479352951049805e-01) (2, 3.01496535539627075195e-01) (3, 1.17025025188922882080e-01) (4, -4.70425754785537719727e-01) (5, -7.90403336286544799805e-02) (6, -1.42365172505378723145e-02) (7, 8.71831774711608886719e-02) (8, 2.02904105186462402344e-01) (9, 1.41116499900817871094e-01) (10, -6.17147088050842285156e-02) (11, 1.02037966251373291016e-01) (12, -4.61612492799758911133e-01) (13, -1.49090051651000976562e-01) (14, -2.45293691754341125488e-01) (15, 2.80670255422592163086e-01) (16, -3.89946222305297851562e-01) (17, 1.63183763623237609863e-01) (18, -5.61325764283537864685e-03) (19, -8.05245712399482727051e-03) (20, -7.79717862606048583984e-01) (21, -7.01043248176574707031e-01) (22, -7.41507351398468017578e-01) (23, -1.01050865650177001953e+00) (24, -1.17928743362426757812e-01) (25, -1.42885401844978332520e-01) (26, -1.79038181900978088379e-01) (27, -2.74180233478546142578e-01) (28, -9.13473844528198242188e-01) (29, -5.54543077945709228516e-01) (30, -8.36595892906188964844e-01) (31, -7.10293114185333251953e-01) (32, 2.01134040951728820801e-01) (33, -3.31684708595275878906e-01) (34, -3.50061625242233276367e-01) (35, -7.50766396522521972656e-01) (36, -8.91313374042510986328e-01) (37, -4.24607396125793457031e-01) (38, -5.46248674392700195312e-01) (39, -2.14201658964157104492e-01) (40, 2.73259341716766357422e-01) (41, -3.32201689481735229492e-01) (42, -2.56906718015670776367e-01) (43, -6.59361481666564941406e-01) (44, -9.00141775608062744141e-01) (45, -5.51666617393493652344e-01) (46, -5.58257438242435455322e-02) (47, 3.23623158037662506104e-02) (48, -5.09409368038177490234e-01) (0, 2.39235796034336090088e-02) (1, -1.06911234557628631592e-01) (2, 3.94068993628025054932e-02) (3, -3.76795791089534759521e-02) (4, -2.34621226787567138672e-01) (5, -2.54020065069198608398e-01) (6, -1.34737387299537658691e-01) (7, -1.75363525748252868652e-01) (8, 1.53425067663192749023e-01) (9, -3.81728238426148891449e-03) (10, -1.07639767229557037354e-01) (11, -8.43032225966453552246e-02) (12, -3.79053682088851928711e-01) (13, 6.12920820713043212891e-02) (14, -2.29339405894279479980e-01) (15, -1.76704116165637969971e-02) (16, -3.65723371505737304688e-02) (17, 5.16841299831867218018e-02) (18, -1.57824382185935974121e-02) (19, 3.57799306511878967285e-02) (20, -4.69486981630325317383e-01) (21, -3.46306115388870239258e-01) (22, -3.10909479856491088867e-01) (23, 1.30489086732268333435e-02) (24, -3.11438828706741333008e-01) (25, -2.07842990756034851074e-01) (26, -4.07574802637100219727e-01) (27, -1.95155411958694458008e-01) (28, -5.13165771961212158203e-01) (29, -1.45957678556442260742e-01) (30, 4.38993871212005615234e-02) (31, 1.70414611697196960449e-01) (32, 2.67412841320037841797e-01) (33, -2.06395968794822692871e-01) (34, -2.44420662522315979004e-01) (35, -1.63296386599540710449e-01) (36, -3.04935246706008911133e-01) (37, -1.57087400555610656738e-01) (38, 2.05852553248405456543e-01) (39, 1.02610625326633453369e-01) (40, 4.14359688758850097656e-01) (41, 2.84561991691589355469e-01) (42, -2.64800667762756347656e-01) (43, -3.12942489981651306152e-02) (44, -4.24416273832321166992e-01) (45, -2.25740104913711547852e-01) (46, 6.14979630336165428162e-03) (47, 2.99179226160049438477e-01) (48, -3.72823506593704223633e-01) (0, 2.99040317535400390625e-01) (1, 1.52126237750053405762e-01) (2, 1.80569306015968322754e-01) (3, 2.79537767171859741211e-01) (4, -1.44522383809089660645e-01) (5, -1.11837960779666900635e-01) (6, -1.66848793625831604004e-01) (7, -1.37668818235397338867e-01) (8, 4.03714656829833984375e-01) (9, 1.57962635159492492676e-01) (10, -2.67201066017150878906e-01) (11, -3.34960103034973144531e-01) (12, -1.16690613329410552979e-01) (13, 2.55609363317489624023e-01) (14, 1.75841882824897766113e-01) (15, -5.82249283790588378906e-01) (16, 2.53723502159118652344e-01) (17, -1.67682752013206481934e-01) (18, -1.81513339281082153320e-01) (19, -2.65977859497070312500e-01) (20, -5.79379141330718994141e-01) (21, -1.63345456123352050781e-01) (22, -4.81138378381729125977e-01) (23, -1.20512749999761581421e-02) (24, 1.44276410341262817383e-01) (25, 6.98156356811523437500e-02) (26, -6.36251047253608703613e-02) (27, -5.12569770216941833496e-02) (28, -2.27698937058448791504e-01) (29, -2.09608033299446105957e-01) (30, -1.43170520663261413574e-01) (31, -7.13566988706588745117e-02) (32, -9.52635332942008972168e-02) (33, -2.57729560136795043945e-01) (34, 1.02254254743456840515e-02) (35, -2.73879230022430419922e-01) (36, -4.12859171628952026367e-01) (37, -2.72317171096801757812e-01) (38, -3.51021736860275268555e-01) (39, 2.30185031890869140625e-01) (40, -3.02222147583961486816e-02) (41, -2.11256891489028930664e-01) (42, -4.07377630472183227539e-01) (43, -2.23336368799209594727e-01) (44, -2.16685645282268524170e-02) (45, -1.97966262698173522949e-01) (46, -5.67018277943134307861e-02) (47, 1.84215649962425231934e-01) (48, -4.67217803001403808594e-01) (0, 1.03278970345854759216e-02) (1, 2.14454814791679382324e-01) (2, -9.00154002010822296143e-03) (3, 9.23933759331703186035e-02) (4, -6.06838285923004150391e-01) (5, 1.12638838589191436768e-01) (6, 1.64026878774166107178e-02) (7, -5.92740215361118316650e-02) (8, 1.99904605746269226074e-01) (9, 4.95250299572944641113e-02) (10, -2.53052800893783569336e-01) (11, -7.59594365954399108887e-02) (12, -3.84497135877609252930e-01) (13, -1.78556554019451141357e-02) (14, -1.07215573734720237553e-05) (15, 3.27416807413101196289e-01) (16, -3.02808284759521484375e-01) (17, 1.00636593997478485107e-01) (18, -1.99544787406921386719e-01) (19, -1.59701287746429443359e-01) (20, -5.03623068332672119141e-01) (21, -6.64697051048278808594e-01) (22, -6.72559201717376708984e-01) (23, -1.09449601173400878906e+00) (24, -3.18582624197006225586e-01) (25, -2.54653394222259521484e-01) (26, -3.29563498497009277344e-01) (27, -3.85463714599609375000e-01) (28, -6.93344056606292724609e-01) (29, -4.59509223699569702148e-01) (30, -8.13167333602905273438e-01) (31, -8.50968360900878906250e-01) (32, 6.85377940535545349121e-02) (33, -3.63258719444274902344e-01) (34, -4.95152205228805541992e-01) (35, -8.61255824565887451172e-01) (36, -7.72035598754882812500e-01) (37, -5.82828700542449951172e-01) (38, -6.76319301128387451172e-01) (39, -2.09452286362648010254e-02) (40, 2.92715460062026977539e-01) (41, -1.42561584711074829102e-01) (42, -9.18799042701721191406e-02) (43, -8.94363462924957275391e-01) (44, -7.05850303173065185547e-01) (45, -5.16565263271331787109e-01) (46, -7.65890553593635559082e-02) (47, 1.04912407696247100830e-01) (48, -5.45901358127593994141e-01) (0, 8.25299397110939025879e-02) (1, 5.08005842566490173340e-02) (2, -3.67446150630712509155e-03) (3, 3.08227911591529846191e-02) (4, 2.26018186658620834351e-02) (5, -5.00293448567390441895e-02) (6, 3.59166860580444335938e-02) (7, -4.40204888582229614258e-02) (8, 1.29516929388046264648e-01) (9, -3.97042185068130493164e-01) (10, -8.58651623129844665527e-02) (11, -2.35012263059616088867e-01) (12, 3.44196632504463195801e-02) (13, 4.52209040522575378418e-02) (14, 3.18838953971862792969e-01) (15, 1.06440424919128417969e-01) (16, -5.42334556579589843750e-01) (17, -6.74108743667602539062e-01) (18, -3.39765995740890502930e-01) (19, -3.86743456125259399414e-01) (20, -4.56340573728084564209e-02) (21, -2.73182123899459838867e-01) (22, -3.51718723773956298828e-01) (23, -3.32090973854064941406e-01) (24, -6.24245524406433105469e-01) (25, -4.73978579044342041016e-01) (26, -5.22088587284088134766e-01) (27, -5.41293382644653320312e-01) (28, -3.68017554283142089844e-01) (29, -4.48929756879806518555e-01) (30, -3.54304999113082885742e-01) (31, -1.59883007407188415527e-01) (32, -4.45468336343765258789e-01) (33, -6.94873690605163574219e-01) (34, 