FANN_FLO_2.1
num_layers=4
learning_rate=0.700000
connection_rate=1.000000
network_type=0
learning_momentum=0.400000
training_algorithm=0
train_error_function=1
train_stop_function=0
cascade_output_change_fraction=0.010000
quickprop_decay=-0.000100
quickprop_mu=1.750000
rprop_increase_factor=1.200000
rprop_decrease_factor=0.500000
rprop_delta_min=0.000000
rprop_delta_max=50.000000
rprop_delta_zero=0.100000
cascade_output_stagnation_epochs=12
cascade_candidate_change_fraction=0.010000
cascade_candidate_stagnation_epochs=12
cascade_max_out_epochs=150
cascade_min_out_epochs=50
cascade_max_cand_epochs=150
cascade_min_cand_epochs=50
cascade_num_candidate_groups=2
bit_fail_limit=3.49999994039535522461e-01
cascade_candidate_limit=1.00000000000000000000e+03
cascade_weight_multiplier=4.00000005960464477539e-01
cascade_activation_functions_count=10
cascade_activation_functions=3 5 7 8 10 11 14 15 16 17 
cascade_activation_steepnesses_count=4
cascade_activation_steepnesses=2.50000000000000000000e-01 5.00000000000000000000e-01 7.50000000000000000000e-01 1.00000000000000000000e+00 
layer_sizes=49 97 97 4 
scale_included=0
neurons (num_inputs, activation_function, activation_steepness)=(0, 0, 0.00000000000000000000e+00) (0, 0, 0.00000000000000000000e+00) (0, 0, 0.00000000000000000000e+00) (0, 0, 0.00000000000000000000e+00) (0, 0, 0.00000000000000000000e+00) (0, 0, 0.00000000000000000000e+00) (0, 0, 0.00000000000000000000e+00) (0, 0, 0.00000000000000000000e+00) (0, 0, 0.00000000000000000000e+00) (0, 0, 0.00000000000000000000e+00) (0, 0, 0.00000000000000000000e+00) (0, 0, 0.00000000000000000000e+00) (0, 0, 0.00000000000000000000e+00) (0, 0, 0.00000000000000000000e+00) (0, 0, 0.00000000000000000000e+00) (0, 0, 0.00000000000000000000e+00) (0, 0, 0.00000000000000000000e+00) (0, 0, 0.00000000000000000000e+00) (0, 0, 0.00000000000000000000e+00) (0, 0, 0.00000000000000000000e+00) (0, 0, 0.00000000000000000000e+00) (0, 0, 0.00000000000000000000e+00) (0, 0, 0.00000000000000000000e+00) (0, 0, 0.00000000000000000000e+00) (0, 0, 0.00000000000000000000e+00) (0, 0, 0.00000000000000000000e+00) (0, 0, 0.00000000000000000000e+00) (0, 0, 0.00000000000000000000e+00) (0, 0, 0.00000000000000000000e+00) (0, 0, 0.00000000000000000000e+00) (0, 0, 0.00000000000000000000e+00) (0, 0, 0.00000000000000000000e+00) (0, 0, 0.00000000000000000000e+00) (0, 0, 0.00000000000000000000e+00) (0, 0, 0.00000000000000000000e+00) (0, 0, 0.00000000000000000000e+00) (0, 0, 0.00000000000000000000e+00) (0, 0, 0.00000000000000000000e+00) (0, 0, 0.00000000000000000000e+00) (0, 0, 0.00000000000000000000e+00) (0, 0, 0.00000000000000000000e+00) (0, 0, 0.00000000000000000000e+00) (0, 0, 0.00000000000000000000e+00) (0, 0, 0.00000000000000000000e+00) (0, 0, 0.00000000000000000000e+00) (0, 0, 0.00000000000000000000e+00) (0, 0, 0.00000000000000000000e+00) (0, 0, 0.00000000000000000000e+00) (0, 0, 0.00000000000000000000e+00) (49, 4, 5.00000000000000000000e-01) (49, 4, 5.00000000000000000000e-01) (49, 4, 5.00000000000000000000e-01) (49, 4, 5.00000000000000000000e-01) (49, 4, 5.00000000000000000000e-01) (49, 4, 5.00000000000000000000e-01) (49, 4, 5.00000000000000000000e-01) (49, 4, 5.00000000000000000000e-01) (49, 4, 5.00000000000000000000e-01) (49, 4, 5.00000000000000000000e-01) (49, 4, 5.00000000000000000000e-01) (49, 4, 5.00000000000000000000e-01) (49, 4, 5.00000000000000000000e-01) (49, 4, 5.00000000000000000000e-01) (49, 4, 5.00000000000000000000e-01) (49, 4, 5.00000000000000000000e-01) (49, 4, 5.00000000000000000000e-01) (49, 4, 5.00000000000000000000e-01) (49, 4, 5.00000000000000000000e-01) (49, 4, 5.00000000000000000000e-01) (49, 4, 5.00000000000000000000e-01) (49, 4, 5.00000000000000000000e-01) (49, 4, 5.00000000000000000000e-01) (49, 4, 5.00000000000000000000e-01) (49, 4, 5.00000000000000000000e-01) (49, 4, 5.00000000000000000000e-01) (49, 4, 5.00000000000000000000e-01) (49, 4, 5.00000000000000000000e-01) (49, 4, 5.00000000000000000000e-01) (49, 4, 5.00000000000000000000e-01) (49, 4, 5.00000000000000000000e-01) (49, 4, 5.00000000000000000000e-01) (49, 4, 5.00000000000000000000e-01) (49, 4, 5.00000000000000000000e-01) (49, 4, 5.00000000000000000000e-01) (49, 4, 5.00000000000000000000e-01) (49, 4, 5.00000000000000000000e-01) (49, 4, 5.00000000000000000000e-01) (49, 4, 5.00000000000000000000e-01) (49, 4, 5.00000000000000000000e-01) (49, 4, 5.00000000000000000000e-01) (49, 4, 5.00000000000000000000e-01) (49, 4, 5.00000000000000000000e-01) (49, 4, 5.00000000000000000000e-01) (49, 4, 5.00000000000000000000e-01) (49, 4, 5.00000000000000000000e-01) (49, 4, 5.00000000000000000000e-01) (49, 4, 5.00000000000000000000e-01) (49, 4, 5.00000000000000000000e-01) (49, 4, 5.00000000000000000000e-01) (49, 4, 5.00000000000000000000e-01) (49, 4, 5.00000000000000000000e-01) (49, 4, 5.00000000000000000000e-01) (49, 4, 5.00000000000000000000e-01) (49, 4, 5.00000000000000000000e-01) (49, 4, 5.00000000000000000000e-01) (49, 4, 5.00000000000000000000e-01) (49, 4, 5.00000000000000000000e-01) (49, 4, 5.00000000000000000000e-01) (49, 4, 5.00000000000000000000e-01) (49, 4, 5.00000000000000000000e-01) (49, 4, 5.00000000000000000000e-01) (49, 4, 5.00000000000000000000e-01) (49, 4, 5.00000000000000000000e-01) (49, 4, 5.00000000000000000000e-01) (49, 4, 5.00000000000000000000e-01) (49, 4, 5.00000000000000000000e-01) (49, 4, 5.00000000000000000000e-01) (49, 4, 5.00000000000000000000e-01) (49, 4, 5.00000000000000000000e-01) (49, 4, 5.00000000000000000000e-01) (49, 4, 5.00000000000000000000e-01) (49, 4, 5.00000000000000000000e-01) (49, 4, 5.00000000000000000000e-01) (49, 4, 5.00000000000000000000e-01) (49, 4, 5.00000000000000000000e-01) (49, 4, 5.00000000000000000000e-01) (49, 4, 5.00000000000000000000e-01) (49, 4, 5.00000000000000000000e-01) (49, 4, 5.00000000000000000000e-01) (49, 4, 5.00000000000000000000e-01) (49, 4, 5.00000000000000000000e-01) (49, 4, 5.00000000000000000000e-01) (49, 4, 5.00000000000000000000e-01) (49, 4, 5.00000000000000000000e-01) (49, 4, 5.00000000000000000000e-01) (49, 4, 5.00000000000000000000e-01) (49, 4, 5.00000000000000000000e-01) (49, 4, 5.00000000000000000000e-01) (49, 4, 5.00000000000000000000e-01) (49, 4, 5.00000000000000000000e-01) (49, 4, 5.00000000000000000000e-01) (49, 4, 5.00000000000000000000e-01) (49, 4, 5.00000000000000000000e-01) (49, 4, 5.00000000000000000000e-01) (49, 4, 5.00000000000000000000e-01) (0, 0, 0.00000000000000000000e+00) (97, 4, 5.00000000000000000000e-01) (97, 4, 5.00000000000000000000e-01) (97, 4, 5.00000000000000000000e-01) (97, 4, 5.00000000000000000000e-01) (97, 4, 5.00000000000000000000e-01) (97, 4, 5.00000000000000000000e-01) (97, 4, 5.00000000000000000000e-01) (97, 4, 5.00000000000000000000e-01) (97, 4, 5.00000000000000000000e-01) (97, 4, 5.00000000000000000000e-01) (97, 4, 5.00000000000000000000e-01) (97, 4, 5.00000000000000000000e-01) (97, 4, 5.00000000000000000000e-01) (97, 4, 5.00000000000000000000e-01) (97, 4, 5.00000000000000000000e-01) (97, 4, 5.00000000000000000000e-01) (97, 4, 5.00000000000000000000e-01) (97, 4, 5.00000000000000000000e-01) (97, 4, 5.00000000000000000000e-01) (97, 4, 5.00000000000000000000e-01) (97, 4, 5.00000000000000000000e-01) (97, 4, 5.00000000000000000000e-01) (97, 4, 5.00000000000000000000e-01) (97, 4, 5.00000000000000000000e-01) (97, 4, 5.00000000000000000000e-01) (97, 4, 5.00000000000000000000e-01) (97, 4, 5.00000000000000000000e-01) (97, 4, 5.00000000000000000000e-01) (97, 4, 5.00000000000000000000e-01) (97, 4, 5.00000000000000000000e-01) (97, 4, 5.00000000000000000000e-01) (97, 4, 5.00000000000000000000e-01) (97, 4, 5.00000000000000000000e-01) (97, 4, 5.00000000000000000000e-01) (97, 4, 5.00000000000000000000e-01) (97, 4, 5.00000000000000000000e-01) (97, 4, 5.00000000000000000000e-01) (97, 4, 5.00000000000000000000e-01) (97, 4, 5.00000000000000000000e-01) (97, 4, 5.00000000000000000000e-01) (97, 4, 5.00000000000000000000e-01) (97, 4, 5.00000000000000000000e-01) (97, 4, 5.00000000000000000000e-01) (97, 4, 5.00000000000000000000e-01) (97, 4, 5.00000000000000000000e-01) (97, 4, 5.00000000000000000000e-01) (97, 4, 5.00000000000000000000e-01) (97, 4, 5.00000000000000000000e-01) (97, 4, 5.00000000000000000000e-01) (97, 4, 5.00000000000000000000e-01) (97, 4, 5.00000000000000000000e-01) (97, 4, 5.00000000000000000000e-01) (97, 4, 5.00000000000000000000e-01) (97, 4, 5.00000000000000000000e-01) (97, 4, 5.00000000000000000000e-01) (97, 4, 5.00000000000000000000e-01) (97, 4, 5.00000000000000000000e-01) (97, 4, 5.00000000000000000000e-01) (97, 4, 5.00000000000000000000e-01) (97, 4, 5.00000000000000000000e-01) (97, 4, 5.00000000000000000000e-01) (97, 4, 5.00000000000000000000e-01) (97, 4, 5.00000000000000000000e-01) (97, 4, 5.00000000000000000000e-01) (97, 4, 5.00000000000000000000e-01) (97, 4, 5.00000000000000000000e-01) (97, 4, 5.00000000000000000000e-01) (97, 4, 5.00000000000000000000e-01) (97, 4, 5.00000000000000000000e-01) (97, 4, 5.00000000000000000000e-01) (97, 4, 5.00000000000000000000e-01) (97, 4, 5.00000000000000000000e-01) (97, 4, 5.00000000000000000000e-01) (97, 4, 5.00000000000000000000e-01) (97, 4, 5.00000000000000000000e-01) (97, 4, 5.00000000000000000000e-01) (97, 4, 5.00000000000000000000e-01) (97, 4, 5.00000000000000000000e-01) (97, 4, 5.00000000000000000000e-01) (97, 4, 5.00000000000000000000e-01) (97, 4, 5.00000000000000000000e-01) (97, 4, 5.00000000000000000000e-01) (97, 4, 5.00000000000000000000e-01) (97, 4, 5.00000000000000000000e-01) (97, 4, 5.00000000000000000000e-01) (97, 4, 5.00000000000000000000e-01) (97, 4, 5.00000000000000000000e-01) (97, 4, 5.00000000000000000000e-01) (97, 4, 5.00000000000000000000e-01) (97, 4, 5.00000000000000000000e-01) (97, 4, 5.00000000000000000000e-01) (97, 4, 5.00000000000000000000e-01) (97, 4, 5.00000000000000000000e-01) (97, 4, 5.00000000000000000000e-01) (97, 4, 5.00000000000000000000e-01) (97, 4, 5.00000000000000000000e-01) (0, 0, 0.00000000000000000000e+00) (97, 4, 5.00000000000000000000e-01) (97, 4, 5.00000000000000000000e-01) (97, 4, 5.00000000000000000000e-01) (0, 0, 0.00000000000000000000e+00) 
connections (connected_to_neuron, weight)=(0, -1.35375757236033678055e-03) (1, 5.67970722913742065430e-02) (2, -7.05687254667282104492e-02) (3, -7.82618746161460876465e-02) (4, -1.64897426962852478027e-01) (5, 1.88521489500999450684e-01) (6, 1.02258600294589996338e-01) (7, 5.01559069380164146423e-03) (8, -7.04551041126251220703e-02) (9, -6.16945065557956695557e-02) (10, -3.22145581245422363281e-01) (11, -6.85281828045845031738e-02) (12, 1.67572125792503356934e-01) (13, 4.30663526058197021484e-02) (14, 1.27869203686714172363e-01) (15, 4.68428909778594970703e-01) (16, -4.62721675634384155273e-01) (17, -2.31871142983436584473e-01) (18, -2.73568958044052124023e-01) (19, 1.57921966165304183960e-02) (20, -1.77431315183639526367e-01) (21, -3.73668789863586425781e-01) (22, -5.41111290454864501953e-01) (23, -8.62324655055999755859e-01) (24, -4.43153619766235351562e-01) (25, -3.94213020801544189453e-01) (26, -4.62646722793579101562e-01) (27, -1.08530752360820770264e-01) (28, -3.85280042886734008789e-01) (29, -2.50329613685607910156e-01) (30, -7.36574351787567138672e-01) (31, -8.06003034114837646484e-01) (32, 1.39987537295382935554e-06) (33, -5.65304994583129882812e-01) (34, -5.14316260814666748047e-01) (35, -4.30538892745971679688e-01) (36, -2.79954224824905395508e-01) (37, -5.61929643154144287109e-01) (38, -6.50549411773681640625e-01) (39, 4.93915118277072906494e-02) (40, 9.47038531303405761719e-02) (41, -2.07750156521797180176e-01) (42, 4.86818589270114898682e-02) (43, -5.65207958221435546875e-01) (44, -2.88023293018341064453e-01) (45, -3.56785476207733154297e-01) (46, -4.71246615052223205566e-02) (47, -3.27632166445255279541e-02) (48, -4.32213723659515380859e-01) (0, 2.98414807766675949097e-02) (1, -1.63316741585731506348e-01) (2, -1.66591033339500427246e-01) (3, -8.28107818961143493652e-02) (4, -3.60791385173797607422e-01) (5, 1.21241569519042968750e-01) (6, 5.59056736528873443604e-02) (7, 1.88779801130294799805e-01) (8, -2.24221512675285339355e-01) (9, -1.97798088192939758301e-01) (10, -1.86643436551094055176e-01) (11, -4.92992065846920013428e-02) (12, -6.39147609472274780273e-02) (13, 2.26218283176422119141e-01) (14, 1.50978893041610717773e-01) (15, 1.68296262621879577637e-01) (16, -5.69244861602783203125e-01) (17, -1.29081979393959045410e-01) (18, 2.19624135643243789673e-02) (19, -2.08141818642616271973e-01) (20, 1.12573869526386260986e-01) (21, 8.36621448397636413574e-02) (22, -2.24333688616752624512e-01) (23, -5.93237280845642089844e-01) (24, -5.50622940063476562500e-01) (25, -3.60570788383483886719e-01) (26, -2.61464267969131469727e-01) (27, -4.16763305664062500000e-01) (28, -7.35867023468017578125e-02) (29, -9.84263257123529911041e-04) (30, -5.22694945335388183594e-01) (31, -5.65333604812622070312e-01) (32, -1.60794302821159362793e-01) (33, -5.21923363208770751953e-01) (34, -4.82995212078094482422e-01) (35, -4.56012547016143798828e-01) (36, -1.31859406828880310059e-01) (37, -2.39154353737831115723e-01) (38, -4.48347121477127075195e-01) (39, -1.93802297115325927734e-01) (40, 3.09337824583053588867e-01) (41, -1.89621761441230773926e-01) (42, 2.35896676778793334961e-01) (43, -5.23328542709350585938e-01) (44, -1.78969487547874450684e-01) (45, -3.16324889659881591797e-01) (46, -2.76228338479995727539e-01) (47, -1.75979077816009521484e-01) (48, -4.62033897638320922852e-01) (0, -5.42894005775451660156e-03) (1, -7.95804187655448913574e-02) (2, 6.97400886565446853638e-03) (3, -6.41328468918800354004e-03) (4, -2.42600589990615844727e-01) (5, 8.17011445760726928711e-02) (6, 3.11172902911494020373e-06) (7, 9.42252948880195617676e-03) (8, 1.67246758937835693359e-01) (9, 1.28411510959267616272e-02) (10, -1.52480065822601318359e-01) (11, -6.67003989219665527344e-02) (12, -2.72346645593643188477e-01) (13, -1.98291406035423278809e-01) (14, 2.75654322467744350433e-03) (15, 1.46359756588935852051e-01) (16, -2.36969053745269775391e-01) (17, 1.24055996537208557129e-01) (18, -2.12780356407165527344e-01) (19, -1.88492774963378906250e-01) (20, -1.90478205680847167969e-01) (21, -4.06288862228393554688e-01) (22, -2.76494920253753662109e-01) (23, -5.81480443477630615234e-01) (24, -1.67086407542228698730e-01) (25, -2.77751326560974121094e-01) (26, -3.17931771278381347656e-01) (27, -2.52596795558929443359e-01) (28, -4.66897398233413696289e-01) (29, -5.50178647041320800781e-01) (30, -5.25059103965759277344e-01) (31, -4.37484294176101684570e-01) (32, -3.49525175988674163818e-02) (33, -3.24614822864532470703e-01) (34, -4.67905879020690917969e-01) (35, -4.97751355171203613281e-01) (36, -4.69474941492080688477e-01) (37, -3.39740395545959472656e-01) (38, -3.39504420757293701172e-01) (39, -7.10342526435852050781e-02) (40, 1.72129482030868530273e-01) (41, -1.38720884919166564941e-01) (42, -2.41232007741928100586e-01) (43, -5.16375601291656494141e-01) (44, -5.66437423229217529297e-01) (45, -4.01343196630477905273e-01) (46, -1.83034271001815795898e-01) (47, -1.07565941289067268372e-02) (48, -5.06750404834747314453e-01) (0, -2.03465931117534637451e-02) (1, 5.20577505230903625488e-02) (2, 3.20776030421257019043e-02) (3, -5.52619993686676025391e-02) (4, -1.64872258901596069336e-01) (5, -1.88811898231506347656e-01) (6, -7.66481086611747741699e-02) (7, -1.81553870439529418945e-01) (8, 3.81563045084476470947e-02) (9, -5.38667589426040649414e-02) (10, -7.27704912424087524414e-02) (11, -2.57900595664978027344e-01) (12, -1.35597035288810729980e-01) (13, -1.50735422968864440918e-01) (14, -7.43156448006629943848e-02) (15, -1.88228208571672439575e-02) (16, -2.44121417403221130371e-01) (17, -3.74448783695697784424e-02) (18, -1.91369608044624328613e-01) (19, -1.93048328161239624023e-01) (20, -2.48819455504417419434e-01) (21, -3.45335781574249267578e-01) (22, -2.57493942975997924805e-01) (23, -3.07281047105789184570e-01) (24, -2.49329388141632080078e-01) (25, -1.38555273413658142090e-01) (26, -2.71958410739898681641e-01) (27, -2.70943641662597656250e-01) (28, -3.37209790945053100586e-01) (29, -2.86462783813476562500e-01) (30, -4.28305059671401977539e-01) (31, -1.41378805041313171387e-01) (32, -5.45821823179721832275e-02) (33, -1.82738870382308959961e-01) (34, -1.93833947181701660156e-01) (35, -3.62216114997863769531e-01) (36, -2.13050976395606994629e-01) (37, -1.29424154758453369141e-01) (38, -1.05640083551406860352e-01) (39, 1.57116770744323730469e-01) (40, 1.51021033525466918945e-02) (41, -9.09606441855430603027e-02) (42, -2.39816963672637939453e-01) (43, -3.34051012992858886719e-01) (44, -2.36780032515525817871e-01) (45, -2.57845729589462280273e-01) (46, -6.63103461265563964844e-02) (47, 3.89691330492496490479e-02) (48, -4.60850149393081665039e-01) (0, 5.23314848542213439941e-02) (1, -3.46866846084594726562e-02) (2, 8.22801291942596435547e-02) (3, -1.24104432761669158936e-01) (4, -2.00787097215652465820e-01) (5, -1.03819884359836578369e-01) (6, -4.02621813118457794189e-02) (7, -1.80080249905586242676e-01) (8, 1.20161823928356170654e-01) (9, 1.52886305004358291626e-02) (10, -2.06221833825111389160e-01) (11, -4.90480335429310798645e-03) (12, 3.42590883374214172363e-02) (13, -5.10549582540988922119e-02) (14, -3.15034873783588409424e-02) (15, 3.84290255606174468994e-02) (16, -1.13083228468894958496e-01) (17, -1.19506590068340301514e-01) (18, -1.56061872839927673340e-01) (19, -1.11522145569324493408e-01) (20, -2.57023662328720092773e-01) (21, -3.48013013601303100586e-01) (22, -3.78101050853729248047e-01) (23, -3.14912348985671997070e-01) (24, -1.64123564958572387695e-01) (25, -1.56900346279144287109e-01) (26, -1.85225978493690490723e-01) (27, -8.30767303705215454102e-02) (28, -2.64518082141876220703e-01) (29, -3.19016456604003906250e-01) (30, -4.01688605546951293945e-01) (31, -2.55708813667297363281e-01) (32, -3.54182235896587371826e-02) (33, -2.43056461215019226074e-01) (34, -2.76548653841018676758e-01) (35, -5.45374035835266113281e-01) (36, -2.46639952063560485840e-01) (37, -2.39704668521881103516e-01) (38, -4.04128491878509521484e-01) (39, 1.12614788115024566650e-01) (40, -3.36976498365402221680e-02) (41, -2.60969549417495727539e-01) (42, -2.51645892858505249023e-01) (43, -4.36311691999435424805e-01) (44, -1.35312020778656005859e-01) (45, -1.50699779391288757324e-01) (46, 3.66412177681922912598e-02) (47, 1.53199762105941772461e-01) (48, -5.43619036674499511719e-01) (0, 1.69322460889816284180e-01) (1, 1.15300849080085754395e-01) (2, -9.75830331444740295410e-02) (3, 4.84185740351676940918e-02) (4, -1.77850797772407531738e-01) (5, 1.68206498026847839355e-01) (6, 9.26264226436614990234e-02) (7, -9.97398272156715393066e-02) (8, 2.84973591566085815430e-01) (9, 3.55761088430881500244e-02) (10, -2.38307788968086242676e-01) (11, -1.86041146516799926758e-01) (12, -1.20826549828052520752e-01) (13, 2.85806328058242797852e-01) (14, 3.78778100013732910156e-01) (15, -4.88577187061309814453e-02) (16, 7.43429316207766532898e-03) (17, -7.29630514979362487793e-02) (18, -1.94153338670730590820e-01) (19, -3.28251749277114868164e-01) (20, -4.36631321907043457031e-01) (21, -3.97081404924392700195e-01) (22, -5.14114022254943847656e-01) (23, -1.62242010235786437988e-01) (24, -2.82322108745574951172e-01) (25, -1.43504694104194641113e-01) (26, -2.21285253763198852539e-01) (27, -9.32280346751213073730e-02) (28, -4.08986985683441162109e-01) (29, -2.28445038199424743652e-01) (30, -2.16184228658676147461e-01) (31, -8.35382938385009765625e-02) (32, -2.80839242041110992432e-02) (33, -2.77738124132156372070e-01) (34, -2.76135712862014770508e-01) (35, -3.64782899618148803711e-01) (36, -2.52423465251922607422e-01) (37, -2.12292790412902832031e-01) (38, -4.32306230068206787109e-01) (39, 2.44685694575309753418e-01) (40, 1.48265495896339416504e-01) (41, -9.56098735332489013672e-02) (42, -2.85676866769790649414e-01) (43, -3.82292330265045166016e-01) (44, -5.10690994560718536377e-02) (45, -1.12071022391319274902e-01) (46, -5.16084246337413787842e-02) (47, 1.83746770024299621582e-01) (48, -4.00734215974807739258e-01) (0, 2.89524253457784652710e-02) (1, 7.78665542602539062500e-02) (2, -2.26846057921648025513e-02) (3, -1.74909178167581558228e-02) (4, -2.80820399522781372070e-01) (5, 3.90264056622982025146e-02) (6, 6.80580288171768188477e-02) (7, 4.15915548801422119141e-02) (8, 1.22775301337242126465e-01) (9, -1.38612747192382812500e-01) (10, -2.51404285430908203125e-01) (11, -1.28883391618728637695e-01) (12, -4.07563261687755584717e-02) (13, -8.80022794008255004883e-02) (14, 1.34017452597618103027e-01) (15, 2.54369497299194335938e-01) (16, -2.43267863988876342773e-01) (17, -1.31209000945091247559e-01) (18, -2.60034650564193725586e-01) (19, -7.80025422573089599609e-02) (20, -3.03893327713012695312e-01) (21, -5.47406017780303955078e-01) (22, -5.21519541740417480469e-01) (23, -7.92745590209960937500e-01) (24, -3.63954126834869384766e-01) (25, -2.68492013216018676758e-01) (26, -2.17257544398307800293e-01) (27, -3.03071379661560058594e-01) (28, -5.10620236396789550781e-01) (29, -3.94481718540191650391e-01) (30, -5.40110826492309570312e-01) (31, -5.98466873168945312500e-01) (32, -6.08712099492549896240e-02) (33, -2.94815957546234130859e-01) (34, -4.55507665872573852539e-01) (35, -5.60605943202972412109e-01) (36, -4.89450514316558837891e-01) (37, -4.93131637573242187500e-01) (38, -5.32591223716735839844e-01) (39, -3.46517488360404968262e-02) (40, 1.05690263211727142334e-01) (41, -1.02038353681564331055e-01) (42, -1.20804853737354278564e-01) (43, -4.92187082767486572266e-01) (44, -3.50517868995666503906e-01) (45, -3.55307161808013916016e-01) (46, -1.37001276016235351562e-01) (47, 8.73010531067848205566e-02) (48, -5.27132213115692138672e-01) (0, 4.97186221182346343994e-02) (1, -3.26965488493442535400e-02) (2, -1.35229527950286865234e-01) (3, -7.08265677094459533691e-02) (4, -1.38988301157951354980e-01) (5, 1.12523049116134643555e-01) (6, -1.05179264210164546967e-03) (7, -1.88122302293777465820e-01) (8, 1.35070309042930603027e-01) (9, -1.08105204999446868896e-01) (10, -3.08991909027099609375e-01) (11, -2.81965229660272598267e-02) (12, 6.18271790444850921631e-02) (13, -6.04246370494365692139e-02) (14, -2.20569334924221038818e-02) (15, 1.10278747975826263428e-01) (16, -1.20289891958236694336e-01) (17, -1.95622265338897705078e-01) (18, -3.16745430231094360352e-01) (19, -4.88767959177494049072e-02) (20, -2.28495985269546508789e-01) (21, -1.93099498748779296875e-01) (22, -2.48924002051353454590e-01) (23, -6.61635756492614746094e-01) (24, -7.82958045601844787598e-02) (25, -3.39078277349472045898e-01) (26, -1.74907013773918151855e-01) (27, -1.34175226092338562012e-01) (28, -1.53372600674629211426e-01) (29, -2.97680437564849853516e-01) (30, -3.84867042303085327148e-01) (31, -5.63482105731964111328e-01) (32, -1.63249611854553222656e-01) (33, -3.48420202732086181641e-01) (34, -4.87997621297836303711e-01) (35, -5.12792885303497314453e-01) (36, -3.48200082778930664062e-01) (37, -2.14750871062278747559e-01) (38, -3.54772716760635375977e-01) (39, 5.45393601059913635254e-02) (40, -1.26525357365608215332e-01) (41, -3.91889631748199462891e-01) (42, -3.02486956119537353516e-01) (43, -3.51929426193237304688e-01) (44, -3.60402047634124755859e-01) (45, -2.64454573392868041992e-01) (46, -8.13972875475883483887e-02) (47, 2.93991744518280029297e-01) (48, -4.64763462543487548828e-01) (0, 1.38406511396169662476e-02) (1, 2.25605145096778869629e-02) (2, -1.86830952763557434082e-01) (3, -9.10826399922370910645e-02) (4, -8.64988192915916442871e-02) (5, -9.42570436745882034302e-03) (6, -5.71186887100338935852e-03) (7, -5.72571754455566406250e-02) (8, 1.16852875798940658569e-02) (9, -6.71320557594299316406e-02) (10, -1.15163393318653106689e-01) (11, 9.93471778929233551025e-03) (12, 1.01877050474286079407e-03) (13, -6.86115492135286331177e-03) (14, 8.74135196208953857422e-02) (15, 1.62178069353103637695e-01) (16, -1.49134218692779541016e-01) (17, -2.09814563393592834473e-01) (18, -1.71109586954116821289e-01) (19, -3.87272126972675323486e-02) (20, -2.17321347445249557495e-02) (21, -3.99033695459365844727e-01) (22, -4.08785730600357055664e-01) (23, -5.54755508899688720703e-01) (24, -2.65123605728149414062e-01) (25, -4.04717534780502319336e-01) (26, -2.73199677467346191406e-01) (27, -1.20053514838218688965e-01) (28, -2.73386865854263305664e-01) (29, -3.66795390844345092773e-01) (30, -4.44539159536361694336e-01) (31, -4.21599835157394409180e-01) (32, -2.10549890995025634766e-01) (33, -3.17504167556762695312e-01) (34, -4.56060320138931274414e-01) (35, -3.86798620223999023438e-01) (36, -1.90466895699501037598e-01) (37, -2.87451058626174926758e-01) (38, -4.39635992050170898438e-01) (39, 5.42136207222938537598e-02) (40, 5.92398978769779205322e-02) (41, -2.59855717420578002930e-01) (42, -1.70356482267379760742e-01) (43, -3.10763597488403320312e-01) (44, -1.63820952177047729492e-01) (45, -3.40841770172119140625e-01) (46, -9.28277745842933654785e-02) (47, 1.29418849945068359375e-01) (48, -5.13561725616455078125e-01) (0, -1.89824491739273071289e-01) (1, -2.88585741072893142700e-02) (2, -3.07447135448455810547e-01) (3, -9.85365435481071472168e-02) (4, -4.88376468420028686523e-01) (5, -1.38954997062683105469e-01) (6, 1.93364113569259643555e-01) (7, 2.16929823160171508789e-01) (8, 4.15995605289936065674e-02) (9, -2.71636784076690673828e-01) (10, -3.08221578598022460938e-01) (11, 1.69282115530222654343e-03) (12, -2.18021318316459655762e-01) (13, 3.74045640230178833008e-01) (14, 1.03884339332580566406e-01) (15, 2.22928807139396667480e-01) (16, -7.16683566570281982422e-01) (17, -1.32424682378768920898e-01) (18, -9.09921303391456604004e-02) (19, -1.69537618756294250488e-01) (20, -1.62384361028671264648e-01) (21, -1.12309701740741729736e-01) (22, -4.56354737281799316406e-01) (23, -9.23556625843048095703e-01) (24, -6.11611306667327880859e-01) (25, -3.82784664630889892578e-01) (26, -6.06183171272277832031e-01) (27, -5.84206283092498779297e-01) (28, -2.34914690256118774414e-01) (29, -3.04396420717239379883e-01) (30, -8.43165159225463867188e-01) (31, -7.23965704441070556641e-01) (32, -9.10231173038482666016e-02) (33, -4.96575981378555297852e-01) (34, -6.75139665603637695312e-01) (35, -8.58514726161956787109e-01) (36, -1.96819648146629333496e-01) (37, -4.62139070034027099609e-01) (38, -4.95286434888839721680e-01) (39, -1.19568765163421630859e-01) (40, 3.43077391386032104492e-01) (41, -4.27132546901702880859e-01) (42, 1.55048087239265441895e-01) (43, -1.20062434673309326172e+00) (44, -3.94937604665756225586e-01) (45, -4.68775272369384765625e-01) (46, -5.62451072037220001221e-02) (47, -1.72154307365417480469e-02) (48, -5.07056236267089843750e-01) (0, 2.64639910310506820679e-02) (1, 7.85158053040504455566e-02) (2, -1.37445166707038879395e-01) (3, -3.13749872148036956787e-02) (4, -9.16856601834297180176e-02) (5, 1.53032898902893066406e-01) (6, 2.54142284393310546875e-02) (7, -5.81688992679119110107e-02) (8, 2.50797808170318603516e-01) (9, -1.20510146021842956543e-01) (10, -7.14944601058959960938e-02) (11, -9.72498655319213867188e-02) (12, 7.78855232056230306625e-04) (13, 1.63677539676427841187e-02) (14, 2.14395999908447265625e-01) (15, 1.30554605275392532349e-02) (16, -1.75506427884101867676e-01) (17, -1.78108915686607360840e-01) (18, -1.68668940663337707520e-01) (19, -1.56156495213508605957e-01) (20, -1.62032648921012878418e-01) (21, -2.65971958637237548828e-01) (22, -5.14211058616638183594e-01) (23, -2.88674503564834594727e-01) (24, -3.27611386775970458984e-01) (25, -3.15347880125045776367e-01) (26, -1.67173802852630615234e-01) (27, -1.89051806926727294922e-01) (28, -2.26830065250396728516e-01) (29, -2.40894451737403869629e-01) (30, -3.21581482887268066406e-01) (31, -2.82304793596267700195e-01) (32, -3.58056351542472839355e-02) (33, -2.63310939073562622070e-01) (34, -2.97002583742141723633e-01) (35, -3.39368760585784912109e-01) (36, -2.57996320724487304688e-01) (37, -1.57229155302047729492e-01) (38, -4.53908622264862060547e-01) (39, -2.11099404841661453247e-02) (40, 1.51232993230223655701e-02) (41, -1.75989434123039245605e-01) (42, -2.74373531341552734375e-01) (43, -3.75562250614166259766e-01) (44, -1.07578083872795104980e-01) (45, -2.48339414596557617188e-01) (46, -1.32047936320304870605e-01) (47, -1.59984976053237915039e-02) (48, -4.88187342882156372070e-01) (0, 3.89017388224601745605e-02) (1, -9.34492971282452344894e-04) (2, -1.12234018743038177490e-01) (3, -4.85044829547405242920e-02) (4, -1.06805242598056793213e-01) (5, 6.02931119501590728760e-02) (6, 1.26546069979667663574e-01) (7, 3.82413119077682495117e-02) (8, 1.39024659991264343262e-01) (9, -1.90276980400085449219e-01) (10, -1.97840631008148193359e-01) (11, -4.92495447397232055664e-02) (12, 2.78686601668596267700e-02) (13, -4.21431325376033782959e-02) (14, 1.01172633469104766846e-01) (15, 1.96089237928390502930e-01) (16, -1.91026687622070312500e-01) (17, -1.04466482996940612793e-01) (18, -1.32932886481285095215e-01) (19, -4.60920743644237518311e-02) (20, -4.11640666425228118896e-02) (21, -1.66770353913307189941e-01) (22, -3.34316819906234741211e-01) (23, -5.64542710781097412109e-01) (24, -3.81154119968414306641e-01) (25, -3.24092566967010498047e-01) (26, -3.45317035913467407227e-01) (27, -3.18324983119964599609e-01) (28, -3.14198315143585205078e-01) (29, -3.53732883930206298828e-01) (30, -5.04629909992218017578e-01) (31, -5.01590847969055175781e-01) (32, 1.98368038982152938843e-02) (33, -2.22763165831565856934e-01) (34, -4.77463066577911376953e-01) (35, -4.17610973119735717773e-01) (36, -2.96634584665298461914e-01) (37, -4.52678859233856201172e-01) (38, -4.12158399820327758789e-01) (39, -7.10461512207984924316e-02) (40, 7.29076489806175231934e-02) (41, -4.20608520507812500000e-02) (42, -2.40507945418357849121e-01) (43, -4.31724876165390014648e-01) (44, -3.60079467296600341797e-01) (45, -3.15592199563980102539e-01) (46, -1.95808053016662597656e-01) (47, -7.89001882076263427734e-02) (48, -4.96453702449798583984e-01) (0, 2.50738978385925292969e-01) (1, 1.83366298675537109375e-01) (2, 4.11197721958160400391e-01) (3, 1.59509092569351196289e-01) (4, -3.28543633222579956055e-01) (5, -2.75895774364471435547e-01) (6, -1.92639887332916259766e-01) (7, -7.77504593133926391602e-02) (8, 7.46375143527984619141e-01) (9, 4.44594025611877441406e-02) (10, -1.08098341152071952820e-02) (11, 3.50350290536880493164e-02) (12, 1.52952417731285095215e-01) (13, -1.85958921909332275391e-01) (14, 1.90884768962860107422e-01) (15, 5.53634949028491973877e-04) (16, 1.03032410144805908203e-01) (17, 1.86750203371047973633e-01) (18, -2.84888505935668945312e-01) (19, 2.45622798800468444824e-01) (20, -6.44235536456108093262e-02) (21, -1.06771528720855712891e-01) (22, -2.96485926955938339233e-02) (23, -1.76060825586318969727e-01) (24, -1.54844805598258972168e-01) (25, -5.01723825931549072266e-01) (26, 2.72104650735855102539e-01) (27, 3.32065224647521972656e-01) (28, 5.74058651924133300781e-01) (29, -3.98763641715049743652e-02) (30, -2.67345339059829711914e-01) (31, -5.22354423999786376953e-01) (32, -5.16197085380554199219e-01) (33, -6.80373489856719970703e-01) (34, -7.04839408397674560547e-01) (35, -3.99739116430282592773e-01) (36, 5.86042702198028564453e-02) (37, -2.35422015190124511719e-01) (38, 1.91471636295318603516e-01) (39, 3.32002699375152587891e-01) (40, -5.95872402191162109375e-01) (41, -8.38227450847625732422e-01) (42, -7.20092892646789550781e-01) (43, -9.36846315860748291016e-01) (44, 6.24469779431819915771e-02) (45, 2.39054694771766662598e-01) (46, 6.98755264282226562500e-01) (47, 4.23912346363067626953e-01) (48, -9.51601862907409667969e-01) (0, 7.08377510309219360352e-02) (1, 6.66892603039741516113e-02) (2, -6.43764734268188476562e-02) (3, -1.17062270641326904297e-01) (4, -1.72117143869400024414e-01) (5, 9.33388620615005493164e-02) (6, 1.40206944197416305542e-02) (7, -1.11197873950004577637e-01) (8, 9.69865545630455017090e-02) (9, -1.42694219946861267090e-01) (10, -1.18403047323226928711e-01) (11, -1.29609405994415283203e-01) (12, 2.32055070227943360806e-04) (13, -1.97462681680917739868e-02) (14, 6.32054954767227172852e-02) (15, 1.95231944322586059570e-01) (16, -3.81399750709533691406e-01) (17, -6.21871650218963623047e-02) (18, -1.74471601843833923340e-01) (19, -1.78776964545249938965e-01) (20, -1.44739940762519836426e-01) (21, -2.60808229446411132812e-01) (22, -3.72192025184631347656e-01) (23, -7.13199317455291748047e-01) (24, -3.42117428779602050781e-01) (25, -2.63837993144989013672e-01) (26, -3.76478284597396850586e-01) (27, -1.86003521084785461426e-01) (28, -2.53821581602096557617e-01) (29, -3.78743767738342285156e-01) (30, -5.49099624156951904297e-01) (31, -5.24295210838317871094e-01) (32, -1.17969796061515808105e-01) (33, -3.83403599262237548828e-01) (34, -5.75932502746582031250e-01) (35, -5.16435444355010986328e-01) (36, -2.39493325352668762207e-01) (37, -3.82314950227737426758e-01) (38, -5.62281191349029541016e-01) (39, -4.05086167156696319580e-02) (40, 1.98221758008003234863e-01) (41, -1.11519277095794677734e-01) (42, -1.61613136529922485352e-01) (43, -6.69099152088165283203e-01) (44, -3.99785965681076049805e-01) (45, -4.49083358049392700195e-01) (46, -1.28454715013504028320e-01) (47, 4.86132912337779998779e-02) (48, -4.60149109363555908203e-01) (0, -4.77538369596004486084e-02) (1, -3.04052293300628662109e-01) (2, 4.77290153503417968750e-03) (3, 5.22109270095825195312e-02) (4, -3.09592902660369873047e-01) (5, -8.01915049552917480469e-01) (6, -6.30462765693664550781e-02) (7, 2.51564353704452514648e-01) (8, -1.73028007149696350098e-01) (9, -5.06360650062561035156e-01) (10, 1.73974186182022094727e-01) (11, 1.24904280528426170349e-02) (12, -7.63365387916564941406e-01) (13, -2.89859592914581298828e-01) (14, 2.45645850896835327148e-01) (15, 1.63077712059020996094e-02) (16, -7.22953498363494873047e-01) (17, -7.30674326419830322266e-01) (18, -1.62197858095169067383e-01) (19, -5.26257812976837158203e-01) (20, -2.75700092315673828125e-01) (21, -4.90371406078338623047e-01) (22, -8.83703082799911499023e-02) (23, -8.80720317363739013672e-02) (24, -9.35592889785766601562e-01) (25, -7.89170026779174804688e-01) (26, -6.90132260322570800781e-01) (27, -6.31057322025299072266e-01) (28, -4.73257064819335937500e-01) (29, -5.44951379299163818359e-01) (30, 6.57222047448158264160e-02) (31, 1.31281062960624694824e-01) (32, -5.84590375423431396484e-01) (33, -7.79384315013885498047e-01) (34, -7.38081097602844238281e-01) (35, -7.26328015327453613281e-01) (36, -5.46213805675506591797e-01) (37, 1.45680963993072509766e-01) (38, 2.91656196117401123047e-01) (39, -2.28901654481887817383e-02) (40, -3.45548652112483978271e-02) (41, -5.74570536613464355469e-01) (42, 9.61703807115554809570e-02) (43, -1.00660324096679687500e+00) (44, -3.96679699420928955078e-01) (45, 2.85329341888427734375e-01) (46, 4.67351257801055908203e-01) (47, 1.62328749895095825195e-01) (48, -5.34665882587432861328e-01) (0, 6.96313753724098205566e-02) (1, -2.50250697135925292969e-02) (2, -1.16432607173919677734e-02) (3, -5.66887445747852325439e-02) (4, -4.49243843555450439453e-01) (5, 7.08664804697036743164e-02) (6, 5.02154864370822906494e-02) (7, -7.33865723013877868652e-02) (8, 1.06594718992710113525e-01) (9, -5.48654012382030487061e-02) (10, -1.98179736733436584473e-01) (11, -1.30459353327751159668e-01) (12, -1.29243090748786926270e-01) (13, -5.23348413407802581787e-02) (14, 1.11108668148517608643e-01) (15, 3.17934572696685791016e-01) (16, -4.20271575450897216797e-01) (17, -2.04868346452713012695e-01) (18, -1.36177971959114074707e-01) (19, -1.58351346850395202637e-01) (20, -3.98717582225799560547e-01) (21, -5.35701513290405273438e-01) (22, -5.58146834373474121094e-01) (23, -8.98262083530426025391e-01) (24, -3.55600029230117797852e-01) (25, -3.39297562837600708008e-01) (26, -2.13567912578582763672e-01) (27, -1.77833229303359985352e-01) (28, -5.68820595741271972656e-01) (29, -5.16914188861846923828e-01) (30, -8.24009120464324951172e-01) (31, -7.92377054691314697266e-01) (32, -1.77038069814443588257e-02) (33, -3.35943520069122314453e-01) (34, -4.75199639797210693359e-01) (35, -6.38861477375030517578e-01) (36, -5.61963200569152832031e-01) (37, -5.19058227539062500000e-01) (38, -5.66865742206573486328e-01) (39, -2.25332994014024734497e-02) (40, 1.20569765567779541016e-01) (41, -2.55609601736068725586e-01) (42, -7.78834819793701171875e-02) (43, -7.03589558601379394531e-01) (44, -5.60473501682281494141e-01) (45, -4.08152371644973754883e-01) (46, -1.58828899264335632324e-01) (47, 3.91759276390075683594e-02) (48, -4.73253488540649414062e-01) (0, 1.03594698011875152588e-01) (1, -6.20072148740291595459e-02) (2, -2.81240135431289672852e-01) (3, -2.20440521836280822754e-01) (4, -4.87019382417201995850e-02) (5, 9.92392897605895996094e-02) (6, 1.41496390104293823242e-01) (7, 9.55450609326362609863e-02) (8, 3.64553816616535186768e-02) (9, -3.07287752628326416016e-01) (10, -2.51572042703628540039e-01) (11, -8.66910219192504882812e-02) (12, 1.10548525117337703705e-03) (13, 1.09747998416423797607e-01) (14, 2.22997993230819702148e-01) (15, 1.82930201292037963867e-01) (16, -3.85073870420455932617e-01) (17, -3.66314977407455444336e-01) (18, -1.84995964169502258301e-01) (19, -1.77049562335014343262e-01) (20, 1.16803847253322601318e-01) (21, -3.76517534255981445312e-01) (22, -3.43441724777221679688e-01) (23, -6.11216843128204345703e-01) (24, -5.79964637756347656250e-01) (25, -3.93278121948242187500e-01) (26, -3.45887511968612670898e-01) (27, -2.47159272432327270508e-01) (28, -2.15921983122825622559e-01) (29, -3.68096679449081420898e-01) (30, -4.29542660713195800781e-01) (31, -4.18952435255050659180e-01) (32, -6.04367963969707489014e-02) (33, -3.88275116682052612305e-01) (34, -5.19556224346160888672e-01) (35, -5.27270734310150146484e-01) (36, -2.22511380910873413086e-01) (37, -2.54745751619338989258e-01) (38, -4.77676570415496826172e-01) (39, 1.98229923844337463379e-02) (40, 1.00372694432735443115e-01) (41, -1.59146815538406372070e-01) (42, -7.79737997800111770630e-03) (43, -5.79233884811401367188e-01) (44, -2.72195339202880859375e-01) (45, -2.13614121079444885254e-01) (46, -4.80476506054401397705e-02) (47, 1.27832412719726562500e-01) (48, -4.81297284364700317383e-01) (0, -2.12278142571449279785e-02) (1, -1.86879932880401611328e-02) (2, -1.35111182928085327148e-01) (3, -1.30018174648284912109e-01) (4, -1.39776676893234252930e-01) (5, 1.11803986132144927979e-01) (6, 8.34042429924011230469e-02) (7, 1.88306309282779693604e-02) (8, 1.26204624772071838379e-01) (9, -1.75499767065048217773e-01) (10, -1.73259451985359191895e-01) (11, -1.69549148995429277420e-03) (12, 6.04898110032081604004e-02) (13, 6.64895549416542053223e-02) (14, 6.80637061595916748047e-02) (15, 1.33833035826683044434e-01) (16, -1.37723475694656372070e-01) (17, -2.71695554256439208984e-01) (18, -1.85556530952453613281e-01) (19, -9.91793647408485412598e-02) (20, -3.48194055259227752686e-02) (21, -4.62521642446517944336e-01) (22, -3.84163230657577514648e-01) (23, -5.46074748039245605469e-01) (24, -3.67626428604125976562e-01) (25, -3.90052348375320434570e-01) (26, -3.06418299674987792969e-01) (27, -1.32327094674110412598e-01) (28, -1.42699182033538818359e-01) (29, -4.22813683748245239258e-01) (30, -4.30559605360031127930e-01) (31, -3.55984568595886230469e-01) (32, -4.71113808453083038330e-02) (33, -2.52200841903686523438e-01) (34, -5.29935538768768310547e-01) (35, -5.57195544242858886719e-01) (36, -2.20046877861022949219e-01) (37, -2.17502981424331665039e-01) (38, -3.40230166912078857422e-01) (39, 8.31608325242996215820e-02) (40, -2.30053556151688098907e-03) (41, -1.71452924609184265137e-01) (42, -2.46763318777084350586e-01) (43, -2.70794540643692016602e-01) (44, -2.94636815786361694336e-01) (45, -1.30074471235275268555e-01) (46, -5.97407966852188110352e-02) (47, 3.33292335271835327148e-02) (48, -4.42514002323150634766e-01) (0, -1.27960577607154846191e-01) (1, 4.38680164515972137451e-02) (2, -1.59816220402717590332e-01) (3, -1.68582811951637268066e-01) (4, -1.12259566783905029297e-01) (5, -3.00129074603319168091e-02) (6, -2.31885127723217010498e-02) (7, -2.85987835377454757690e-02) (8, 6.81962966918945312500e-02) (9, -1.90533533692359924316e-01) (10, -1.88300997018814086914e-01) (11, -2.76693962514400482178e-02) (12, -6.79939463734626770020e-02) (13, -1.99262917041778564453e-01) (14, 4.80162017047405242920e-02) (15, 1.55478924512863159180e-01) (16, -2.68692851066589355469e-01) (17, 1.98159832507371902466e-02) (18, -8.51777568459510803223e-02) (19, -2.13298991322517395020e-01) (20, -8.12670812010765075684e-02) (21, -3.03705900907516479492e-01) (22, -3.40397506952285766602e-01) (23, -4.02986139059066772461e-01) (24, -2.74160146713256835938e-01) (25, -3.70476782321929931641e-01) (26, -2.08043202757835388184e-01) (27, -1.99946850538253784180e-01) (28, -3.14608007669448852539e-01) (29, -3.28151643276214599609e-01) (30, -4.92509186267852783203e-01) (31, -3.48751872777938842773e-01) (32, -8.07397719472646713257e-03) (33, -2.95058786869049072266e-01) (34, -2.82033771276473999023e-01) (35, -5.08928716182708740234e-01) (36, -1.74759581685066223145e-01) (37, -4.22031491994857788086e-01) (38, -2.99448460340499877930e-01) (39, 2.99124438315629959106e-02) (40, 6.82734921574592590332e-02) (41, -1.88704848289489746094e-01) (42, -2.05651864409446716309e-01) (43, -3.62949848175048828125e-01) (44, -3.15724194049835205078e-01) (45, -4.16309982538223266602e-01) (46, -2.11776196956634521484e-01) (47, 2.39157434552907943726e-02) (48, -5.18139898777008056641e-01) (0, 4.49038565158843994141e-01) (1, 4.36065167188644409180e-01) (2, 3.33362221717834472656e-01) (3, 4.50590223073959350586e-01) (4, 7.39827379584312438965e-03) (5, 1.08135163784027099609e-01) (6, -6.42320662736892700195e-02) (7, 6.65492266416549682617e-02) (8, 4.97013151645660400391e-01) (9, 1.35248839855194091797e-01) (10, -1.45162630360573530197e-03) (11, 1.43766000866889953613e-01) (12, 3.22423219680786132812e-01) (13, 2.47828185558319091797e-01) (14, 1.93661481142044067383e-01) (15, 3.26862931251525878906e-02) (16, -5.79601265490055084229e-02) (17, -4.82154935598373413086e-01) (18, -4.62759912014007568359e-01) (19, 3.83403897285461425781e-01) (20, -1.35134577751159667969e-01) (21, -6.17530122399330139160e-02) (22, -2.88795121014118194580e-02) (23, -1.43830418586730957031e-01) (24, -5.81241607666015625000e-01) (25, -5.68762540817260742188e-01) (26, -4.99751329421997070312e-01) (27, -2.16291278600692749023e-01) (28, 4.68492686748504638672e-01) (29, 1.70747637748718261719e-01) (30, -1.07030697166919708252e-01) (31, -2.50941514968872070312e-01) (32, -2.90135651826858520508e-01) (33, -9.73067522048950195312e-01) (34, -8.86489570140838623047e-01) (35, -9.29152309894561767578e-01) (36, -5.82514703273773193359e-01) (37, 1.05274461209774017334e-01) (38, 2.89693057537078857422e-01) (39, 3.79068255424499511719e-01) (40, -4.20389801263809204102e-01) (41, -6.52957558631896972656e-01) (42, -6.42064511775970458984e-01) (43, -7.43338465690612792969e-01) (44, -3.55967909097671508789e-01) (45, -2.59604573249816894531e-01) (46, 3.84556144475936889648e-01) (47, 6.40940606594085693359e-01) (48, -1.17537164688110351562e+00) (0, 1.17019668221473693848e-01) (1, 1.98572650551795959473e-01) (2, 1.38192459940910339355e-01) (3, 1.64307340979576110840e-01) (4, -1.26595675945281982422e-01) (5, -2.37398482859134674072e-02) (6, -2.68434546887874603271e-02) (7, -5.23719042539596557617e-02) (8, 4.66631203889846801758e-01) (9, -9.68010202050209045410e-02) (10, -1.11352443695068359375e-01) (11, -2.91137456893920898438e-01) (12, -1.87858790159225463867e-01) (13, 1.27157330513000488281e-01) (14, 2.03326433897018432617e-01) (15, -4.19751644134521484375e-01) (16, 1.52408301830291748047e-01) (17, -1.08187042176723480225e-01) (18, -9.40337926149368286133e-02) (19, -1.90408721566200256348e-01) (20, -5.72172343730926513672e-01) (21, -2.77312368154525756836e-01) (22, -4.18821096420288085938e-01) (23, 1.74028784036636352539e-01) (24, -4.46611270308494567871e-02) (25, -1.39113306999206542969e-01) (26, -5.92047497630119323730e-02) (27, -3.57912704348564147949e-02) (28, -2.84473150968551635742e-01) (29, -8.64838883280754089355e-02) (30, -1.01499542593955993652e-01) (31, 6.85713142156600952148e-02) (32, 9.52720120549201965332e-02) (33, -3.03931981325149536133e-01) (34, -1.94335460662841796875e-01) (35, -2.87345647811889648438e-01) (36, -3.94022822380065917969e-01) (37, -2.52961236983537673950e-02) (38, -9.98293459415435791016e-02) (39, 1.12970426678657531738e-01) (40, 1.30016550421714782715e-01) (41, -2.74278551340103149414e-01) (42, -2.88356095552444458008e-01) (43, -2.63848692178726196289e-01) (44, -2.05363910645246505737e-02) (45, -9.10872295498847961426e-02) (46, 1.00166037678718566895e-01) (47, 1.65968075394630432129e-01) (48, -5.30940890312194824219e-01) (0, 3.00948798656463623047e-01) (1, 1.94021180272102355957e-01) (2, 6.80185928940773010254e-02) (3, 2.64884918928146362305e-01) (4, -2.24905818700790405273e-01) (5, 1.27693876624107360840e-01) (6, 7.02768638730049133301e-02) (7, 7.18145519495010375977e-02) (8, 3.22643697261810302734e-01) (9, -4.22374643385410308838e-02) (10, -1.49883925914764404297e-02) (11, 6.04978799819946289062e-02) (12, 1.17172613739967346191e-01) (13, 1.51619628071784973145e-01) (14, 2.40922749042510986328e-01) (15, -1.63392826914787292480e-01) (16, 1.11738778650760650635e-02) (17, -1.82853192090988159180e-01) (18, -1.62904828786849975586e-01) (19, -2.15720862150192260742e-01) (20, -3.50967824459075927734e-01) (21, -2.49537527561187744141e-01) (22, -2.69944846630096435547e-01) (23, -2.13815629482269287109e-01) (24, -3.06776136159896850586e-01) (25, -2.54370391368865966797e-01) (26, -1.26792833209037780762e-01) (27, -1.71783026307821273804e-02) (28, 1.25202713534235954285e-02) (29, -8.15708562731742858887e-02) (30, -1.81291669607162475586e-01) (31, -1.82065963745117187500e-01) (32, -1.92373201251029968262e-01) (33, -4.64952945709228515625e-01) (34, -3.32888334989547729492e-01) (35, -6.22685313224792480469e-01) (36, -3.69400262832641601562e-01) (37, -4.41229306161403656006e-02) (38, -2.03476592898368835449e-01) (39, 2.18514814972877502441e-01) (40, -4.84299212694168090820e-02) (41, -4.62578296661376953125e-01) (42, -3.16194266080856323242e-01) (43, -5.18130898475646972656e-01) (44, -1.24509289860725402832e-01) (45, 7.84085318446159362793e-02) (46, 3.13454419374465942383e-01) (47, 3.77734750509262084961e-01) (48, -5.72678208351135253906e-01) (0, 5.36786690354347229004e-02) (1, 5.72469122707843780518e-02) (2, -2.07263901829719543457e-01) (3, -1.78154051303863525391e-01) (4, -9.14234220981597900391e-02) (5, 6.71042874455451965332e-02) (6, 4.42194156348705291748e-02) (7, -1.10686659812927246094e-01) (8, 1.96672484278678894043e-01) (9, -2.35235467553138732910e-01) (10, -3.42647016048431396484e-01) (11, -1.31066039204597473145e-01) (12, 9.82680320739746093750e-02) (13, 1.09007053077220916748e-01) (14, 1.54823720455169677734e-01) (15, 1.60165727138519287109e-01) (16, -2.47604981064796447754e-01) (17, -2.47085154056549072266e-01) (18, -2.54152357578277587891e-01) (19, -2.51084685325622558594e-01) (20, -1.62923589348793029785e-01) (21, -2.63726890087127685547e-01) (22, -3.25624227523803710938e-01) (23, -5.55776655673980712891e-01) (24, -3.73100697994232177734e-01) (25, -3.68435531854629516602e-01) (26, -2.41296008229255676270e-01) (27, -3.13982218503952026367e-01) (28, -2.49382436275482177734e-01) (29, -3.08545082807540893555e-01) (30, -3.91791015863418579102e-01) (31, -6.07283055782318115234e-01) (32, -1.50255367159843444824e-01) (33, -3.80154043436050415039e-01) (34, -5.58973729610443115234e-01) (35, -6.66267395019531250000e-01) (36, -1.70203447341918945312e-01) (37, -3.22699338197708129883e-01) (38, -4.55586224794387817383e-01) (39, 1.17612570524215698242e-01) (40, 8.57417210936546325684e-02) (41, -2.31383413076400756836e-01) (42, -9.45314988493919372559e-02) (43, -6.36158347129821777344e-01) (44, -3.11516702175140380859e-01) (45, -2.26435080170631408691e-01) (46, -7.12905898690223693848e-02) (47, 2.57671773433685302734e-01) (48, -4.83931928873062133789e-01) (0, 2.39791497588157653809e-01) (1, 3.34011912345886230469e-02) (2, 2.06591397523880004883e-01) (3, 1.96645289659500122070e-01) (4, -2.21732810139656066895e-01) (5, -5.33660911023616790771e-02) (6, -7.09080696105957031250e-02) (7, 3.21108289062976837158e-03) (8, 2.96285420656204223633e-01) (9, -1.39583647251129150391e-01) (10, -1.34242057800292968750e-01) (11, -2.11521312594413757324e-01) (12, -5.61255402863025665283e-02) (13, 2.31264218688011169434e-01) (14, 1.88821837306022644043e-01) (15, -3.10361653566360473633e-01) (16, 7.60154426097869873047e-02) (17, -9.05275121331214904785e-02) (18, -1.12874813377857208252e-01) (19, -3.22098493576049804688e-01) (20, -4.57461416721343994141e-01) (21, -3.66404920816421508789e-01) (22, -3.57401460409164428711e-01) (23, 2.51328144222497940063e-02) (24, -2.66166716814041137695e-01) (25, -1.76932886242866516113e-01) (26, -2.17497751116752624512e-01) (27, -8.39206278324127197266e-02) (28, -3.56160908937454223633e-01) (29, -3.34362626075744628906e-01) (30, -2.17108711600303649902e-01) (31, -4.90201115608215332031e-02) (32, -3.45571935176849365234e-02) (33, -2.63144284486770629883e-01) (34, -1.85140356421470642090e-01) (35, -4.33767586946487426758e-01) (36, -2.40798398852348327637e-01) (37, -9.79000478982925415039e-02) (38, -3.07373523712158203125e-01) (39, 6.72812759876251220703e-02) (40, 2.06336736679077148438e-01) (41, -2.66561418771743774414e-01) (42, -2.48563662171363830566e-01) (43, -3.18404197692871093750e-01) (44, -1.47033631801605224609e-01) (45, -6.45931288599967956543e-02) (46, -1.46734518930315971375e-02) (47, 1.21748983860015869141e-01) (48, -4.73523229360580444336e-01) (0, 2.81881481409072875977e-01) (1, 1.56953245401382446289e-01) (2, 1.02291822433471679688e-01) (3, 1.95736542344093322754e-01) (4, -7.90640413761138916016e-02) (5, 2.94349312782287597656e-01) (6, 2.22430955618619918823e-02) (7, 1.09130153432488441467e-02) (8, 3.44975739717483520508e-01) (9, -4.51686792075634002686e-02) (10, -2.19279471784830093384e-02) (11, 5.88245876133441925049e-02) (12, 7.12573602795600891113e-02) (13, 2.36487686634063720703e-01) (14, 3.19967210292816162109e-01) (15, 2.47606098651885986328e-01) (16, -9.41021367907524108887e-02) (17, -2.42248535156250000000e-01) (18, -3.80994558334350585938e-01) (19, 5.31851984560489654541e-02) (20, -1.30917429924011230469e-01) (21, -1.92349731922149658203e-01) (22, -2.93204575777053833008e-01) (23, -2.86106437444686889648e-01) (24, -4.51026797294616699219e-01) (25, -5.52813947200775146484e-01) (26, -7.41023197770118713379e-02) (27, -3.77579703927040100098e-02) (28, 1.59318093210458755493e-02) (29, -3.65598350763320922852e-02) (30, -2.57925420999526977539e-01) (31, -4.68707710504531860352e-01) (32, -2.11216405034065246582e-01) (33, -7.89592087268829345703e-01) (34, -7.32480943202972412109e-01) (35, -5.98396003246307373047e-01) (36, -1.67808324098587036133e-01) (37, -2.34523728489875793457e-01) (38, -1.30667373538017272949e-01) (39, 3.11496376991271972656e-01) (40, -2.67849713563919067383e-01) (41, -4.17893826961517333984e-01) (42, -6.70396327972412109375e-01) (43, -6.97924137115478515625e-01) (44, -1.59182220697402954102e-01) (45, 3.29091027379035949707e-02) (46, 2.91873067617416381836e-01) (47, 3.38045716285705566406e-01) (48, -6.06959521770477294922e-01) (0, -1.14505328238010406494e-01) (1, 1.49716019630432128906e-01) (2, 3.68434011936187744141e-01) (3, 4.65567439794540405273e-01) (4, -6.18134140968322753906e-01) (5, -1.14072315394878387451e-01) (6, 2.54175275564193725586e-01) (7, 5.24025201797485351562e-01) (8, 5.88750839233398437500e-01) (9, 2.52287894487380981445e-01) (10, 1.22177362442016601562e-01) (11, 2.70540237426757812500e-01) (12, -7.63727426528930664062e-01) (13, 5.68113148212432861328e-01) (14, 1.64441287517547607422e-01) (15, 5.24961650371551513672e-01) (16, -5.02193093299865722656e-01) (17, 4.84449386596679687500e-01) (18, -1.67604461312294006348e-02) (19, -1.30276739597320556641e-01) (20, -8.91843914985656738281e-01) (21, -4.00437295436859130859e-01) (22, -8.22585344314575195312e-01) (23, -1.68797349929809570312e+00) (24, -2.52603977918624877930e-01) (25, -7.64370337128639221191e-02) (26, -1.45066559314727783203e-01) (27, -1.00060522556304931641e+00) (28, -1.03381705284118652344e+00) (29, -3.80086690187454223633e-01) (30, -1.38078379631042480469e+00) (31, -1.17527282238006591797e+00) (32, 3.15863132476806640625e-01) (33, -4.65180218219757080078e-01) (34, -7.60431230068206787109e-01) (35, -1.74138724803924560547e+00) (36, -1.19164252281188964844e+00) (37, -2.73029297590255737305e-01) (38, -9.28529977798461914062e-01) (39, -4.63114306330680847168e-02) (40, 7.02658653259277343750e-01) (41, -5.16327440738677978516e-01) (42, -5.32621562480926513672e-01) (43, -1.62164950370788574219e+00) (44, -1.18472278118133544922e+00) (45, -6.40659809112548828125e-01) (46, -2.15211108326911926270e-01) (47, -2.42647022008895874023e-01) (48, -3.66043090820312500000e-01) (0, -7.86505416035652160645e-02) (1, -6.84933066368103027344e-02) (2, -1.60880059003829956055e-01) (3, -2.14811399579048156738e-01) (4, -2.15422615408897399902e-01) (5, 2.75533020496368408203e-01) (6, 1.43391683697700500488e-01) (7, -4.58738207817077636719e-03) (8, 1.48539885878562927246e-01) (9, -2.44542717933654785156e-01) (10, -2.74644345045089721680e-01) (11, -1.72775194048881530762e-01) (12, 2.71800220012664794922e-01) (13, 2.65995889902114868164e-01) (14, 3.17370414733886718750e-01) (15, 3.96454960107803344727e-01) (16, -4.57427829504013061523e-01) (17, -4.42279011011123657227e-01) (18, -1.97671681642532348633e-01) (19, -2.66132414340972900391e-01) (20, -4.42682728171348571777e-02) (21, -2.98862189054489135742e-01) (22, -4.87863957881927490234e-01) (23, -8.19356977939605712891e-01) (24, -4.59415555000305175781e-01) (25, -3.74718725681304931641e-01) (26, -3.99478644132614135742e-01) (27, -2.71708607673645019531e-01) (28, -1.42638117074966430664e-01) (29, -2.30258718132972717285e-01) (30, -6.33299529552459716797e-01) (31, -7.90432453155517578125e-01) (32, -2.22171038389205932617e-01) (33, -5.93994677066802978516e-01) (34, -7.01494693756103515625e-01) (35, -7.48201131820678710938e-01) (36, -2.28363439440727233887e-01) (37, -4.14006918668746948242e-01) (38, -5.68030297756195068359e-01) (39, 1.37972444295883178711e-01) (40, 1.42659440636634826660e-01) (41, -3.18721294403076171875e-01) (42, -1.40242855995893478394e-02) (43, -8.09564411640167236328e-01) (44, -1.29579201340675354004e-01) (45, -3.39865535497665405273e-01) (46, 2.71553583443164825439e-02) (47, 1.51981562376022338867e-01) (48, -4.28829342126846313477e-01) (0, -3.24894161894917488098e-03) (1, 1.18335532024502754211e-02) (2, -1.94876492023468017578e-01) (3, -2.59962946176528930664e-01) (4, -1.66384547948837280273e-01) (5, 7.13716307654976844788e-03) (6, 1.92386969923973083496e-01) (7, 7.58834630250930786133e-02) (8, 1.14940196275711059570e-01) (9, -2.45695516467094421387e-01) (10, -2.23783090710639953613e-01) (11, -1.26061320304870605469e-01) (12, 9.75866690278053283691e-02) (13, 6.09824284911155700684e-02) (14, 2.43470221757888793945e-01) (15, 3.81535768508911132812e-01) (16, -4.25884157419204711914e-01) (17, -2.31015577912330627441e-01) (18, -1.63389131426811218262e-01) (19, -3.08429390192031860352e-01) (20, -1.32199063897132873535e-01) (21, -3.01567047834396362305e-01) (22, -4.35160905122756958008e-01) (23, -7.53933548927307128906e-01) (24, -5.03607392311096191406e-01) (25, -3.65173101425170898438e-01) (26, -4.48825299739837646484e-01) (27, -3.27861279249191284180e-01) (28, -2.93848365545272827148e-01) (29, -2.91754126548767089844e-01) (30, -5.83848893642425537109e-01) (31, -7.29614198207855224609e-01) (32, -1.30700528621673583984e-01) (33, -5.35914540290832519531e-01) (34, -6.66286587715148925781e-01) (35, -6.81012094020843505859e-01) (36, -2.77471363544464111328e-01) (37, -3.68908941745758056641e-01) (38, -5.52489519119262695312e-01) (39, 7.48894363641738891602e-02) (40, 1.34643897414207458496e-01) (41, -2.96755313873291015625e-01) (42, -4.01673279702663421631e-02) (43, -8.28215420246124267578e-01) (44, -2.99470841884613037109e-01) (45, -4.12580579519271850586e-01) (46, 8.78974329680204391479e-03) (47, 1.65413156151771545410e-01) (48, -4.36152637004852294922e-01) (0, 4.43704724311828613281e-02) (1, 5.30489906668663024902e-02) (2, -2.49765552580356597900e-02) (3, -1.19753681123256683350e-01) (4, -3.12562048435211181641e-01) (5, 1.67458578944206237793e-01) (6, 7.70226269960403442383e-02) (7, 2.35798172652721405029e-02) (8, 1.82459563016891479492e-01) (9, -1.06925338506698608398e-01) (10, -3.13223600387573242188e-01) (11, -3.81917506456375122070e-02) (12, -6.38781208544969558716e-03) (13, 1.20684593915939331055e-01) (14, 5.49129731953144073486e-02) (15, 2.98129200935363769531e-01) (16, -2.61294990777969360352e-01) (17, -2.62706816196441650391e-01) (18, -2.86113888025283813477e-01) (19, -6.04794248938560485840e-02) (20, -1.16388849914073944092e-01) (21, -4.45820182561874389648e-01) (22, -5.58217406272888183594e-01) (23, -8.39692175388336181641e-01) (24, -3.23806494474411010742e-01) (25, -4.97680783271789550781e-01) (26, -3.89244794845581054688e-01) (27, -1.78002372384071350098e-01) (28, -4.38446313142776489258e-01) (29, -4.27336901426315307617e-01) (30, -6.27331852912902832031e-01) (31, -6.98477566242218017578e-01) (32, -1.13939575850963592529e-01) (33, -5.06819486618041992188e-01) (34, -6.54715538024902343750e-01) (35, -5.09525775909423828125e-01) (36, -2.79236912727355957031e-01) (37, -3.92124265432357788086e-01) (38, -4.93142485618591308594e-01) (39, -2.82234302721917629242e-03) (40, -3.65986698307096958160e-03) (41, -3.41486245393753051758e-01) (42, -1.91929675638675689697e-02) (43, -6.38771414756774902344e-01) (44, -2.60450124740600585938e-01) (45, -1.61086827516555786133e-01) (46, 1.92522164434194564819e-02) (47, 1.77041918039321899414e-01) (48, -4.46942269802093505859e-01) (0, -1.21739536523818969727e-01) (1, -1.53034761548042297363e-01) (2, -1.66369527578353881836e-01) (3, -1.59013152122497558594e-01) (4, -3.61210554838180541992e-01) (5, -2.15740159153938293457e-01) (6, 3.00225466489791870117e-02) (7, 8.35625603795051574707e-02) (8, 6.04949332773685455322e-02) (9, -4.28705871105194091797e-01) (10, -1.33253470063209533691e-01) (11, -1.14033855497837066650e-01) (12, -2.96133607625961303711e-01) (13, -7.08900317549705505371e-02) (14, 1.79153233766555786133e-01) (15, 1.94114204496145248413e-02) (16, -6.32987976074218750000e-01) (17, -4.40809726715087890625e-01) (18, -2.98566788434982299805e-01) (19, -3.82162302732467651367e-01) (20, -1.47762626409530639648e-01) (21, -3.95318150520324707031e-01) (22, -3.13696056604385375977e-01) (23, -3.20972561836242675781e-01) (24, -7.29522764682769775391e-01) (25, -4.27480489015579223633e-01) (26, -5.96522748470306396484e-01) (27, -5.30673086643218994141e-01) (28, -1.95600330829620361328e-01) (29, -3.53364616632461547852e-01) (30, -3.03474605083465576172e-01) (31, -1.70767560601234436035e-01) (32, -3.61104846000671386719e-01) (33, -6.13974273204803466797e-01) (34, -5.99934279918670654297e-01) (35, -7.23555266857147216797e-01) (36, -2.82063543796539306641e-01) (37, -3.26918065547943115234e-01) (38, -4.45353649556636810303e-02) (39, -3.06678973138332366943e-02) (40, 4.59690578281879425049e-02) (41, -4.29816991090774536133e-01) (42, 8.79568234086036682129e-02) (43, -8.67225587368011474609e-01) (44, -2.82320946455001831055e-01) (45, -1.10042817890644073486e-01) (46, 2.38442346453666687012e-01) (47, 1.82743802666664123535e-01) (48, -6.74863576889038085938e-01) (0, 1.24985992908477783203e-01) (1, -9.42428633570671081543e-02) (2, -1.98476076126098632812e-01) (3, -1.48357361555099487305e-01) (4, -2.93635904788970947266e-01) (5, 1.74521937966346740723e-01) (6, 1.27407163381576538086e-01) (7, -2.34432257711887359619e-02) (8, 7.22708553075790405273e-02) (9, -2.10203289985656738281e-01) (10, -2.94327020645141601562e-01) (11, -2.20517843961715698242e-01) (12, 1.36585339903831481934e-01) (13, 1.17932505905628204346e-01) (14, 1.83819591999053955078e-01) (15, 2.34102338552474975586e-01) (16, -3.17151218652725219727e-01) (17, -4.00240838527679443359e-01) (18, -3.11021029949188232422e-01) (19, -1.76007345318794250488e-01) (20, 5.26386983692646026611e-02) (21, -3.72717857360839843750e-01) (22, -2.87978321313858032227e-01) (23, -6.60312771797180175781e-01) (24, -5.55278718471527099609e-01) (25, -4.63225364685058593750e-01) (26, -3.98368746042251586914e-01) (27, -2.77224719524383544922e-01) (28, -2.46156930923461914062e-01) (29, -3.26743453741073608398e-01) (30, -3.23770195245742797852e-01) (31, -3.64299505949020385742e-01) (32, -1.61622121930122375488e-01) (33, -5.71781098842620849609e-01) (34, -6.51027619838714599609e-01) (35, -5.79873442649841308594e-01) (36, -2.95362353324890136719e-01) (37, -2.19783306121826171875e-01) (38, -4.81895536184310913086e-01) (39, 5.96290864050388336182e-02) (40, 1.20783239603042602539e-01) (41, -3.60608965158462524414e-01) (42, -1.18004888296127319336e-01) (43, -7.09809839725494384766e-01) (44, -2.30128958821296691895e-01) (45, -1.50893762707710266113e-01) (46, 1.18178218603134155273e-01) (47, 2.30094969272613525391e-01) (48, -5.15036880970001220703e-01) (0, 4.10859324038028717041e-02) (1, -2.92421206831932067871e-02) (2, 3.37128527462482452393e-03) (3, -1.97157949209213256836e-01) (4, -1.71571016311645507812e-01) (5, 1.63008332252502441406e-01) (6, -6.70497119426727294922e-02) (7, -8.12842398881912231445e-02) (8, 1.18284717202186584473e-01) (9, 2.99624912440776824951e-03) (10, -1.36031210422515869141e-01) (11, 3.98249877616763114929e-03) (12, 2.20447145402431488037e-02) (13, -2.40409504622220993042e-02) (14, 4.45681661367416381836e-02) (15, 2.49561160802841186523e-01) (16, -2.45760068297386169434e-01) (17, -1.37188836932182312012e-01) (18, -3.18328469991683959961e-01) (19, 2.78900202829390764236e-04) (20, -2.29133695363998413086e-01) (21, -4.27956342697143554688e-01) (22, -3.65386456251144409180e-01) (23, -4.68046605587005615234e-01) (24, -1.19002498686313629150e-01) (25, -2.67598450183868408203e-01) (26, -2.06856265664100646973e-01) (27, -2.34680473804473876953e-01) (28, -2.59320229291915893555e-01) (29, -3.24503809213638305664e-01) (30, -5.34905135631561279297e-01) (31, -4.89651769399642944336e-01) (32, -1.57165631651878356934e-01) (33, -3.88543784618377685547e-01) (34, -3.27538609504699707031e-01) (35, -4.05672043561935424805e-01) (36, -4.09890592098236083984e-01) (37, -2.46088400483131408691e-01) (38, -4.70222353935241699219e-01) (39, 2.03476734459400177002e-02) (40, 7.74465724825859069824e-02) (41, -2.38471850752830505371e-01) (42, -2.70760685205459594727e-01) (43, -3.21710169315338134766e-01) (44, -3.48829120397567749023e-01) (45, -3.66230785846710205078e-01) (46, -7.00655505061149597168e-02) (47, 4.49623800814151763916e-02) (48, -5.25797426700592041016e-01) (0, 1.64605051279067993164e-01) (1, 1.73377588391304016113e-01) (2, 2.44540691375732421875e-01) (3, 1.79663926362991333008e-01) (4, -1.99308320879936218262e-01) (5, -8.22150558233261108398e-02) (6, -1.69845610857009887695e-01) (7, -1.10033154487609863281e-01) (8, 2.48655259609222412109e-01) (9, 7.21474885940551757812e-02) (10, -1.00981667637825012207e-01) (11, -8.01568403840065002441e-02) (12, -1.84610113501548767090e-02) (13, -9.88998785614967346191e-02) (14, -1.04448236525058746338e-02) (15, -2.86899387836456298828e-01) (16, 2.78070271015167236328e-01) (17, -1.99324026703834533691e-01) (18, -1.11269205808639526367e-01) (19, -9.41201142268255352974e-05) (20, -4.41980302333831787109e-01) (21, -2.87440270185470581055e-01) (22, -2.94079571962356567383e-01) (23, -5.54377324879169464111e-02) (24, 1.29297003149986267090e-01) (25, -9.37892720103263854980e-02) (26, -2.49580621719360351562e-01) (27, -1.25200748443603515625e-01) (28, -7.92175307869911193848e-02) (29, -2.86655664443969726562e-01) (30, -2.93855547904968261719e-01) (31, -1.51462957262992858887e-01) (32, -2.33616352081298828125e-01) (33, -1.66308701038360595703e-01) (34, -1.29199534654617309570e-01) (35, -5.33310592174530029297e-01) (36, -4.95167404413223266602e-01) (37, -1.37258008122444152832e-01) (38, -3.27929317951202392578e-01) (39, 7.08625242114067077637e-02) (40, -1.48045569658279418945e-01) (41, -2.93491363525390625000e-01) (42, -4.43861544132232666016e-01) (43, -2.64866799116134643555e-01) (44, -7.09244236350059509277e-02) (45, -2.44540452957153320312e-01) (46, -1.21555496007204055786e-02) (47, 3.13322305679321289062e-01) (48, -4.79152530431747436523e-01) (0, 2.48027741909027099609e-01) (1, 1.99382260441780090332e-01) (2, -5.88748045265674591064e-03) (3, 1.30831196904182434082e-01) (4, -3.64647418260574340820e-01) (5, -1.16329565644264221191e-02) (6, 1.58095899969339370728e-02) (7, -6.09376886859536170959e-03) (8, 3.85562866926193237305e-01) (9, 2.53844797611236572266e-01) (10, -2.17021778225898742676e-01) (11, -2.14416489005088806152e-01) (12, -4.35419589281082153320e-01) (13, 4.82299655675888061523e-01) (14, 2.11048141121864318848e-01) (15, -5.89230358600616455078e-01) (16, 2.68754720687866210938e-01) (17, 8.78589898347854614258e-02) (18, 2.23542936146259307861e-02) (19, -6.40738233923912048340e-02) (20, -7.62059748172760009766e-01) (21, -3.10244709253311157227e-01) (22, -5.65497457981109619141e-01) (23, 1.75446242094039916992e-01) (24, 4.71846908330917358398e-02) (25, 1.01771444082260131836e-01) (26, 5.62155880033969879150e-02) (27, -2.74524267297238111496e-04) (28, -5.23589313030242919922e-01) (29, -1.15541769191622734070e-02) (30, -1.15507058799266815186e-01) (31, 1.75650879740715026855e-01) (32, 3.98264944553375244141e-01) (33, -2.00870543718338012695e-01) (34, -1.69985089451074600220e-02) (35, -9.18822884559631347656e-02) (36, -1.43171429634094238281e-01) (37, -2.66454994678497314453e-01) (38, -1.55210718512535095215e-01) (39, 3.12031000852584838867e-01) (40, 2.91883856058120727539e-01) (41, 1.29753977060317993164e-01) (42, -1.56333386898040771484e-01) (43, -9.66987758874893188477e-02) (44, 2.70235794596374034882e-03) (45, -3.18872153759002685547e-01) (46, -7.06164613366127014160e-02) (47, 1.74404039978981018066e-01) (48, -4.76597070693969726562e-01) (0, -3.81053462624549865723e-02) (1, -2.05013856291770935059e-01) (2, -1.91590622067451477051e-01) (3, -2.87791728973388671875e-01) (4, -1.63837537169456481934e-01) (5, 3.98282483220100402832e-02) (6, 2.83935785293579101562e-01) (7, -2.38281227648258209229e-02) (8, 1.62618849426507949829e-02) (9, -3.42165738344192504883e-01) (10, -1.64237588644027709961e-01) (11, -2.30928063392639160156e-01) (12, -6.91365897655487060547e-02) (13, 8.31208229064941406250e-02) (14, 1.82832911610603332520e-01) (15, 1.89519748091697692871e-01) (16, -3.94770175218582153320e-01) (17, -3.91212999820709228516e-01) (18, -2.41072937846183776855e-01) (19, -3.66183698177337646484e-01) (20, -4.66886162757873535156e-02) (21, -3.51595520973205566406e-01) (22, -4.39124941825866699219e-01) (23, -5.26223063468933105469e-01) (24, -5.06336092948913574219e-01) (25, -4.79347109794616699219e-01) (26, -5.17861008644104003906e-01) (27, -3.27003747224807739258e-01) (28, -2.24386408925056457520e-01) (29, -2.96956419944763183594e-01) (30, -5.99243879318237304688e-01) (31, -3.18978428840637207031e-01) (32, -1.16923369467258453369e-01) (33, -4.64696943759918212891e-01) (34, -7.56118416786193847656e-01) (35, -6.02694034576416015625e-01) (36, -1.57222181558609008789e-01) (37, -4.17475253343582153320e-01) (38, -3.92458617687225341797e-01) (39, 9.14176180958747863770e-02) (40, 1.86834916472434997559e-01) (41, -2.97067940235137939453e-01) (42, -4.28842753171920776367e-02) (43, -6.47152721881866455078e-01) (44, -2.01002880930900573730e-01) (45, -2.62974858283996582031e-01) (46, -8.27515721321105957031e-02) (47, 1.71436741948127746582e-01) (48, -5.01776576042175292969e-01) (0, 7.78665952384471893311e-03) (1, 7.51145780086517333984e-02) (2, -7.70882666110992431641e-02) (3, -7.10520595312118530273e-02) (4, -2.41954699158668518066e-01) (5, 9.14965793490409851074e-02) (6, 6.89886733889579772949e-02) (7, -3.03674079477787017822e-02) (8, 2.41373002529144287109e-01) (9, -2.49543339014053344727e-01) (10, -3.37108016014099121094e-01) (11, -1.47631406784057617188e-01) (12, 3.04835736751556396484e-02) (13, -6.87482170178554952145e-05) (14, 2.44989898055791854858e-02) (15, 8.61028432846069335938e-02) (16, -3.55084896087646484375e-01) (17, -2.48386129736900329590e-01) (18, -2.47728392481803894043e-01) (19, -1.77627116441726684570e-01) (20, -1.25141173601150512695e-01) (21, -4.26025599241256713867e-01) (22, -3.85900020599365234375e-01) (23, -6.46136820316314697266e-01) (24, -4.23068642616271972656e-01) (25, -4.11913275718688964844e-01) (26, -4.14651691913604736328e-01) (27, -2.05680564045906066895e-01) (28, -2.09339991211891174316e-01) (29, -2.73782908916473388672e-01) (30, -5.16930043697357177734e-01) (31, -4.96407508850097656250e-01) (32, -1.16432510316371917725e-01) (33, -4.84275251626968383789e-01) (34, -5.35025537014007568359e-01) (35, -6.69281363487243652344e-01) (36, -1.98775708675384521484e-01) (37, -3.78870934247970581055e-01) (38, -3.58448654413223266602e-01) (39, 9.26592275500297546387e-02) (40, 2.23503205925226211548e-02) (41, -3.56402307748794555664e-01) (42, -6.16090595722198486328e-02) (43, -5.81168234348297119141e-01) (44, -3.36638599634170532227e-01) (45, -1.35123595595359802246e-01) (46, 1.90390404313802719116e-02) (47, 2.35050052404403686523e-01) (48, -4.93802428245544433594e-01) (0, 2.40399271249771118164e-01) (1, 1.61125168204307556152e-01) (2, 1.18175826966762542725e-01) (3, 2.19604283571243286133e-01) (4, -1.59398823976516723633e-01) (5, -6.21781917288899421692e-03) (6, 1.31575405597686767578e-01) (7, 5.11882863938808441162e-02) (8, 5.29824852943420410156e-01) (9, -2.11188599467277526855e-01) (10, -1.22783325612545013428e-01) (11, -1.27341985702514648438e-01) (12, -9.88038480281829833984e-02) (13, 3.97824913263320922852e-01) (14, 2.98523277044296264648e-01) (15, -3.35031926631927490234e-01) (16, 3.03277254104614257812e-01) (17, -2.55271345376968383789e-01) (18, -1.32975473999977111816e-01) (19, -3.57337594032287597656e-01) (20, -5.08808851242065429688e-01) (21, -1.89353749155998229980e-01) (22, -4.65830206871032714844e-01) (23, 3.94204631447792053223e-02) (24, -1.17276623845100402832e-01) (25, -3.59714806079864501953e-01) (26, 4.73437607288360595703e-02) (27, 8.53360369801521301270e-02) (28, -5.04206597805023193359e-01) (29, -2.20902487635612487793e-01) (30, -1.36114522814750671387e-01) (31, 9.01023149490356445312e-02) (32, 2.28663399815559387207e-01) (33, -4.38488900661468505859e-01) (34, -2.96487122774124145508e-01) (35, -2.63682693243026733398e-01) (36, -3.54050010442733764648e-01) (37, -1.65690720081329345703e-01) (38, -4.20117616653442382812e-01) (39, 3.10828059911727905273e-01) (40, 3.90454024076461791992e-01) (41, -2.61697024106979370117e-01) (42, -2.95937299728393554688e-01) (43, -3.03280323743820190430e-01) (44, -9.93397925049066543579e-03) (45, -1.53062060475349426270e-01) (46, -5.24321570992469787598e-02) (47, 2.68889755010604858398e-01) (48, -5.76643288135528564453e-01) (0, -1.04253098368644714355e-01) (1, 1.67454615235328674316e-01) (2, 2.07443475723266601562e-01) (3, 1.60848736763000488281e-01) (4, -4.12326306104660034180e-01) (5, 4.61413115262985229492e-02) (6, -5.08781969547271728516e-02) (7, 5.52995270118117332458e-03) (8, 9.32654291391372680664e-02) (9, 1.21379205957055091858e-02) (10, -1.29668176174163818359e-01) (11, -1.42403757199645042419e-02) (12, -3.55206519365310668945e-01) (13, -1.26612409949302673340e-01) (14, -1.60673499107360839844e-01) (15, 3.90464663505554199219e-01) (16, -3.69501769542694091797e-01) (17, 1.48711070418357849121e-01) (18, -8.21413323283195495605e-02) (19, -8.47591832280158996582e-02) (20, -6.73113882541656494141e-01) (21, -7.02839553356170654297e-01) (22, -7.00710594654083251953e-01) (23, -1.00223898887634277344e+00) (24, 2.40636430680751800537e-02) (25, -2.72513568401336669922e-01) (26, -6.79468661546707153320e-02) (27, -2.96631962060928344727e-01) (28, -8.47759127616882324219e-01) (29, -5.62374353408813476562e-01) (30, -9.30451571941375732422e-01) (31, -9.31824147701263427734e-01) (32, 1.90945237874984741211e-01) (33, -5.57239472866058349609e-01) (34, -2.98951178789138793945e-01) (35, -5.47021508216857910156e-01) (36, -9.59255576133728027344e-01) (37, -6.23703896999359130859e-01) (38, -5.43692886829376220703e-01) (39, -3.08565218001604080200e-02) (40, 1.46571323275566101074e-01) (41, -4.34704780578613281250e-01) (42, -3.12414616346359252930e-01) (43, -6.15242481231689453125e-01) (44, -1.00179922580718994141e+00) (45, -5.07826328277587890625e-01) (46, -1.58625513315200805664e-01) (47, -1.20099559426307678223e-01) (48, -4.43063825368881225586e-01) (0, 3.33683341741561889648e-02) (1, 3.30243930220603942871e-02) (2, -8.12752321362495422363e-02) (3, 9.03679523617029190063e-03) (4, -2.92824864387512207031e-01) (5, 7.69279524683952331543e-02) (6, 5.93321677297353744507e-03) (7, -4.28361669182777404785e-02) (8, 8.17585363984107971191e-02) (9, -5.12957274913787841797e-02) (10, -2.29820430278778076172e-01) (11, -3.04811652749776840210e-02) (12, -2.16242913156747817993e-02) (13, 2.14135646820068359375e-02) (14, -1.56212626025080680847e-02) (15, 1.69944986701011657715e-01) (16, -3.06022584438323974609e-01) (17, -8.38497728109359741211e-02) (18, -2.36305460333824157715e-01) (19, -1.12897761166095733643e-01) (20, -6.49609118700027465820e-02) (21, -3.90208631753921508789e-01) (22, -3.46365213394165039062e-01) (23, -4.86012309789657592773e-01) (24, -1.94102197885513305664e-01) (25, -3.59111487865447998047e-01) (26, -3.72043490409851074219e-01) (27, -1.54058739542961120605e-01) (28, -3.18667650222778320312e-01) (29, -2.87076383829116821289e-01) (30, -4.67678815126419067383e-01) (31, -4.48779433965682983398e-01) (32, -1.31575658917427062988e-01) (33, -4.56763029098510742188e-01) (34, -4.24861401319503784180e-01) (35, -5.17113268375396728516e-01) (36, -2.26058021187782287598e-01) (37, -3.50973099470138549805e-01) (38, -4.58249211311340332031e-01) (39, -4.73415367305278778076e-02) (40, 1.51378214359283447266e-01) (41, -2.45782777667045593262e-01) (42, -8.51612538099288940430e-02) (43, -5.62876582145690917969e-01) (44, -3.73003423213958740234e-01) (45, -3.34587186574935913086e-01) (46, 2.23713573068380355835e-02) (47, 1.16027727723121643066e-01) (48, -5.07523715496063232422e-01) (0, -1.75618808716535568237e-02) (1, 1.13100633025169372559e-01) (2, 6.57979249954223632812e-02) (3, -2.33998984098434448242e-01) (4, -1.83100387454032897949e-01) (5, -9.89127159118652343750e-02) (6, -8.04850980639457702637e-02) (7, -2.33429133892059326172e-01) (8, 4.55822855234146118164e-01) (9, -1.36713422834873199463e-02) (10, -1.36375781148672103882e-02) (11, -1.08277089893817901611e-01) (12, -5.66969990730285644531e-01) (13, -2.10111379623413085938e-01) (14, 7.92029872536659240723e-02) (15, -5.00826358795166015625e-01) (16, 3.15328598022460937500e-01) (17, -1.78846016526222229004e-01) (18, -1.42747119069099426270e-01) (19, -1.64503175765275955200e-02) (20, -5.78843235969543457031e-01) (21, -3.89908671379089355469e-01) (22, -3.50394994020462036133e-01) (23, -1.51325598359107971191e-01) (24, 5.72161436080932617188e-01) (25, 7.14998170733451843262e-02) (26, 4.54139672219753265381e-02) (27, 2.27760076522827148438e-01) (28, 2.05442011356353759766e-01) (29, -3.47213417291641235352e-01) (30, -3.11175376176834106445e-01) (31, -3.97206097841262817383e-01) (32, -3.16887587308883666992e-01) (33, -4.25070039927959442139e-02) (34, -1.23770661652088165283e-01) (35, -3.63448411226272583008e-01) (36, -3.19113105535507202148e-01) (37, 6.87115415930747985840e-02) (38, -3.16800981760025024414e-01) (39, 5.70902265608310699463e-02) (40, -3.04133355617523193359e-01) (41, -6.06593251228332519531e-01) (42, -2.01594620943069458008e-01) (43, -3.20728242397308349609e-01) (44, -5.17209582030773162842e-02) (45, -5.24431355297565460205e-02) (46, 1.53698191046714782715e-01) (47, 1.53487175703048706055e-01) (48, -4.51626062393188476562e-01) (0, -6.41369894146919250488e-02) (1, 4.41833101212978363037e-02) (2, 2.97663696110248565674e-02) (3, -1.75037071108818054199e-01) (4, -3.45785439014434814453e-01) (5, 4.29294295608997344971e-02) (6, -1.26820087432861328125e-01) (7, -2.92648613452911376953e-01) (8, 2.26560875773429870605e-01) (9, -4.06201556324958801270e-02) (10, -2.48367026448249816895e-01) (11, -1.07142232358455657959e-01) (12, -2.78275400400161743164e-01) (13, -2.12020263075828552246e-01) (14, -2.66922235488891601562e-01) (15, -4.53034490346908569336e-02) (16, 9.50914546847343444824e-02) (17, -1.20895467698574066162e-01) (18, -3.04212093353271484375e-01) (19, -1.17382638156414031982e-01) (20, -5.09414434432983398438e-01) (21, -4.36052292585372924805e-01) (22, -3.53458613157272338867e-01) (23, -5.63478052616119384766e-01) (24, 2.29419246315956115723e-01) (25, -3.53110462427139282227e-01) (26, -6.37131556868553161621e-02) (27, -2.97788649797439575195e-01) (28, -3.86277914047241210938e-01) (29, -4.52713012695312500000e-01) (30, -4.55387383699417114258e-01) (31, -4.36036944389343261719e-01) (32, -1.10044360160827636719e-01) (33, -2.13241010904312133789e-01) (34, -1.55720829963684082031e-01) (35, -5.38706898689270019531e-01) (36, -6.25149846076965332031e-01) (37, -2.09232732653617858887e-01) (38, -3.87950718402862548828e-01) (39, 8.35089199244976043701e-03) (40, -1.87903538346290588379e-01) (41, -2.05112248659133911133e-01) (42, -4.06866103410720825195e-01) (43, -4.78514790534973144531e-01) (44, -5.37448406219482421875e-01) (45, -2.18966245651245117188e-01) (46, -1.86192959547042846680e-01) (47, 7.53207877278327941895e-02) (48, -5.62826335430145263672e-01) (0, -7.99759477376937866211e-02) (1, 4.96124178171157836914e-02) (2, 1.01004526019096374512e-01) (3, 1.96814790368080139160e-01) (4, -2.55018293857574462891e-01) (5, -9.34126973152160644531e-02) (6, -1.97417497634887695312e-01) (7, 8.67318827658891677856e-03) (8, 2.36036077141761779785e-01) (9, 8.12476277351379394531e-02) (10, -1.35243773460388183594e-01) (11, -9.67809259891510009766e-02) (12, -2.73063957691192626953e-01) (13, -1.18488401174545288086e-01) (14, -1.52535915374755859375e-01) (15, 2.64465779066085815430e-01) (16, -1.70906901359558105469e-01) (17, 2.29858726263046264648e-01) (18, -1.57884322106838226318e-02) (19, -7.34980218112468719482e-03) (20, -5.53382515907287597656e-01) (21, -5.89185059070587158203e-01) (22, -5.70072889328002929688e-01) (23, -7.93375730514526367188e-01) (24, 6.55940249562263488770e-02) (25, -2.72353708744049072266e-01) (26, -1.16118006408214569092e-01) (27, -4.20425713062286376953e-01) (28, -6.89907133579254150391e-01) (29, -6.07476890087127685547e-01) (30, -9.02605831623077392578e-01) (31, -8.21196019649505615234e-01) (32, 1.94133937358856201172e-01) (33, -3.04701894521713256836e-01) (34, -2.89189308881759643555e-01) (35, -7.35866487026214599609e-01) (36, -7.57044732570648193359e-01) (37, -5.53028464317321777344e-01) (38, -5.72448372840881347656e-01) (39, -4.67086844146251678467e-02) (40, 1.72481760382652282715e-01) (41, -3.50922763347625732422e-01) (42, -6.24941289424896240234e-01) (43, -7.45203197002410888672e-01) (44, -8.59483540058135986328e-01) (45, -5.53860604763031005859e-01) (46, -1.25580161809921264648e-01) (47, -7.02421665191650390625e-02) (48, -5.86967766284942626953e-01) (0, -2.62504816055297851562e-02) (1, 1.08003631234169006348e-01) (2, 3.12561511993408203125e-01) (3, 1.08401425182819366455e-01) (4, -7.03752696514129638672e-01) (5, -3.49762082099914550781e-01) (6, -6.04704618453979492188e-01) (7, -3.78249317407608032227e-01) (8, 5.86702942848205566406e-01) (9, -1.27576917409896850586e-01) (10, -1.94411739706993103027e-01) (11, -2.53735840320587158203e-01) (12, -5.14996409416198730469e-01) (13, -3.80104154348373413086e-01) (14, -4.60273116827011108398e-01) (15, -6.86165809631347656250e-01) (16, 8.46367120742797851562e-01) (17, -7.68624767661094665527e-02) (18, -1.89857497811317443848e-01) (19, -3.67898672819137573242e-01) (20, -8.23020637035369873047e-01) (21, -1.35972440242767333984e-01) (22, 3.83469574153423309326e-02) (23, -6.35566949844360351562e-01) (24, 1.37918305397033691406e+00) (25, 3.87580804526805877686e-02) (26, 4.43637698888778686523e-01) (27, 1.36998087167739868164e-01) (28, 3.03072243928909301758e-01) (29, -6.73001527786254882812e-01) (30, -4.11597430706024169922e-01) (31, -6.65028929710388183594e-01) (32, -8.56699347496032714844e-01) (33, -2.53160065039992332458e-03) (34, -3.11794519424438476562e-01) (35, -3.04139345884323120117e-01) (36, -4.30831193923950195312e-01) (37, -2.11346372961997985840e-01) (38, -3.32751601934432983398e-01) (39, -2.57175624370574951172e-01) (40, -8.78777682781219482422e-01) (41, -1.02859640121459960938e+00) (42, 6.62483125925064086914e-02) (43, -5.72827816009521484375e-01) (44, -3.94235700368881225586e-01) (45, 5.14197051525115966797e-01) (46, 5.11201024055480957031e-01) (47, 2.55288958549499511719e-01) (48, -7.94337272644042968750e-01) (0, 1.11601978540420532227e-01) (1, 4.49937507510185241699e-02) (2, 5.10760247707366943359e-02) (3, 2.69553195685148239136e-02) (4, -1.84547618031501770020e-01) (5, 3.71449775993824005127e-02) (6, -1.72261334955692291260e-02) (7, -2.28437975049018859863e-01) (8, 1.38998359441757202148e-01) (9, -1.28417700529098510742e-01) (10, -2.37101584672927856445e-01) (11, -1.18618242442607879639e-01) (12, 1.65315479040145874023e-01) (13, -1.29596471786499023438e-01) (14, 3.83314341306686401367e-02) (15, 1.66993141174316406250e-01) (16, -1.27081066370010375977e-01) (17, -7.09846168756484985352e-02) (18, -1.55291199684143066406e-01) (19, -8.00166279077529907227e-02) (20, -1.27140477299690246582e-01) (21, -4.41304564476013183594e-01) (22, -3.66575598716735839844e-01) (23, -4.63093042373657226562e-01) (24, -5.27488589286804199219e-02) (25, -4.00799334049224853516e-01) (26, -2.37984687089920043945e-01) (27, -1.06226190924644470215e-01) (28, -8.96230340003967285156e-02) (29, -3.31756353378295898438e-01) (30, -4.85910862684249877930e-01) (31, -5.05671620368957519531e-01) (32, -2.51788556575775146484e-01) (33, -4.40654933452606201172e-01) (34, -3.97295475006103515625e-01) (35, -5.12704014778137207031e-01) (36, -2.79591530561447143555e-01) (37, -3.25122416019439697266e-01) (38, -3.52519541978836059570e-01) (39, 1.27663850784301757812e-01) (40, -7.75150209665298461914e-02) (41, -3.84479165077209472656e-01) (42, -2.10947543382644653320e-01) (43, -4.47705864906311035156e-01) (44, -2.41577908396720886230e-01) (45, -2.97187179327011108398e-01) (46, -1.23822391033172607422e-01) (47, 9.67200919985771179199e-02) (48, -4.48023259639739990234e-01) (0, 1.10610894858837127686e-01) (1, -2.08028759807348251343e-02) (2, -4.56632375717163085938e-02) (3, -3.84566783905029296875e-02) (4, -1.55549757182598114014e-02) (5, 7.62887299060821533203e-02) (6, 1.12453952431678771973e-01) (7, -1.55425459146499633789e-01) (8, 1.66546478867530822754e-01) (9, -1.39080211520195007324e-01) (10, -1.12193666398525238037e-01) (11, -5.81748113036155700684e-02) (12, -2.28203763253986835480e-03) (13, 8.56165587902069091797e-03) (14, 1.89936831593513488770e-01) (15, 1.43409550189971923828e-01) (16, -1.67597487568855285645e-01) (17, -2.05170124769210815430e-01) (18, -3.00948083400726318359e-01) (19, -9.08649787306785583496e-02) (20, -8.98949131369590759277e-02) (21, -3.35589766502380371094e-01) (22, -4.55858737230300903320e-01) (23, -4.67606008052825927734e-01) (24, -1.49076119065284729004e-01) (25, -2.12388083338737487793e-01) (26, -1.92208632826805114746e-01) (27, -2.25322782993316650391e-01) (28, -2.04674258828163146973e-01) (29, -2.92769551277160644531e-01) (30, -4.68745768070220947266e-01) (31, -3.94255727529525756836e-01) (32, -1.55274763703346252441e-01) (33, -2.24429041147232055664e-01) (34, -3.44138264656066894531e-01) (35, -3.40837240219116210938e-01) (36, -3.31833600997924804688e-01) (37, -3.15676808357238769531e-01) (38, -3.42993617057800292969e-01) (39, 6.81798830628395080566e-02) (40, 8.10149312019348144531e-02) (41, -4.36008721590042114258e-02) (42, -3.23710441589355468750e-01) (43, -3.15329283475875854492e-01) (44, -1.79439470171928405762e-01) (45, -1.25346302986145019531e-01) (46, 3.40461805462837219238e-02) (47, -2.26304754614830017090e-02) (48, -5.19577324390411376953e-01) (0, -1.39245122671127319336e-01) (1, 3.27680520713329315186e-02) (2, -3.25812399387359619141e-02) (3, -8.64588841795921325684e-02) (4, -2.75399088859558105469e-01) (5, 1.86851665377616882324e-01) (6, 5.89638538658618927002e-02) (7, -2.72692809812724590302e-03) (8, 5.94331696629524230957e-02) (9, -6.61235302686691284180e-02) (10, -2.11063876748085021973e-01) (11, -1.20859526097774505615e-01) (12, -7.11522027850151062012e-02) (13, -1.67700991034507751465e-01) (14, 2.56160311400890350342e-02) (15, 2.18075990676879882812e-01) (16, -2.39687606692314147949e-01) (17, -1.74914121627807617188e-01) (18, -1.98062300682067871094e-01) (19, -1.78757146000862121582e-01) (20, -2.64921665191650390625e-01) (21, -4.99152630567550659180e-01) (22, -3.86225044727325439453e-01) (23, -6.21121168136596679688e-01) (24, -2.56359487771987915039e-01) (25, -4.20041769742965698242e-01) (26, -1.53637379407882690430e-01) (27, -2.48146668076515197754e-01) (28, -4.47270780801773071289e-01) (29, -4.85800832509994506836e-01) (30, -6.03772163391113281250e-01) (31, -6.22433781623840332031e-01) (32, -3.40500124730169773102e-03) (33, -4.33206349611282348633e-01) (34, -3.04111212491989135742e-01) (35, -3.95319014787673950195e-01) (36, -4.12584751844406127930e-01) (37, -3.79946142435073852539e-01) (38, -4.08599406480789184570e-01) (39, 2.36021690070629119873e-02) (40, 2.73456573486328125000e-02) (41, -2.16961532831192016602e-01) (42, -1.25352188944816589355e-01) (43, -3.54723393917083740234e-01) (44, -3.51514428853988647461e-01) (45, -3.53981524705886840820e-01) (46, -1.41123831272125244141e-01) (47, -3.62371541559696197510e-02) (48, -4.68861848115921020508e-01) (0, 4.03621606528759002686e-02) (1, -6.52575269341468811035e-02) (2, -5.08996145799756050110e-03) (3, -2.01928734779357910156e-01) (4, -1.67993679642677307129e-01) (5, -1.03775225579738616943e-01) (6, -3.52164059877395629883e-02) (7, -1.02645874023437500000e-01) (8, -2.77254059910774230957e-02) (9, -7.35724866390228271484e-02) (10, -1.22562192380428314209e-01) (11, -2.06730455160140991211e-01) (12, -1.89575389027595520020e-01) (13, -1.16076961159706115723e-01) (14, -5.72923757135868072510e-02) (15, 4.27187234163284301758e-02) (16, -1.58912092447280883789e-01) (17, -1.89174175262451171875e-01) (18, -2.11201131343841552734e-01) (19, -2.13243469595909118652e-01) (20, -7.94220194220542907715e-02) (21, -1.16828158497810363770e-01) (22, -1.97135359048843383789e-01) (23, -2.63415217399597167969e-01) (24, -6.53531476855278015137e-02) (25, -3.29437762498855590820e-01) (26, -1.24054476618766784668e-01) (27, -2.75913804769515991211e-01) (28, -2.35126554965972900391e-01) (29, -3.85250627994537353516e-01) (30, -2.31001377105712890625e-01) (31, -1.98864296078681945801e-01) (32, -9.85857471823692321777e-02) (33, -1.90925255417823791504e-01) (34, -2.68229722976684570312e-01) (35, -3.58837544918060302734e-01) (36, -1.40384063124656677246e-01) (37, -3.28038543462753295898e-01) (38, -3.40473771095275878906e-01) (39, -7.92034268379211425781e-02) (40, 9.22078788280487060547e-02) (41, -1.08448602259159088135e-01) (42, -3.31617027521133422852e-01) (43, -2.74826735258102416992e-01) (44, -3.03392440080642700195e-01) (45, -3.33062320947647094727e-01) (46, -1.57719805836677551270e-01) (47, 5.83035536110401153564e-02) (48, -5.25334239006042480469e-01) (0, -6.70012971386313438416e-03) (1, 5.20609393715858459473e-02) (2, -2.45535880327224731445e-01) (3, -1.65145024657249450684e-01) (4, -2.04113855957984924316e-01) (5, 1.02232851088047027588e-01) (6, 1.27110943198204040527e-01) (7, -5.13010984286665916443e-03) (8, 4.05746214091777801514e-02) (9, -1.56902432441711425781e-01) (10, -3.63252699375152587891e-01) (11, -1.81038931012153625488e-01) (12, 1.47173613309860229492e-01) (13, 8.01446214318275451660e-02) (14, 2.37458884716033935547e-01) (15, 3.14634501934051513672e-01) (16, -4.59922373294830322266e-01) (17, -3.26586663722991943359e-01) (18, -1.85368254780769348145e-01) (19, -2.35943749547004699707e-01) (20, -4.33987230062484741211e-02) (21, -3.41800510883331298828e-01) (22, -5.11394798755645751953e-01) (23, -5.31636416912078857422e-01) (24, -3.68207126855850219727e-01) (25, -4.79913026094436645508e-01) (26, -4.45291429758071899414e-01) (27, -3.13907653093338012695e-01) (28, -3.40000808238983154297e-01) (29, -4.20776903629302978516e-01) (30, -5.38682699203491210938e-01) (31, -5.25282382965087890625e-01) (32, -3.13218943774700164795e-02) (33, -4.19361084699630737305e-01) (34, -6.62832021713256835938e-01) (35, -6.30927383899688720703e-01) (36, -1.14267058670520782471e-01) (37, -3.91211390495300292969e-01) (38, -4.30528700351715087891e-01) (39, 1.77136227488517761230e-01) (40, 7.00172260403633117676e-02) (41, -1.65604397654533386230e-01) (42, -1.52374580502510070801e-01) (43, -5.55595517158508300781e-01) (44, -2.69049376249313354492e-01) (45, -2.25640028715133666992e-01) (46, -3.17375287413597106934e-02) (47, 9.61908847093582153320e-02) (48, -4.70760285854339599609e-01) (0, 4.60348010063171386719e-01) (1, 1.32980024814605712891e+00) (2, 6.79420351982116699219e-01) (3, 1.70063734054565429688e-01) (4, -1.20050287246704101562e+00) (5, -1.11106812953948974609e+00) (6, -9.89532709121704101562e-01) (7, -3.46233308315277099609e-01) (8, 8.96598637104034423828e-01) (9, 1.92726588249206542969e+00) (10, 1.15851789712905883789e-01) (11, -5.98571673035621643066e-02) (12, -1.09706079959869384766e+00) (13, -1.27563452720642089844e+00) (14, -1.04733812808990478516e+00) (15, -1.13377273082733154297e+00) (16, 8.56560587882995605469e-01) (17, 1.69125699996948242188e+00) (18, -3.49172860383987426758e-01) (19, -5.42829990386962890625e-01) (20, -7.04432725906372070312e-01) (21, -4.92864489555358886719e-01) (22, 1.68208673596382141113e-01) (23, -1.08590960502624511719e+00) (24, 1.21225452423095703125e+00) (25, 1.05247569084167480469e+00) (26, 5.49115121364593505859e-01) (27, -8.36355462670326232910e-02) (28, 8.52256238460540771484e-01) (29, -9.58656311035156250000e-01) (30, -4.34800803661346435547e-01) (31, -1.20050716400146484375e+00) (32, -1.21054756641387939453e+00) (33, 3.94595831632614135742e-01) (34, 6.40717372298240661621e-02) (35, -3.60818237066268920898e-01) (36, -1.01659166812896728516e+00) (37, -5.26834368705749511719e-01) (38, -1.57882899045944213867e-01) (39, -5.67428350448608398438e-01) (40, -1.03793251514434814453e+00) (41, -5.35091459751129150391e-01) (42, -2.62237250804901123047e-01) (43, 1.01473599672317504883e-01) (44, -1.18938946723937988281e+00) (45, 1.59208238124847412109e-01) (46, 1.94073960185050964355e-01) (47, 6.42945691943168640137e-02) (48, -4.77956719696521759033e-02) (0, -9.40572917461395263672e-02) (1, 1.13381519913673400879e-02) (2, -7.70774856209754943848e-02) (3, -8.69065523147583007812e-02) (4, -1.71568214893341064453e-01) (5, -2.54059266299009323120e-02) (6, -1.27130057662725448608e-02) (7, -1.06358081102371215820e-01) (8, 1.53700739145278930664e-01) (9, -7.72224590182304382324e-02) (10, -1.93304821848869323730e-01) (11, -6.60208314657211303711e-02) (12, -3.82890179753303527832e-02) (13, -8.95411670207977294922e-02) (14, -3.96012179553508758545e-02) (15, 1.31822943687438964844e-01) (16, -2.52661526203155517578e-01) (17, -2.48193159699440002441e-01) (18, -1.92230984568595886230e-01) (19, -1.40603795647621154785e-01) (20, -1.21048949658870697021e-01) (21, -3.36035728454589843750e-01) (22, -4.44259077310562133789e-01) (23, -4.70609277486801147461e-01) (24, -3.14437955617904663086e-01) (25, -2.83214479684829711914e-01) (26, -2.88020581007003784180e-01) (27, -2.38825216889381408691e-01) (28, -2.93987482786178588867e-01) (29, -3.76340478658676147461e-01) (30, -5.29627084732055664062e-01) (31, -5.47857582569122314453e-01) (32, -3.22656370699405670166e-02) (33, -2.55706071853637695312e-01) (34, -3.61292630434036254883e-01) (35, -5.07957994937896728516e-01) (36, -3.37726294994354248047e-01) (37, -3.70615810155868530273e-01) (38, -3.67343753576278686523e-01) (39, 6.55516982078552246094e-02) (40, 1.51238232851028442383e-01) (41, -1.96002289652824401855e-01) (42, -2.37151011824607849121e-01) (43, -5.20909726619720458984e-01) (44, -2.06957712769508361816e-01) (45, -2.84215956926345825195e-01) (46, -7.04621896147727966309e-02) (47, 7.03188180923461914062e-02) (48, -5.21637201309204101562e-01) (0, -5.18918223679065704346e-02) (1, -3.66319045424461364746e-02) (2, -9.94426012039184570312e-02) (3, -1.85736730694770812988e-01) (4, 3.22209335863590240479e-02) (5, 1.81312143802642822266e-01) (6, 2.43690937757492065430e-01) (7, 2.37251110374927520752e-02) (8, 1.67857464402914047241e-02) (9, -2.43821278214454650879e-01) (10, -7.17015936970710754395e-02) (11, 5.38148079067468643188e-03) (12, -2.84817591309547424316e-02) (13, -8.42409133911132812500e-02) (14, 2.30725586414337158203e-01) (15, 1.69462978839874267578e-01) (16, -2.96750962734222412109e-01) (17, -2.85004287958145141602e-01) (18, -2.23305493593215942383e-01) (19, -2.23660975694656372070e-01) (20, -1.23042114078998565674e-01) (21, -4.48264628648757934570e-01) (22, -4.77818220853805541992e-01) (23, -2.98566281795501708984e-01) (24, -3.99839460849761962891e-01) (25, -2.79795706272125244141e-01) (26, -3.08916360139846801758e-01) (27, -1.30911603569984436035e-01) (28, -3.22658538818359375000e-01) (29, -3.03794324398040771484e-01) (30, -3.83056372404098510742e-01) (31, -3.05674225091934204102e-01) (32, -6.86099603772163391113e-02) (33, -3.41812163591384887695e-01) (34, -5.02964854240417480469e-01) (35, -4.73120898008346557617e-01) (36, -2.90074288845062255859e-01) (37, -3.82815986871719360352e-01) (38, -3.86738121509552001953e-01) (39, -1.51161411777138710022e-02) (40, 9.65171158313751220703e-02) (41, 9.56344828009605407715e-02) (42, -3.25126707553863525391e-01) (43, -1.98308944702148437500e-01) (44, -3.06989282369613647461e-01) (45, -1.81216642260551452637e-01) (46, -1.54273852705955505371e-01) (47, -2.16740462929010391235e-02) (48, -3.78170162439346313477e-01) (0, 2.31832861900329589844e-02) (1, 8.40817391872406005859e-02) (2, 9.73398461937904357910e-02) (3, -1.19674973189830780029e-01) (4, -5.00790476799011230469e-01) (5, 9.53060463070869445801e-02) (6, -7.60566666722297668457e-02) (7, -1.93152755498886108398e-01) (8, 2.85276830196380615234e-01) (9, -4.98122461140155792236e-02) (10, -2.28313773870468139648e-01) (11, -1.00000865757465362549e-01) (12, -2.47252970933914184570e-01) (13, -2.03627143055200576782e-02) (14, -1.72588124871253967285e-01) (15, 1.91383242607116699219e-01) (16, -4.70042005181312561035e-02) (17, -1.43773689866065979004e-01) (18, -2.33020424842834472656e-01) (19, 1.80230811238288879395e-02) (20, -5.76936364173889160156e-01) (21, -4.31838154792785644531e-01) (22, -5.72486817836761474609e-01) (23, -8.47656548023223876953e-01) (24, 1.58283933997154235840e-01) (25, -5.32113611698150634766e-01) (26, -9.84803363680839538574e-02) (27, -2.39646688103675842285e-01) (28, -6.65661394596099853516e-01) (29, -5.43519079685211181641e-01) (30, -8.34711909294128417969e-01) (31, -8.86924386024475097656e-01) (32, -1.78136691451072692871e-01) (33, -3.22236567735671997070e-01) (34, -4.27986502647399902344e-01) (35, -4.34270590543746948242e-01) (36, -8.26060473918914794922e-01) (37, -3.42036962509155273438e-01) (38, -5.23621857166290283203e-01) (39, -2.07178682088851928711e-01) (40, -1.53597921133041381836e-01) (41, -2.59227752685546875000e-01) (42, -2.49467119574546813965e-01) (43, -6.85989320278167724609e-01) (44, -7.44463741779327392578e-01) (45, -3.84864270687103271484e-01) (46, -1.57339498400688171387e-01) (47, 5.42864482849836349487e-03) (48, -5.27979314327239990234e-01) (0, 2.52959839999675750732e-02) (1, -9.56258699297904968262e-02) (2, -2.15658962726593017578e-01) (3, -6.95262178778648376465e-02) (4, -6.29769563674926757812e-02) (5, 1.06985218822956085205e-01) (6, 1.87279775738716125488e-01) (7, 6.53337612748146057129e-02) (8, 1.05114370584487915039e-01) (9, -1.64876654744148254395e-01) (10, -4.60155941545963287354e-02) (11, -6.95043662562966346741e-03) (12, 2.36961245536804199219e-02) (13, -9.97294783592224121094e-02) (14, 3.03265541791915893555e-01) (15, 1.33051112294197082520e-01) (16, -3.43427658081054687500e-01) (17, -3.80626708269119262695e-01) (18, -1.42921671271324157715e-01) (19, -2.24230244755744934082e-01) (20, 7.79994502663612365723e-02) (21, -3.66684734821319580078e-01) (22, -5.87850213050842285156e-01) (23, -2.92599111795425415039e-01) (24, -4.90826815366744995117e-01) (25, -4.70337301492691040039e-01) (26, -3.51531535387039184570e-01) (27, -3.01713824272155761719e-01) (28, -3.54961514472961425781e-01) (29, -2.69528061151504516602e-01) (30, -4.43213641643524169922e-01) (31, -2.11088404059410095215e-01) (32, -1.51648133993148803711e-01) (33, -4.29489403963088989258e-01) (34, -4.93242770433425903320e-01) (35, -6.38285994529724121094e-01) (36, -3.75682711601257324219e-01) (37, -3.42506796121597290039e-01) (38, -4.19482856988906860352e-01) (39, 4.17099297046661376953e-02) (40, 2.30311751365661621094e-01) (41, -9.66357365250587463379e-02) (42, -2.63882309198379516602e-01) (43, -3.73982280492782592773e-01) (44, -2.78227120637893676758e-01) (45, -6.53102323412895202637e-02) (46, -6.71373829245567321777e-02) (47, 1.68561041355133056641e-01) (48, -4.95935648679733276367e-01) (0, -2.24809035658836364746e-01) (1, -1.77130743395537137985e-03) (2, -8.54557529091835021973e-02) (3, 6.42860382795333862305e-02) (4, -1.68343469500541687012e-01) (5, -7.80364722013473510742e-02) (6, -7.61787742376327514648e-02) (7, 4.43325638771057128906e-02) (8, -1.49879255332052707672e-03) (9, -3.39983007870614528656e-03) (10, -1.20797969400882720947e-01) (11, -1.01118475198745727539e-01) (12, -3.47570478916168212891e-01) (13, -1.02090127766132354736e-01) (14, -1.95743903517723083496e-01) (15, 2.24436089396476745605e-01) (16, -3.99814367294311523438e-01) (17, -2.56471745669841766357e-02) (18, -1.54383957386016845703e-01) (19, -1.46927237510681152344e-01) (20, -3.13583910465240478516e-01) (21, -2.93363690376281738281e-01) (22, -4.37839567661285400391e-01) (23, -5.26453375816345214844e-01) (24, -1.04743270203471183777e-02) (25, -3.07786077260971069336e-01) (26, -2.54101663827896118164e-01) (27, -2.55801737308502197266e-01) (28, -5.91789007186889648438e-01) (29, -4.89728868007659912109e-01) (30, -6.89164459705352783203e-01) (31, -5.86085140705108642578e-01) (32, 1.46523803472518920898e-01) (33, -4.34396713972091674805e-01) (34, -2.73029237985610961914e-01) (35, -4.45555925369262695312e-01) (36, -5.23339569568634033203e-01) (37, -4.49645936489105224609e-01) (38, -3.97822141647338867188e-01) (39, -1.50392800569534301758e-01) (40, 8.70643779635429382324e-02) (41, -1.83742001652717590332e-01) (42, -3.19627314805984497070e-01) (43, -6.12163782119750976562e-01) (44, -5.76968729496002197266e-01) (45, -4.19525682926177978516e-01) (46, -1.90485149621963500977e-01) (47, -7.39678665995597839355e-02) (48, -5.41568040847778320312e-01) (0, 1.17061100900173187256e-01) (1, 1.16125926375389099121e-01) (2, -9.57759991288185119629e-02) (3, -3.08713391423225402832e-02) (4, -3.36186766624450683594e-01) (5, 1.63362279534339904785e-01) (6, 9.69762131571769714355e-02) (7, -1.87569051980972290039e-01) (8, 1.92755103111267089844e-01) (9, -1.13970510661602020264e-01) (10, -4.05475080013275146484e-01) (11, -6.04134052991867065430e-02) (12, 1.49707794189453125000e-01) (13, 1.07450805604457855225e-01) (14, 1.13324500620365142822e-01) (15, 3.13293159008026123047e-01) (16, -2.85343527793884277344e-01) (17, -3.66611212491989135742e-01) (18, -2.06992521882057189941e-01) (19, -4.88091669976711273193e-02) (20, -1.85677871108055114746e-01) (21, -4.56478595733642578125e-01) (22, -4.22262191772460937500e-01) (23, -8.89817953109741210938e-01) (24, -2.08013936877250671387e-01) (25, -5.43987393379211425781e-01) (26, -2.98283308744430541992e-01) (27, -1.65501162409782409668e-01) (28, -2.86564290523529052734e-01) (29, -3.55824619531631469727e-01) (30, -6.08258843421936035156e-01) (31, -8.52168142795562744141e-01) (32, -2.13922619819641113281e-01) (33, -3.80831092596054077148e-01) (34,